{"frameRate":24,"name":"Sidesprite2","version":"5.5","compatibleVersion":"5.5","armature":[{"type":"Armature","frameRate":24,"name":"Armature","aabb":{"x":-301.61,"y":-371.68,"width":453.79,"height":344.88},"bone":[{"name":"root"},{"length":29,"name":"head1","parent":"root","transform":{"x":-229.6,"y":-256.85,"skX":-134.9309,"skY":-134.9309}},{"length":27,"name":"Eye","parent":"root","transform":{"x":-421.5834,"y":-349.7374,"skX":-90,"skY":-90}},{"length":117,"name":"body","parent":"root","transform":{"x":1.9,"y":-168.7,"skX":-165.9579,"skY":-165.9579}},{"length":47,"name":"bone","parent":"root","transform":{"x":-15.4176,"y":-515.876,"skX":-30.3432,"skY":-30.3432}},{"length":23,"name":"horn","parent":"head1","transform":{"x":-20.1237,"y":82.5437,"skX":77.6589,"skY":77.6589}},{"length":29,"name":"hand1","parent":"body","transform":{"x":311.2293,"y":-186.617,"skX":77.7964,"skY":77.7964}},{"length":25,"name":"jaw","parent":"head1","transform":{"x":-79.9288,"y":-50.5678,"skX":-82.5483,"skY":-82.5483}},{"length":44,"name":"head","parent":"head1","transform":{"x":45.7936,"y":4.4141,"skX":2.9869,"skY":2.9869}},{"length":26,"name":"leg","parent":"body","transform":{"x":-248.3552,"y":-45.1973,"skX":75.9579,"skY":75.9579}},{"length":30,"name":"hand2","parent":"body","transform":{"x":371.7923,"y":-201.3908,"skX":78.189,"skY":78.189}},{"length":49,"name":"tail","parent":"body","transform":{"x":-272.9387,"y":66.385,"skX":94.5653,"skY":94.5653}},{"length":33,"name":"Mane","parent":"head1","transform":{"x":-78.7838,"y":77.9829,"skX":92.3624,"skY":92.3624}},{"length":52,"name":"Layer_121","parent":"jaw","transform":{"x":-100.2104,"y":32.4162,"skX":-33.8616,"skY":-33.8616}}],"slot":[{"name":"Layer_11_copy","parent":"hand2"},{"name":"Layer_8","parent":"body"},{"name":"Layer_9","parent":"tail"},{"name":"Layer_10","parent":"leg"},{"name":"Layer_11","parent":"hand1"},{"name":"Layer_7","parent":"Mane"},{"name":"Layer_12","parent":"jaw"},{"name":"Layer_22","parent":"root"},{"name":"Layer_13","parent":"jaw"},{"name":"Layer_15","parent":"jaw"},{"name":"Layer_12_copy_3","parent":"head"},{"name":"Layer_6","parent":"Eye"},{"name":"Layer_6_copy","parent":"Eye"},{"name":"Layer_14","parent":"Eye"},{"name":"Layer_4","parent":"horn"}],"skin":[{"slot":[{"name":"Layer_4","display":[{"type":"mesh","name":"Layer_4","width":90,"height":114,"path":"Layer_21","vertices":[-166.74,-361.57,-174.49,-356.07,-179.99,-347.57,-183.79,-338.27,-185.84,-327.27,-184.19,-315.42,-187.84,-307.32,-187.84,-295.27,-187.83,-271.82,-184.34,-259.17,-181.59,-249.47,-175.69,-247.22,-173.54,-245.17,-172.64,-243.17,-171.04,-241.02,-169.04,-239.87,-173.44,-240.12,-175.74,-232.07,-178.24,-244.27,-186.24,-247.22,-192.19,-259.52,-196.09,-267.12,-201.59,-276.02,-207.44,-278.12,-214.19,-271.77,-216.84,-263.72,-216.84,-253.12,-216.44,-240.42,-213.04,-231.12,-207.94,-221.77,-201.59,-214.17,-194.39,-207.82,-183.84,-203.17,-175.34,-200.22,-159.69,-198.12,-145.04,-228.13,-140.04,-228.13,-112.69,-205.27,-100.39,-211.22,-89.79,-219.67,-84.74,-226.47,-79.24,-235.32,-75.84,-242.52,-72.89,-251.87,-69.49,-265.42,-68.84,-277.67,-68.84,-290.82,-71.19,-303.97,-74.14,-315.37,-77.54,-326.37,-83.44,-340.32,-91.09,-350.52,-99.14,-360.27,-110.14,-367.02,-121.14,-372.12,-131.74,-372.12,-144.04,-372.12,-155.04,-369.17,-161.79,-366.22,-160.91,-354.68,-149.81,-353.48,-138.71,-348.73,-129.21,-342.78,-119.71,-332.48,-112.16,-322.98,-108.21,-312.68,-105.46,-299.23,-103.86,-286.13,-103.86,-273.08,-105.46,-261.18,-108.21,-248.53,-113.36,-236.23,-124.86,-226.33,-138.31,-222.38,-153.88,-228.11,-162.86,-218.83,-174.36,-218.83,-186.21,-219.98,-194.16,-222.38,-154.96,-361.38,-142.26,-364.93,-131.56,-364.18,-118.11,-360.18,-109.01,-354.28,-101.06,-344.38,-94.36,-333.28,-89.21,-325.33,-84.06,-313.88,-80.86,-303.18,-79.71,-292.48,-77.71,-278.63,-80.11,-267.93,-82.86,-256.43,-85.66,-246.93,-88.41,-238.23,-92.76,-231.88,-97.51,-225.93,-104.26,-220.38,-114.96,-214.83,-126.41,-210.08,-145.06,-228.13,-157.71,-206.53,-171.56,-208.53,-180.31,-210.08],"uvs":[0.23444,-0.17062,0.14834,-0.12237,0.08723,-0.04781,0.045,0.03377,0.02222,0.13027,0.04056,0.23421,0.00001,0.31228,0.00001,0.41096,0.00001,0.61666,0.03886,0.72763,0.06941,0.81271,0.13497,0.83246,0.15886,0.85043,0.16887,0.86798,0.18664,0.88685,0.20888,0.89693,0.16001,0.89474,0.13446,0.96536,0.10667,0.85833,0.01778,0.83246,-0.04834,0.72457,-0.09167,0.6579,-0.15278,0.57983,-0.21778,0.5614,-0.29277,0.6171,-0.32222,0.68772,-0.32222,0.7807,-0.31778,0.89211,-0.27999,0.97368,-0.22333,1.0557,-0.15278,1.12237,-0.07278,1.17807,0.04444,1.21886,0.1389,1.24474,0.31278,1.26316,0.47571,0.99999,0.5313,0.99999,0.83501,1.20044,0.97166,1.14824,1.08945,1.07412,1.14556,1.01448,1.20667,0.93685,1.24444,0.87369,1.27723,0.79166,1.315,0.67281,1.32222,0.56536,1.32222,0.45,1.29611,0.33465,1.26333,0.23465,1.22556,0.13816,1.16,0.01579,1.075,-0.07368,0.98556,-0.15922,0.86334,-0.21842,0.74111,-0.26316,0.62333,-0.26316,0.48666,-0.26316,0.36445,-0.23729,0.28945,-0.2114,0.29928,-0.11018,0.42261,-0.09964,0.54595,-0.05798,0.6515,-0.00578,0.75706,0.08457,0.84094,0.1679,0.88483,0.25825,0.91539,0.37623,0.93316,0.49115,0.93316,0.60562,0.91539,0.71001,0.88483,0.82097,0.82761,0.92886,0.69983,1.01571,0.55039,1.05036,0.37666,0.99999,0.27761,1.0815,0.14983,1.0815,0.01816,1.07141,-0.07016,1.05036,0.36539,-0.16894,0.5065,-0.20008,0.62539,-0.1935,0.77484,-0.15841,0.87594,-0.10666,0.96428,-0.01982,1.03872,0.07755,1.09595,0.14728,1.15316,0.24773,1.18873,0.34158,1.2015,0.43545,1.22372,0.55693,1.19705,0.6508,1.16649,0.75167,1.13538,0.83501,1.10483,0.91133,1.0565,0.96702,1.00373,1.01922,0.92872,1.0679,0.80983,1.11659,0.68262,1.15825,0.47549,0.99999,0.33483,1.18939,0.18094,1.17185,0.08373,1.15825],"triangles":[88,89,47,47,89,46,89,90,46,92,43,44,91,92,44,91,44,45,90,91,45,46,90,45,48,88,47,49,87,48,87,88,48,93,42,43,92,93,43,93,94,41,86,87,49,50,86,49,93,41,42,89,67,90,68,91,90,67,68,90,85,86,50,88,66,89,94,40,41,68,92,91,68,69,92,66,67,89,94,95,40,87,66,88,65,66,87,69,93,92,51,85,50,86,65,87,84,85,51,95,39,40,70,94,93,69,70,93,95,96,39,70,95,94,85,64,86,64,65,86,96,97,39,97,38,39,70,71,95,52,84,51,71,96,95,83,84,52,84,64,85,63,64,84,71,97,96,53,83,52,97,98,38,98,37,38,83,63,84,72,98,71,71,98,97,12,69,68,11,12,68,8,11,68,66,7,67,8,68,67,7,8,67,62,63,83,53,82,83,65,7,66,36,70,69,15,36,69,12,15,69,15,35,36,64,63,65,63,5,65,5,7,65,36,71,70,82,62,83,8,9,11,54,82,53,36,72,71,35,15,100,62,5,63,72,36,98,54,81,82,81,62,82,61,5,62,81,61,62,55,81,54,4,5,60,15,74,100,60,5,61,80,61,81,59,4,60,101,35,100,56,80,55,55,80,81,6,7,5,3,4,59,74,101,100,80,60,61,75,101,74,79,60,80,56,57,80,57,79,80,2,3,59,79,59,60,57,58,79,15,75,74,15,17,75,58,59,79,12,13,15,1,2,59,0,59,58,102,34,101,75,102,101,17,76,75,102,33,34,0,1,59,13,14,15,76,102,75,9,10,11,16,17,15,103,33,102,76,103,102,77,76,17,103,32,33,77,103,76,78,77,17,18,19,17,19,78,17,31,32,103,77,31,103,28,78,19,27,28,19,78,31,77,20,27,19,30,31,78,26,27,20,28,29,78,21,26,20,25,26,21,29,30,78,22,24,21,24,25,21,23,24,22,98,36,37,101,34,35],"weights":[1,5,1,1,5,1,1,5,1,1,5,1,1,5,1,1,5,1,1,5,1,1,5,1,1,5,1,1,5,1,1,5,1,1,5,1,1,5,1,1,5,1,1,5,1,1,5,1,1,5,1,1,5,1,1,5,1,1,5,1,1,5,1,1,5,1,1,5,1,1,5,1,1,5,1,1,5,1,1,5,1,1,5,1,1,5,1,1,5,1,1,5,1,1,5,1,1,5,1,1,5,1,1,5,1,1,5,1,1,5,1,1,5,1,1,5,1,1,5,1,1,5,1,1,5,1,1,5,1,1,5,1,1,5,1,1,5,1,1,5,1,1,5,1,1,5,1,1,5,1,1,5,1,1,5,1,1,5,1,1,5,1,1,5,1,1,5,1,1,5,1,1,5,1,1,5,1,1,5,1,1,5,1,1,5,1,1,5,1,1,5,1,1,5,1,1,5,1,1,5,1,1,5,1,1,5,1,1,5,1,1,5,1,1,5,1,1,5,1,1,5,1,1,5,1,1,5,1,1,5,1,1,5,1,1,5,1,1,5,1,1,5,1,1,5,1,1,5,1,1,5,1,1,5,1,1,5,1,1,5,1,1,5,1,1,5,1,1,5,1,1,5,1,1,5,1,1,5,1,1,5,1,1,5,1,1,5,1,1,5,1,1,5,1,1,5,1,1,5,1,1,5,1,1,5,1,1,5,1,1,5,1],"slotPose":[1,0,0,1,0,0],"bonePose":[5,0.540652,-0.841246,0.841246,0.540652,-156.95,-300.9],"edges":[0,1,1,2,2,3,3,4,4,5,5,6,6,7,7,8,8,9,9,10,10,11,11,12,12,13,13,14,14,15,15,16,16,17,17,18,18,19,19,20,20,21,21,22,22,23,23,24,24,25,25,26,26,27,27,28,28,29,29,30,30,31,31,32,32,33,33,34,34,35,35,36,36,37,37,38,38,39,39,40,40,41,41,42,42,43,43,44,44,45,45,46,46,47,47,48,48,49,49,50,50,51,51,52,52,53,53,54,54,55,55,56,56,57,57,58,58,0],"userEdges":[]}]},{"name":"Layer_7","display":[{"type":"mesh","name":"Layer_7","width":205,"height":168,"path":"Layer_17","vertices":[-248,-313.59,-249.24,-329.13,-244.72,-345.22,-239.08,-355.07,-226.35,-357.87,-217.15,-359.07,-210.78,-368.16,-211.46,-378.35,-214.51,-386.3,-213.31,-394.2,-208.46,-400.35,-201.06,-397.9,-199.91,-391.15,-193.76,-392.95,-196.21,-406.45,-193.76,-418.65,-186.41,-428.45,-176.66,-443.1,-163.81,-446.75,-152.21,-443.1,-138.16,-441.25,-125.31,-441.3,-114.91,-447.45,-102.71,-452.3,-89.91,-457.25,-80.71,-457.35,-66.06,-457.35,-62.41,-452.3,-71.56,-448,-77.06,-442.5,-78.91,-435.85,-73.41,-430.9,-66.06,-430.35,-56.91,-434.55,-45.31,-440.05,-35.51,-443.15,-25.76,-443.75,-17.21,-439.45,-9.26,-432.15,-0.11,-424.8,9.04,-417.45,17.59,-411.95,30.44,-411.95,43.24,-415,53.64,-416.25,63.44,-414.4,73.79,-407.65,78.69,-399.1,82.34,-386.3,73.19,-389.95,64.64,-388.15,57.29,-382.65,59.74,-374.1,56.09,-366.15,56.69,-357.6,65.24,-356.95,75.04,-357.6,81.14,-351.5,89.69,-339.85,96.39,-327.05,102.49,-316.65,109.84,-309.35,118.99,-308.1,128.79,-308.1,136.09,-306.9,148.94,-308.7,148.94,-302,140.99,-295.9,133.69,-288.55,124.49,-279.4,113.49,-273.9,104.94,-267.2,94.59,-263.5,81.14,-262.9,71.34,-265.35,63.44,-265.35,56.69,-261.05,56.09,-251.9,54.89,-244.6,48.74,-236.65,38.99,-230.55,31.04,-225.65,42.04,-225.05,53.04,-223.2,64.04,-219.55,70.74,-213.45,59.74,-214.05,51.19,-209.15,48.14,-200,44.49,-189.6,34.69,-186.55,26.14,-181.65,20.04,-171.9,15.14,-162.75,5.39,-157.25,-6.21,-154.8,-24.56,-151.75,-35.51,-146.85,-42.86,-140.1,-43.46,-127.9,-35.51,-114.45,-36.11,-105.9,-44.66,-112.65,-55.66,-116.3,-64.86,-119.95,-69.71,-114.45,-69.11,-104.1,-81.31,-104.7,-93.56,-106.55,-108.21,-108.35,-119.21,-110.2,-131.41,-107.75,-141.81,-102.85,-148.51,-99.2,-154.01,-91.85,-160.11,-96.15,-159.51,-102.85,-167.46,-88.8,-170.51,-82.1,-175.41,-74.15,-182.11,-81.5,-188.86,-91.25,-198.01,-98,-202.91,-110.2,-200.46,-116.9,-190.66,-119.95,-180.91,-123,-174.16,-127.9,-171.76,-134.65,-178.46,-145,-174.81,-151.75,-176.01,-162.7,-171.76,-168.85,-161.96,-174.35,-151.56,-179.85,-141.81,-183.5,-139.96,-193.9,-135.11,-200.6,-128.96,-207.95,-132.01,-217.7,-136.26,-229.72,-142.96,-233.42,-146.61,-240.12,-145.41,-246.22,-152.76,-253.57,-162.41,-261.16,-164.04,-271.62,-165.08,-283.07,-162.4,-291.41,-160.06,-303.89,-157.38,-311.63,-152.48,-317.73,-146.98,-322.63,-141.64,-330.6,-147.32,-334.78,-156.31,-335.9,-171.19,-335.78,-185.01,-335.35,-199.99,-332.09,-212.25,-327.32,-225.76,-321.78,-235.83,-313.94,-244.19,-306.69,-241.31,-320.42,-240.73,-329.83,-237.02,-338.57,-232.24,-344.72,-222.64,-346.07,-212.56,-347.62,-204.01,-359.25,-203.12,-373.24,-205.9,-386.75,-199.5,-380.85,-189,-382.2,-185.85,-400,-185.35,-410.45,-180.35,-418.2,-171.7,-431,-163.5,-435.1,-152.1,-432.35,-140.7,-431.9,-124.75,-430.05,-112,-436.45,-100.6,-441.9,-91.05,-445.55,-80.1,-450.1,-85.45,-443.95,-87.1,-436.35,-82.45,-429.05,-74.2,-422.75,-66.2,-421.4,-56.6,-424.7,-44.35,-430.35,-34.05,-433.35,-26.45,-433.65,-19.15,-429.7,-10.85,-423.4,-2.55,-416.45,6.4,-407.8,17.35,-402.15,31.6,-402.85,44.85,-404.85,51.5,-406.5,60.1,-405.8,68.4,-399.85,62.1,-394.9,51.15,-386.25,50.15,-375.3,49.2,-366.35,49.2,-356.1,56.8,-349.45,65.45,-348.45,72.05,-350.1,78.7,-342.15,87.25,-327.6,95.25,-315,104.2,-305.05,116.1,-300.75,127.4,-300.4,136.65,-300.75,128.7,-294.75,121.4,-287.8,111.45,-281.85,104.2,-278.2,95.55,-274.2,84.6,-273.55,73.7,-272.9,64.05,-273.2,54.45,-268.6,49.15,-262.95,48.45,-253.65,46.5,-247.05,38.85,-240.05,29.9,-233.1,22.35,-227.45,23.65,-217.5,34.6,-217.15,43.2,-217.5,50.5,-216.2,43.55,-210.85,39.25,-203.25,37.25,-196.95,31.3,-194.3,23.65,-188.65,16.05,-179.4,11.4,-170.1,3.75,-165.1,-7.55,-162.8,-26.1,-159.8,-42.7,-152.15,-51.65,-143.85,-52.95,-131.25,-48.35,-121.65,-54.95,-123,-64.25,-127.3,-72.55,-121.35,-76.85,-113.05,-88.45,-113.05,-102.7,-116.05,-116.95,-117.7,-133.5,-114.75,-143.45,-109.75,-152.1,-104.8,-157.4,-109.1,-165,-106.1,-171.3,-98.15,-174.95,-87.2,-180.6,-91.55,-185.25,-97.15,-192.55,-100.5,-194.85,-107.45,-189.2,-111.4,-177.6,-114.4,-168.3,-121.05,-162.7,-130.65,-170.3,-142.25,-165.65,-145.9,-165,-157.5,-161.35,-163.8,-153.75,-167.8,-146.75,-170.75,-138.15,-175.4,-132.85,-186.3,-130.85,-193.6,-123.9,-196.6,-119.6,-205.55,-122.55,-219.15,-130.96,-232.84,-134.26,-238.76,-134.26,-245.71,-138.05,-253.39,-147.4,-263.4,-150.45,-272.6,-151.97,-283.19,-151.52,-292.22,-150.87,-298.87,-148.52,-305.17,-144.57,-309.82,-140.57,-314.77,-132.97,-328.07,-137.55,-340.47,-153.68,-343.2,-173.52,-343.89,-187.9,-342.01,-202.79,-338.86,-214.33,-335.14,-229.61,-327.61,-98.55,-429,-108.65,-419.8,-119.2,-414.75,-134.8,-414.3,-152.25,-412,-165.1,-400.55,-170.15,-390.9,-174.7,-368.9,-181.12,-359.39,-192.59,-349.62,-150.85,-352.4,-144.45,-372.1,-136.2,-386.8,-116.9,-389.05,-105.45,-389.05,-78.4,-393.2,-61.85,-393.65,-44.9,-406.05,-31.15,-411.1,-10.05,-393.65,-17.35,-402.4,3.75,-384.05,24.85,-382.2,36.3,-389.55,49.15,-397.35,-128.4,-340,-117.35,-355.15,-114.15,-365.2,-99.5,-368.45,-77.45,-366.6,-57.3,-365.7,-36.2,-367.5,-38.45,-390.9,-20.6,-362.45,1,-355.15,19.8,-355.15,33.55,-342.75,47.3,-324.4,65.2,-319.8,77.55,-310.2,87.65,-296.9,105.55,-290.9,-136.65,-303.75,-117.85,-306.95,-107.75,-322.1,-100.4,-332.65,-87.6,-345.5,-69.25,-344.6,-55.45,-337.7,-36.65,-339.1,-20.6,-336.35,-6.4,-329,13.8,-323,25.75,-313.4,36.75,-300.55,56,-296.4,72.5,-295.05,-141.7,-284.05,-129.8,-278.05,-102.7,-284.05,-95.85,-299.15,-73.8,-316.6,-54.1,-309.25,-35.75,-300.55,-20.6,-301,-2.25,-295.95,11.95,-283.1,29.85,-261.55,23.9,-274.85,-134.8,-260.2,-115.55,-250.55,-94.45,-252.85,-72.9,-260.2,-46.75,-266.15,-27,-264.3,-15.1,-257.9,6.95,-251,-71.5,-287.25,-72.9,-301,-113.25,-222.55,-86.2,-223.95,-68.75,-234.5,-42.6,-228.05,-20.15,-224.4,1.4,-219.35,24.8,-206.05,3.25,-198.25,-20.15,-200.55,-37.55,-200.55,-60.05,-196.9,-83.9,-186.8,-100.4,-176.7,-114.65,-168.45,-147.65,-150.1,-131.15,-141.35,-109.15,-142.75,-77.5,-149.65,-63.7,-138.15],"uvs":[-0.47367,0.21696,-0.47658,0.12261,-0.44976,0.02441,-0.42293,-0.03394,-0.35756,-0.05209,-0.31268,-0.05924,-0.27999,-0.11398,-0.27999,-0.1759,-0.29487,-0.2232,-0.28902,-0.27023,-0.26537,-0.30685,-0.22927,-0.29225,-0.22365,-0.25208,-0.19365,-0.2628,-0.2056,-0.34315,-0.19365,-0.41577,-0.15781,-0.4741,-0.11024,-0.56132,-0.04757,-0.58304,0.00903,-0.56132,0.07756,-0.55029,0.14025,-0.55059,0.19097,-0.58721,0.25049,-0.61606,0.31293,-0.64554,0.35781,-0.64613,0.42927,-0.64613,0.44708,-0.61606,0.40243,-0.59047,0.3756,-0.55774,0.36658,-0.51816,0.39341,-0.48869,0.42927,-0.48542,0.47389,-0.51042,0.53049,-0.54314,0.5783,-0.56161,0.62585,-0.56519,0.66757,-0.53959,0.70634,-0.49614,0.75098,-0.45237,0.79561,-0.40862,0.83732,-0.3759,0.89999,-0.3759,0.96245,-0.39405,1.01317,-0.4015,1.06098,-0.39047,1.11146,-0.3503,1.13536,-0.2994,1.15317,-0.2232,1.10853,-0.24493,1.06683,-0.23423,1.03098,-0.20148,1.04293,-0.1506,1.02512,-0.10328,1.02805,-0.05238,1.06976,-0.04851,1.11755,-0.05238,1.14732,-0.01606,1.18903,0.05326,1.2217,0.12946,1.25147,0.19136,1.28732,0.23483,1.33195,0.24226,1.37976,0.24226,1.41536,0.24941,1.47805,0.23868,1.47805,0.27858,1.43927,0.31488,1.40366,0.35863,1.35878,0.4131,1.30512,0.44583,1.26342,0.48572,1.21294,0.50775,1.14732,0.51132,1.09951,0.49672,1.06098,0.49672,1.02805,0.52232,1.02512,0.57679,1.01926,0.62024,0.98926,0.66757,0.94171,0.70387,0.90292,0.73304,0.95659,0.73661,1.01024,0.74761,1.06391,0.76934,1.09658,0.80566,1.04293,0.80209,1.00121,0.83126,0.98633,0.88571,0.96854,0.94761,0.92073,0.96578,0.87902,0.99493,0.84927,1.05298,0.82537,1.10743,0.77781,1.14018,0.72122,1.15475,0.63171,1.17292,0.5783,1.20208,0.54244,1.24227,0.53951,1.31487,0.5783,1.39494,0.57537,1.44584,0.53366,1.40564,0.48001,1.38392,0.43513,1.36219,0.41146,1.39494,0.41439,1.45654,0.35488,1.45297,0.29512,1.44197,0.22366,1.43124,0.16999,1.42024,0.11049,1.43482,0.05975,1.46399,0.02707,1.48571,0.00024,1.52946,-0.0295,1.50386,-0.02659,1.46399,-0.06536,1.54761,-0.08024,1.58751,-0.10415,1.63481,-0.13684,1.59106,-0.16975,1.53304,-0.21439,1.49286,-0.2383,1.42024,-0.22634,1.38037,-0.17853,1.36219,-0.13098,1.34404,-0.09805,1.31487,-0.08634,1.2747,-0.11903,1.2131,-0.10122,1.17292,-0.10708,1.10773,-0.08634,1.07113,-0.03855,1.0384,0.01219,1.00566,0.05975,0.98393,0.06879,0.92203,0.09244,0.88214,0.12244,0.83839,0.10756,0.78036,0.06268,0.72231,0.03,0.70029,0.01219,0.66042,0.01805,0.62412,-0.01781,0.58035,-0.05048,0.5259,-0.06536,0.46755,-0.07438,0.40208,-0.05952,0.35118,-0.05048,0.27858,-0.03562,0.23126,-0.01171,0.19493,0.01512,0.16578,0.03586,0.12231,0.00903,0.09674,-0.03855,0.09316,-0.11024,0.09316,-0.17879,0.09674,-0.25048,0.11489,-0.30683,0.14048,-0.37245,0.17321,-0.41707,0.21666,-0.45879,0.26041,-0.44408,0.17827,-0.43506,0.11846,-0.41286,0.06429,-0.38627,0.0262,-0.33944,0.01815,-0.29285,0.01013,-0.24822,-0.0604,-0.24164,-0.14465,-0.25286,-0.22589,-0.22163,-0.19078,-0.17042,-0.1988,-0.15504,-0.30476,-0.1526,-0.36696,-0.12823,-0.41309,-0.08602,-0.48929,-0.04602,-0.51367,0.00958,-0.49731,0.06519,-0.49463,0.143,-0.48363,0.2052,-0.52172,0.26079,-0.55417,0.30739,-0.57589,0.3608,-0.60298,0.33471,-0.56636,0.32665,-0.52112,0.34934,-0.47767,0.38958,-0.44018,0.4286,-0.43214,0.47545,-0.45178,0.53519,-0.48542,0.58544,-0.50327,0.62251,-0.50506,0.65811,-0.48154,0.69861,-0.44405,0.73909,-0.40266,0.78275,-0.35119,0.83616,-0.31755,0.90567,-0.32172,0.97031,-0.33362,1.00275,-0.34345,1.0447,-0.33928,1.0852,-0.30387,1.05447,-0.2744,1.00106,-0.22291,0.99616,-0.15773,0.99154,-0.10445,0.99154,-0.04345,1.02862,-0.00387,1.07081,0.00209,1.10301,-0.00774,1.13544,0.03958,1.17714,0.12621,1.21616,0.20119,1.25982,0.26043,1.31787,0.28603,1.373,0.28811,1.41811,0.28603,1.37935,0.32173,1.34372,0.3631,1.29519,0.39853,1.25982,0.42025,1.21763,0.44406,1.16422,0.44793,1.11105,0.45178,1.06398,0.45,1.01714,0.47738,0.99129,0.51102,0.98789,0.56637,0.97837,0.60567,0.94104,0.64733,0.8974,0.6887,0.86056,0.72234,0.86691,0.78155,0.92032,0.78364,0.96227,0.78155,0.99787,0.7893,0.96398,0.82113,0.94301,0.86637,0.93323,0.90388,0.90422,0.91965,0.86691,0.95329,0.82983,1.00834,0.80714,1.0637,0.76983,1.09345,0.71471,1.10715,0.62422,1.12501,0.54325,1.17054,0.49959,1.21995,0.49324,1.29496,0.51569,1.35209,0.48349,1.34404,0.43811,1.31847,0.39764,1.35388,0.37666,1.40328,0.32007,1.40328,0.25055,1.38543,0.18104,1.3756,0.10032,1.39315,0.05179,1.42292,0.00958,1.45239,-0.01627,1.4268,-0.05335,1.44465,-0.08407,1.49197,-0.10189,1.55715,-0.12945,1.53125,-0.15211,1.49793,-0.18773,1.47799,-0.19896,1.4366,-0.1714,1.41309,-0.1148,1.39524,-0.06945,1.35566,-0.04212,1.29851,-0.0792,1.22946,-0.05651,1.20774,-0.05335,1.13869,-0.03554,1.1012,0.00154,1.07739,0.03569,1.05983,0.07764,1.03215,0.10349,0.96727,0.11324,0.92382,0.14715,0.90597,0.16812,0.85269,0.15373,0.77172,0.09545,0.69882,0.06934,0.67114,0.06934,0.62978,0.04836,0.58633,0.0047,0.525,-0.00992,0.46996,-0.0148,0.40476,-0.00821,0.34763,-0.00505,0.30805,0.00641,0.27054,0.02568,0.24287,0.0452,0.2134,0.08228,0.13423,0.05641,0.06309,-0.02286,0.04733,-0.11993,0.04345,-0.1909,0.05537,-0.26212,0.07292,-0.32041,0.09674,-0.38821,0.13631,0.2708,-0.47737,0.22154,-0.4226,0.17007,-0.39256,0.09397,-0.38988,0.00885,-0.37617,-0.05382,-0.30802,-0.07847,-0.25059,-0.10067,-0.11964,-0.13432,-0.06219,-0.19481,-0.00208,0.01567,-0.02142,0.04691,-0.13869,0.08715,-0.22618,0.1813,-0.23957,0.23715,-0.23957,0.36909,-0.26427,0.44983,-0.26695,0.53252,-0.34077,0.59959,-0.37083,0.7025,-0.26695,0.6669,-0.31904,0.76983,-0.20982,0.87277,-0.1988,0.92862,-0.24255,0.99129,-0.28897,0.12519,0.05239,0.17909,-0.03779,0.1947,-0.09762,0.26616,-0.11696,0.37373,-0.10594,0.47203,-0.1006,0.57496,-0.1113,0.56397,-0.25059,0.65106,-0.08124,0.75641,-0.03779,0.84811,-0.03779,0.91519,0.03603,0.98226,0.14525,1.06959,0.17264,1.12982,0.22977,1.1791,0.30894,1.26641,0.34465,0.08495,0.26815,0.17666,0.24911,0.22592,0.15893,0.26178,0.09614,0.32421,0.01964,0.41374,0.02501,0.48105,0.06607,0.57276,0.05775,0.65106,0.07412,0.72031,0.11786,0.81886,0.15357,0.87715,0.21072,0.9308,0.28722,1.02471,0.3119,1.10519,0.31994,0.06032,0.38542,0.11837,0.42114,0.25055,0.38542,0.28397,0.29554,0.39154,0.19168,0.48763,0.23543,0.57714,0.28722,0.65106,0.28454,0.74056,0.31458,0.80984,0.39108,0.89714,0.51934,0.86813,0.44019,0.09397,0.52739,0.18788,0.58484,0.29081,0.57113,0.39593,0.52739,0.52349,0.49198,0.61982,0.50298,0.67787,0.54107,0.78544,0.58216,0.40275,0.36637,0.39593,0.28454,0.19911,0.75149,0.33105,0.74317,0.41618,0.68035,0.54374,0.71876,0.65324,0.74049,0.75837,0.77053,0.87251,0.84971,0.7674,0.89614,0.65324,0.88246,0.56837,0.88246,0.45862,0.90418,0.34226,0.96429,0.26178,1.0244,0.19227,1.07351,0.0313,1.18273,0.11178,1.23482,0.2191,1.2265,0.37348,1.18541,0.44081,1.25387],"triangles":[219,67,66,65,64,66,64,219,66,219,220,67,220,68,67,218,220,219,218,219,64,63,218,64,220,221,68,221,69,68,62,218,63,218,217,220,217,221,220,62,217,218,221,222,69,222,70,69,217,348,221,348,222,221,61,217,62,61,216,217,216,348,217,222,223,70,223,71,70,348,223,222,60,216,61,60,215,216,224,71,223,216,347,348,224,223,348,347,224,348,224,72,71,215,347,216,59,215,60,346,347,215,214,215,59,58,214,59,225,72,224,347,225,224,225,73,72,214,346,215,363,226,225,363,225,347,213,214,58,57,213,58,345,346,214,346,363,347,213,345,214,47,49,48,226,73,225,226,74,73,212,213,57,211,345,213,56,212,57,363,227,226,46,204,47,204,49,47,212,211,213,362,363,346,345,362,346,362,227,363,55,212,56,210,344,345,210,345,211,227,74,226,204,205,49,205,50,49,203,204,46,45,203,46,227,75,74,55,211,212,84,86,85,203,205,204,362,228,227,54,210,55,344,362,345,55,210,211,227,228,75,205,51,50,83,86,84,206,51,205,228,76,75,44,203,45,344,361,362,202,331,203,44,202,203,331,206,205,203,331,205,361,375,228,343,344,210,361,228,362,83,238,86,51,207,52,207,53,52,238,87,86,208,209,54,208,54,53,207,208,53,209,343,210,54,209,210,206,207,51,228,229,76,230,77,76,229,230,76,231,78,77,230,231,77,375,229,228,43,202,44,231,79,78,201,331,202,375,374,229,237,238,83,82,237,83,360,361,344,239,88,87,331,330,206,330,207,206,239,87,238,43,201,202,237,239,238,239,240,88,231,232,79,329,208,207,330,329,207,201,330,331,241,89,88,374,230,229,342,343,209,342,209,208,329,342,208,232,80,79,374,231,230,240,241,88,200,330,201,374,232,231,343,360,344,43,42,201,42,200,201,237,236,239,241,90,89,82,236,237,236,240,239,359,360,343,81,236,82,373,375,361,242,90,241,374,233,232,392,241,240,236,392,240,232,233,80,233,81,80,392,242,241,374,383,233,200,329,330,360,373,361,199,329,200,81,235,236,235,392,236,242,243,90,243,91,90,342,359,343,372,373,360,41,199,42,383,234,233,392,243,242,42,199,200,233,234,81,234,235,81,375,383,374,341,359,342,328,341,342,393,243,392,359,372,360,328,342,329,199,328,329,243,244,91,244,92,91,373,383,375,341,358,359,235,391,392,391,393,392,383,391,234,393,244,243,234,391,235,245,93,92,244,245,92,382,383,373,198,328,199,198,199,41,40,198,41,358,372,359,393,245,244,245,246,93,246,94,93,326,328,198,393,246,245,393,247,246,390,391,383,372,382,373,358,371,372,394,247,393,340,341,328,382,390,383,197,198,40,39,197,40,381,382,372,327,326,197,357,358,341,391,394,393,197,326,198,326,340,328,246,247,94,247,95,94,371,381,372,390,394,391,340,357,341,394,248,247,196,197,39,38,196,39,196,327,197,339,338,340,339,340,326,248,96,247,247,96,95,357,371,358,395,248,394,325,327,196,370,381,371,370,371,357,389,390,382,195,196,38,37,195,38,381,389,382,195,325,196,327,339,326,356,370,357,395,394,390,356,357,340,370,380,381,194,325,195,194,195,37,36,194,37,325,339,327,356,369,370,380,389,381,193,325,194,389,395,390,338,356,340,396,249,395,395,249,248,324,339,325,193,192,325,36,35,194,35,193,194,248,97,96,249,97,248,337,355,356,355,369,356,337,356,338,384,380,370,192,324,325,191,324,192,380,388,389,389,396,395,339,337,338,99,252,100,252,102,100,102,101,100,369,384,370,35,34,193,34,192,193,396,403,249,323,337,339,249,98,97,324,323,339,397,403,396,379,388,380,388,396,389,403,250,249,251,99,98,250,251,98,249,250,98,251,252,99,337,354,355,191,190,324,33,191,192,252,103,102,33,192,34,385,384,369,355,368,369,190,323,324,251,253,252,384,379,380,253,103,252,388,387,396,323,336,337,403,404,250,404,251,250,254,253,251,404,254,251,104,103,253,354,368,355,368,385,369,322,336,323,32,191,33,336,354,337,254,104,253,190,322,323,32,190,191,189,322,190,387,397,396,26,28,27,353,368,354,255,104,254,255,254,404,403,255,404,379,378,388,189,190,32,397,398,403,31,189,32,255,105,104,336,353,354,25,28,26,353,352,368,366,379,384,25,185,28,256,107,106,256,106,105,378,387,388,403,257,255,255,256,105,307,308,322,322,335,336,402,257,403,366,378,379,367,385,368,307,322,189,188,307,189,385,367,384,367,366,384,185,29,28,402,258,257,31,188,189,257,256,255,351,367,368,352,351,368,30,188,31,387,285,397,308,321,322,321,335,322,335,353,336,186,30,29,185,186,29,398,402,403,257,107,256,386,285,387,187,188,30,186,187,30,184,186,185,24,184,185,25,24,185,257,108,107,399,402,398,378,386,387,285,398,397,187,307,188,186,184,187,184,183,187,183,307,187,377,386,378,335,333,353,333,352,353,258,108,257,285,284,398,366,377,378,23,184,24,23,183,184,308,309,321,334,333,335,351,350,367,258,109,108,365,377,366,402,259,258,350,366,367,320,334,321,309,320,321,284,399,398,333,332,352,321,334,335,183,182,307,182,308,307,23,22,183,332,351,352,22,182,183,350,365,366,259,109,258,284,282,399,365,376,377,377,287,386,399,401,402,401,259,402,182,181,308,286,285,386,299,350,351,332,299,351,259,110,109,181,309,308,309,310,320,349,365,350,320,319,334,287,286,386,22,21,182,21,181,182,401,260,259,310,319,320,319,318,334,281,401,399,282,281,399,289,287,377,318,333,334,376,289,377,281,400,401,349,364,365,283,282,284,286,138,285,260,110,259,299,349,350,317,332,333,318,317,333,181,310,309,138,284,285,260,111,110,280,400,281,299,298,349,138,137,284,139,138,286,287,139,286,289,288,287,317,300,332,137,283,284,180,310,181,21,20,181,20,180,181,290,289,376,311,319,310,287,140,139,274,260,401,364,376,365,300,299,332,274,261,260,364,292,376,135,281,282,136,282,283,137,136,283,260,261,111,400,274,401,261,112,111,292,291,376,295,364,349,180,311,310,136,135,282,311,312,319,300,153,299,296,295,349,288,140,287,291,290,376,152,298,299,279,400,280,179,311,180,153,152,299,297,296,349,298,297,349,313,318,319,312,313,319,274,263,261,295,294,364,135,280,281,19,180,20,134,280,135,293,292,364,142,141,288,141,140,288,142,288,289,143,142,289,290,143,289,19,179,180,261,262,112,262,113,112,317,301,300,154,153,300,294,293,364,301,154,300,276,274,400,314,317,318,263,262,261,144,143,290,291,144,290,279,278,400,313,314,318,151,297,298,152,151,298,274,273,263,278,277,400,134,279,280,277,276,400,178,311,179,262,115,113,115,114,113,178,177,311,116,115,262,133,279,134,150,296,297,151,150,297,19,178,179,315,301,317,314,315,317,18,178,19,176,312,311,177,176,311,263,116,262,301,155,154,149,295,296,150,149,296,292,145,291,145,144,291,315,302,301,133,278,279,148,293,294,148,294,295,149,148,295,293,146,292,146,145,292,276,275,274,273,264,263,264,116,263,148,147,293,147,146,293,275,128,274,302,155,301,133,132,278,273,272,264,17,178,18,132,277,278,302,156,155,277,130,276,127,273,274,128,127,274,132,131,277,176,175,312,17,177,178,174,313,312,175,174,312,173,314,313,131,130,277,272,265,264,130,275,276,266,118,117,265,266,117,130,129,275,127,126,273,126,272,273,272,268,265,267,266,265,174,173,313,16,176,177,120,119,118,129,128,275,266,120,118,17,16,177,268,267,265,271,268,272,173,315,314,267,120,266,13,173,174,315,316,302,302,157,156,173,170,315,126,125,272,125,271,272,121,120,267,303,157,302,316,303,302,271,269,268,170,169,315,15,175,176,16,15,176,268,121,267,169,316,315,172,170,173,270,269,271,269,121,268,14,174,175,15,14,175,14,13,174,12,172,13,13,172,173,125,124,271,124,270,271,269,122,121,303,158,157,304,158,303,304,303,316,124,123,270,270,122,269,168,304,316,169,168,316,123,122,270,171,172,12,6,169,170,7,170,172,171,7,172,11,171,12,9,171,11,10,9,11,7,6,170,8,7,171,6,5,169,5,168,169,305,159,304,9,8,171,304,159,158,168,305,304,167,305,168,5,167,168,306,160,305,4,167,5,305,160,159,166,165,305,165,306,305,167,166,305,4,166,167,3,166,4,306,163,160,163,161,160,164,163,306,165,164,306,2,165,166,3,2,166,2,164,165,2,1,164,163,0,161,0,162,161,1,163,164,1,0,163,264,265,116,265,117,116],"weights":[1,3,1,1,3,1,1,3,1,1,3,1,1,3,1,1,3,1,1,3,1,1,3,1,1,3,1,1,3,1,1,3,1,1,3,1,1,3,1,1,3,1,1,3,1,1,3,1,1,3,1,1,3,1,1,3,1,1,3,1,1,3,1,1,3,1,1,3,1,1,3,1,1,3,1,1,3,1,1,3,1,1,3,1,1,3,1,1,3,1,1,3,1,1,3,1,1,3,1,1,3,1,1,3,1,1,3,1,1,3,1,1,3,1,1,3,1,1,3,1,1,3,1,1,3,1,1,3,1,1,3,1,1,3,1,1,3,1,1,3,1,1,3,1,1,3,1,1,3,1,1,3,1,1,3,1,1,3,1,1,3,1,1,3,1,1,3,1,1,3,1,1,3,1,1,3,1,1,3,1,1,3,1,1,3,1,1,3,1,1,3,1,1,3,1,1,3,1,1,3,1,1,3,1,1,3,1,1,3,1,1,3,1,1,3,1,1,3,1,1,3,1,1,3,1,1,3,1,1,3,1,1,3,1,1,3,1,1,3,1,1,3,1,1,3,1,1,3,1,1,3,1,1,3,1,1,3,1,1,3,1,1,3,1,1,3,1,1,3,1,1,3,1,1,3,1,1,3,1,1,3,1,1,3,1,1,3,1,1,3,1,1,3,1,1,3,1,1,3,1,1,3,1,1,3,1,1,3,1,1,3,1,1,3,1,1,3,1,1,3,1,1,3,1,1,3,1,1,3,1,1,3,1,1,3,1,1,3,1,1,3,1,1,3,1,1,3,1,1,3,1,1,3,1,1,3,1,1,3,1,1,3,1,1,3,1,1,3,1,1,3,1,1,3,1,1,3,1,1,3,1,1,3,1,1,3,1,1,3,1,1,3,1,1,3,1,1,3,1,1,3,1,1,3,1,1,3,1,1,3,1,1,3,1,1,3,1,1,3,1,1,3,1,1,3,1,1,3,1,1,3,1,1,3,1,1,3,1,1,3,1,1,3,1,1,3,1,1,3,1,1,3,1,1,3,1,1,3,1,1,3,1,1,3,1,1,3,1,1,3,1,1,3,1,1,3,1,1,3,1,1,3,1,1,3,1,1,3,1,1,3,1,1,3,1,1,3,1,1,3,1,1,3,1,1,3,1,1,3,1,1,3,1,1,3,1,1,3,1,1,3,1,1,3,1,1,3,1,1,3,1,1,3,1,1,3,1,1,3,1,1,3,1,1,3,1,1,3,1,1,3,1,1,3,1,1,3,1,1,3,1,1,3,1,1,3,1,1,3,1,1,3,1,1,3,1,1,3,1,1,3,1,1,3,1,1,3,1,1,3,1,1,3,1,1,3,1,1,3,1,1,3,1,1,3,1,1,3,1,1,3,1,1,3,1,1,3,1,1,3,1,1,3,1,1,3,1,1,3,1,1,3,1,1,3,1,1,3,1,1,3,1,1,3,1,1,3,1,1,3,1,1,3,1,1,3,1,1,3,1,1,3,1,1,3,1,1,3,1,1,3,1,1,3,1,1,3,1,1,3,1,1,3,1,1,3,1,1,3,1,1,3,1,1,3,1,1,3,1,1,3,1,1,3,1,1,3,1,1,3,1,1,3,1,1,3,1,1,3,1,1,3,1,1,3,1,1,3,1,1,3,1,1,3,1,1,3,1,1,3,1,1,3,1,1,3,1,1,3,1,1,3,1,1,3,1,1,3,1,1,3,1,1,3,1,1,3,1,1,3,1,1,3,1,1,3,1,1,3,1,1,3,1,1,3,1,1,3,1,1,3,1,1,3,1,1,3,1,1,3,1,1,3,1,1,3,1,1,3,1,1,3,1,1,3,1,1,3,1,1,3,1,1,3,1,1,3,1,1,3,1,1,3,1,1,3,1,1,3,1,1,3,1,1,3,1,1,3,1,1,3,1,1,3,1,1,3,1,1,3,1,1,3,1,1,3,1,1,3,1,1,3,1,1,3,1,1,3,1,1,3,1,1,3,1,1,3,1,1,3,1,1,3,1,1,3,1,1,3,1,1,3,1,1,3,1,1,3,1,1,3,1,1,3,1,1,3,1,1,3,1,1,3,1,1,3,1,1,3,1,1,3,1,1,3,1,1,3,1,1,3,1,1,3,1,1,3,1,1,3,1,1,3,1,1,3,1,1,3,1,1,3,1,1,3,1,1,3,1,1,3,1,1,3,1,1,3,1,1,3,1,1,3,1,1,3,1,1,3,1,1,3,1,1,3,1,1,3,1,1,3,1,1,3,1,1,3,1,1,3,1,1,3,1,1,3,1,1,3,1,1,3,1,1,3,1,1,3,1,1,3,1,1,3,1,1,3,1,1,3,1,1,3,1,1,3,1,1,3,1,1,3,1,1,3,1,1,3,1,1,3,1,1,3,1,1,3,1,1,3,1,1,3,1,1,3,1,1,3,1,1,3,1,1,3,1,1,3,1,1,3,1,1,3,1,1,3,1,1,3,1,1,3,1,1,3,1,1,3,1,1,3,1,1,3,1,1,3,1,1,3,1,1,3,1,1,3,1,1,3,1,1,3,1,1,3,1,1,3,1,1,3,1,1,3,1,1,3,1,1,3,1,1,3,1,1,3,1,1,3,1,1,3,1,1,3,1,1,3,1,1,3,1,1,3,1,1,3,1,1,3,1,1,3,1,1,3,1,1,3,1,1,3,1,1,3,1,1,3,1,1,3,1,1,3,1,1,3,1,1,3,1,1,3,1],"slotPose":[1,0,0,1,0,0],"bonePose":[12,0.736469,-0.676471,0.676471,0.736469,-118.75,-256.15,13,-0.319939,0.947438,-0.947438,-0.319939,-149.15,-251.25,7,-0.793575,0.608473,-0.608473,-0.793575,-208.95,-164.55,1,-0.706253,-0.707959,0.707959,-0.706253,-229.6,-256.85,8,-0.799788,-0.600282,0.600282,-0.799788,-268.748335,-289.232021,4,0.863014,-0.505179,0.505179,0.863014,-9,-520,3,-0.970118,-0.242635,0.242635,-0.970118,1.9,-168.7],"edges":[0,1,1,2,2,3,3,4,4,5,5,6,6,7,7,8,8,9,9,10,10,11,11,12,12,13,13,14,14,15,15,16,16,17,17,18,18,19,19,20,20,21,21,22,22,23,23,24,24,25,25,26,26,27,27,28,28,29,29,30,30,31,31,32,32,33,33,34,34,35,35,36,36,37,37,38,38,39,39,40,40,41,41,42,42,43,43,44,44,45,45,46,46,47,47,48,48,49,49,50,50,51,51,52,52,53,53,54,54,55,55,56,56,57,57,58,58,59,59,60,60,61,61,62,62,63,63,64,64,65,65,66,66,67,67,68,68,69,69,70,70,71,71,72,72,73,73,74,74,75,75,76,76,77,77,78,78,79,79,80,80,81,81,82,82,83,83,84,84,85,85,86,86,87,87,88,88,89,89,90,90,91,91,92,92,93,93,94,94,95,95,96,96,97,97,98,98,99,99,100,100,101,101,102,102,103,103,104,104,105,105,106,106,107,107,108,108,109,109,110,110,111,111,112,112,113,113,114,114,115,115,116,116,117,117,118,118,119,119,120,120,121,121,122,122,123,123,124,124,125,125,126,126,127,127,128,128,129,129,130,130,131,131,132,132,133,133,134,134,135,135,136,136,137,137,138,138,139,139,140,140,141,141,142,142,143,143,144,144,145,145,146,146,147,147,148,148,149,149,150,150,151,151,152,152,153,153,154,154,155,155,156,156,157,157,158,158,159,159,160,160,161,161,162,162,0],"userEdges":[]}]},{"name":"Layer_6_copy","display":[{"type":"mesh","name":"Layer_6_copy","width":82,"height":87,"vertices":[-217.22,-250.63,-225.12,-247.08,-231.87,-239.58,-236.22,-230.48,-238.57,-221.38,-239.77,-211.08,-238.57,-201.98,-235.82,-193.28,-230.67,-185.38,-223.97,-181.43,-216.42,-180.23,-208.92,-180.63,-198.22,-185.38,-189.52,-192.48,-182.02,-199.23,-176.47,-205.93,-170.52,-213.48,-165.42,-224.13,-166.97,-232.83,-171.72,-241.53,-178.47,-248.28,-186.77,-253.43,-197.07,-255.78,-208.92,-254.23],"uvs":[0.33963,0.09655,0.24329,0.13736,0.16098,0.22356,0.10793,0.32816,0.07927,0.43276,0.06463,0.55115,0.07927,0.65575,0.1128,0.75575,0.17561,0.84655,0.25732,0.89195,0.34939,0.90575,0.44085,0.90115,0.57134,0.84655,0.67744,0.76494,0.7689,0.68736,0.83659,0.61034,0.90915,0.52356,0.97134,0.40115,0.95244,0.30115,0.89451,0.20115,0.8122,0.12356,0.71098,0.06437,0.58537,0.03736,0.44085,0.05517],"triangles":[18,16,17,19,16,18,23,0,15,21,22,15,22,23,15,20,21,15,19,20,16,20,15,16,3,4,13,3,13,14,0,3,14,0,14,15,2,3,0,4,5,13,5,6,12,5,12,13,1,2,0,7,10,11,6,7,11,6,11,12,7,9,10,7,8,9],"weights":[1,8,1,1,8,1,1,8,1,1,8,1,1,8,1,1,8,1,1,8,1,1,8,1,1,8,1,2,1,0.03,8,0.97,2,1,0.03,8,0.97,2,1,0.03,8,0.97,2,1,0.03,8,0.97,2,1,0.03,8,0.97,2,1,0.03,8,0.97,2,1,0.03,8,0.97,2,1,0.03,8,0.97,2,1,0.03,8,0.97,2,1,0.03,8,0.97,2,1,0.03,8,0.97,2,1,0.03,8,0.97,1,8,1,1,8,1,1,8,1],"slotPose":[1,0,0,1,0,0],"bonePose":[1,-0.706253,-0.707959,0.707959,-0.706253,-229.6,-256.85,8,-0.666391,-0.745603,0.745603,-0.666391,-252.591824,-297.278984],"edges":[0,1,1,2,2,3,3,4,4,5,5,6,6,7,7,8,8,9,9,10,10,11,11,12,12,13,13,14,14,15,15,16,16,17,17,18,18,19,19,20,20,21,21,22,22,23,23,0],"userEdges":[]}]},{"name":"Layer_10","display":[{"type":"mesh","name":"Layer_10","width":113,"height":129,"path":"Layer 10_0","vertices":[14.38,-174.05,6.43,-168.9,1.98,-163.1,-2.47,-151.15,-3.47,-141.2,-3.47,-132.3,-1.47,-121.5,2.48,-112.6,8.43,-105.65,11.88,-99.25,9.43,-91.25,6.93,-86.8,5.48,-79.5,-0.97,-74,-9.87,-67.65,-16.32,-62.1,-23.22,-52.7,-25.17,-45.1,-3.92,-45.1,10.38,-45.1,26.73,-45.1,49.48,-47.85,61.33,-47.85,75.68,-49.3,84.08,-53.75,87.53,-64.55,87.83,-75.45,87.83,-89.85,83.58,-102.25,75.18,-114,66.78,-124.5,57.38,-130.9,53.93,-140.35,54.43,-147.65,50.48,-154.2,43.03,-165.95,34.13,-172.85,22.78,-174.05,-0.65,-50.3,2.1,-59.6,9.3,-64.05,17.2,-69.55,23.7,-75.05,13.75,-78.8,25.75,-82.25,34.35,-83.95,41.9,-84.3,45.7,-75.4,48.45,-67.15,61.15,-72.3,67,-80.2,77.3,-85,14.1,-167.45,11,-157.8,9.65,-149.55,8.95,-139.95,8.95,-132.05,11.7,-122.8,18.2,-111.8,27.15,-100.1,28.2,-92.2,26.8,-166.4,23.7,-155.75,25.45,-143.75,27.15,-132.75,29.9,-124.15,37.8,-112.5,46.4,-105.95,55.65,-93.6,61.85,-86.4,40.2,-155.05,40.55,-141.35,43.65,-128.6,51.9,-117.65,58.75,-109.4,69.05,-100.8,74.2,-90.5,11,-54.45,19.95,-58.2,26.45,-63.7,30.95,-70.6,34,-56.15,49.8,-58.9,62.5,-60.6,71.45,-67.5,-8.55,-56.5,-0.65,-66.1,6.9,-71.6],"uvs":[0.35,0,0.27965,0.03992,0.24027,0.08488,0.20088,0.17752,0.19204,0.25465,0.19204,0.32364,0.20973,0.40736,0.24469,0.47636,0.29735,0.53023,0.32788,0.57984,0.30619,0.64186,0.28407,0.67636,0.27124,0.73295,0.21416,0.77558,0.1354,0.82481,0.07832,0.86783,0.01726,0.9407,0,0.99961,0.18805,0.99961,0.3146,0.99961,0.45929,0.99961,0.66062,0.97829,0.76549,0.97829,0.89248,0.96705,0.96681,0.93256,0.99735,0.84884,1,0.76434,1,0.65271,0.96239,0.55659,0.88805,0.4655,0.81372,0.38411,0.73053,0.3345,0.7,0.26124,0.70442,0.20465,0.66947,0.15388,0.60354,0.06279,0.52478,0.0093,0.42434,0,0.21698,0.95928,0.24132,0.88718,0.30504,0.85269,0.37495,0.81005,0.43247,0.76742,0.34442,0.73835,0.45061,0.7116,0.52672,0.69842,0.59353,0.69571,0.62716,0.7647,0.6515,0.82866,0.76389,0.78873,0.81566,0.72749,0.90681,0.69029,0.34751,0.05114,0.32008,0.12594,0.30813,0.1899,0.30194,0.26432,0.30194,0.32556,0.32627,0.39726,0.3838,0.48253,0.463,0.57323,0.47229,0.63447,0.4599,0.05928,0.43247,0.14184,0.44796,0.23486,0.463,0.32013,0.48734,0.3868,0.55725,0.47711,0.63335,0.52788,0.71521,0.62362,0.77008,0.67943,0.57849,0.14726,0.58158,0.25346,0.60902,0.3523,0.68203,0.43718,0.74265,0.50114,0.8338,0.5678,0.87937,0.64765,0.32008,0.92711,0.39928,0.89804,0.45681,0.8554,0.49663,0.80191,0.52362,0.91393,0.66344,0.89261,0.77583,0.87943,0.85504,0.82594,0.14707,0.91122,0.21698,0.8368,0.2838,0.79416],"triangles":[84,24,25,28,76,27,76,51,27,84,25,26,51,84,26,27,51,26,50,84,51,84,23,24,75,76,28,29,75,28,84,83,23,76,50,51,74,75,29,83,22,23,30,74,29,75,69,76,69,50,76,68,69,75,50,49,84,49,83,84,73,74,30,74,68,75,69,49,50,31,73,30,67,68,74,82,21,22,49,48,83,48,82,83,82,22,83,68,46,69,46,47,69,47,49,69,47,48,49,72,73,31,73,67,74,32,72,31,67,46,68,71,72,32,71,32,33,34,71,33,35,70,34,70,71,34,66,67,73,72,66,73,60,46,67,81,21,82,48,81,82,59,60,67,81,20,21,47,80,48,80,81,48,60,45,46,65,66,72,66,59,67,46,45,47,45,80,47,61,70,35,71,64,72,64,65,72,70,63,71,36,61,35,80,79,81,61,62,70,62,63,70,63,64,71,44,80,45,65,58,66,58,59,66,44,42,80,60,44,45,37,61,36,78,20,81,79,78,81,42,79,80,64,57,65,57,58,65,42,41,79,10,44,60,59,9,60,9,10,60,77,19,78,10,43,44,52,62,61,56,57,64,63,55,64,55,56,64,58,9,59,78,19,20,62,54,63,37,52,61,41,78,79,43,42,44,52,53,62,54,55,63,53,54,62,0,52,37,43,41,42,10,11,43,8,9,58,41,40,78,40,77,78,43,87,41,57,7,58,7,8,58,87,40,41,1,53,52,12,87,43,11,12,43,1,52,0,40,39,77,77,38,19,56,6,57,6,7,57,1,2,53,3,54,53,2,3,53,39,38,77,38,18,19,87,86,40,3,4,54,54,4,55,4,5,55,55,5,56,5,6,56,86,39,40,12,13,87,13,86,87,85,38,39,86,85,39,85,18,38,14,85,86,14,86,13,85,16,18,16,17,18,15,16,85,14,15,85],"weights":[1,3,1,1,3,1,1,3,1,2,3,0.52,9,0.48,2,9,0.61,3,0.39,2,9,0.73,3,0.27,2,9,0.83,3,0.17,1,9,1,1,9,1,1,9,1,1,9,1,1,9,1,1,9,1,1,9,1,1,9,1,1,9,1,1,9,1,1,9,1,1,9,1,1,9,1,1,9,1,1,9,1,1,9,1,1,9,1,1,9,1,1,9,1,1,9,1,1,9,1,1,9,1,1,9,1,1,9,1,2,9,0.85,3,0.15,2,9,0.39,3,0.61,1,3,1,1,3,1,1,3,1,1,3,1,1,3,1,1,9,1,1,9,1,1,9,1,1,9,1,1,9,1,1,9,1,1,9,1,1,9,1,1,9,1,1,9,1,1,9,1,1,9,1,1,9,1,1,9,1,2,9,0.39,3,0.61,2,9,0.39,3,0.61,2,9,0.61,3,0.39,2,9,0.81,3,0.19,2,9,0.9,3,0.1,1,9,1,1,9,1,1,9,1,1,9,1,2,9,0.39,3,0.61,2,9,0.65,3,0.35,2,9,0.65,3,0.35,2,9,0.85,3,0.15,1,9,1,1,9,1,1,9,1,1,9,1,1,9,1,2,9,0.39,3,0.61,2,9,0.65,3,0.35,2,9,0.85,3,0.15,1,9,1,1,9,1,1,9,1,1,9,1,1,9,1,1,9,1,1,9,1,1,9,1,1,9,1,1,9,1,1,9,1,1,9,1,1,9,1,1,9,1,1,9,1],"slotPose":[1,0,0,1,0,0],"bonePose":[9,0,-1,1,0,245,-62.4,3,-0.970118,-0.242635,0.242635,-0.970118,1.9,-168.7],"edges":[0,1,1,2,2,3,3,4,4,5,5,6,6,7,7,8,8,9,9,10,10,11,11,12,12,13,13,14,14,15,15,16,16,17,17,18,18,19,19,20,20,21,21,22,22,23,23,24,24,25,25,26,26,27,27,28,28,29,29,30,30,31,31,32,32,33,33,34,34,35,35,36,36,37,37,0],"userEdges":[]}]},{"name":"Layer_12_copy_3","display":[{"type":"mesh","name":"Layer_12_copy_3","width":185,"height":244,"path":"Layer 12 copy 3_0","vertices":[-182.05,-374,-199.9,-373.65,-215.75,-371.7,-231.6,-367.75,-248.1,-360.45,-260.65,-352.55,-273.85,-342.65,-283.75,-333.4,-294.3,-318.2,-302.25,-301.05,-308.15,-283.9,-313.4,-268.7,-316.2,-250.85,-316.2,-236.35,-316.2,-209.95,-315.45,-189.45,-311.5,-174.95,-304.2,-159.75,-294.95,-148.55,-283.1,-139.3,-269.2,-132,-255.3,-129.95,-242.15,-129.95,-228.3,-133.35,-212.45,-138.6,-195.95,-144.55,-182.05,-151.85,-176.1,-161.05,-182.05,-169,-188,-176.2,-182.05,-180.9,-177.45,-187.5,-176.8,-196.75,-168.2,-204,-153.7,-209.25,-152.3,-219.15,-149,-228.4,-139.8,-232.4,-135.2,-238.3,-135.85,-245.6,-139.15,-252.85,-147.05,-258.15,-155.6,-264.75,-157.65,-273.95,-158.3,-284.55,-163.6,-291.8,-169.5,-300.4,-172.15,-308.95,-173.5,-322.85,-170.85,-332.1,-166.2,-340,-158.9,-348.6,-155.6,-357.85,-153,-366.4,-158.3,-373.65,-169.5,-374,-165.89,-363.63,-177.34,-364.08,-194.34,-363.63,-210.39,-361.33,-222.74,-359.53,-237.44,-354.48,-249.79,-347.13,-262.19,-337.03,-270.44,-328.33,-280.04,-316.43,-290.59,-299.88,-297.49,-282.93,-301.59,-268.28,-305.74,-250.83,-306.64,-236.63,-306.64,-209.58,-305.29,-191.68,-302.99,-179.78,-296.09,-166.03,-288.79,-156.43,-278.24,-147.68,-267.69,-141.73,-255.74,-139.43,-242.49,-139.93,-228.69,-144.03,-215.89,-146.33,-199.84,-155.48,-191.09,-162.83,-197.09,-172.48,-194.34,-185.78,-186.99,-188.98,-184.24,-201.83,-172.79,-210.53,-162.24,-215.08,-161.79,-222.88,-157.64,-232.53,-148.49,-238.48,-145.74,-245.38,-151.69,-250.88,-160.39,-256.83,-164.99,-271.98,-165.44,-281.13,-170.94,-286.18,-177.84,-295.33,-180.59,-307.73,-181.94,-323.28,-178.74,-335.68,-175.09,-345.73,-166.34,-356.78,-178.29,-356.78,-188.84,-351.28,-199.84,-340.73,-209.94,-327.43,-221.84,-307.68,-227.79,-286.13,-234.24,-268.28,-239.29,-247.18,-242.49,-221.48,-244.79,-197.18,-245.69,-177.48,-246.14,-158.23,-196.64,-355.83,-211.29,-349.43,-222.74,-340.73,-235.59,-326.03,-243.84,-313.68,-253.04,-300.83,-261.74,-284.78,-265.84,-264.58,-272.74,-244.43,-275.94,-225.63,-276.84,-199.93,-275.94,-182.53,-271.84,-161.88,-197.09,-307.23,-198.94,-291.18,-198.94,-268.28,-200.29,-244.43,-201.69,-221.98,-208.09,-198.58,-216.34,-170.13,-221.39,-157.78,-168.15,-230.05,-170.5,-221.5,-193.25,-191.65,-202.45,-184.85,-211.3,-181,-221.05,-179.2,-230.2,-183.95,-236.4,-192.5,-237.9,-203.45,-237.3,-214.7,-235.85,-225.9,-232.6,-234.5,-226.95,-243.65,-217.8,-250.75,-206.85,-254.3,-195.95,-255.75,-187.95,-254.3,-179.95,-248.95,-175.25,-244.25,-171.7,-237.75,-182.05,-242.45,-191.8,-236.25,-198,-229.75,-206.85,-213.2,-213.95,-199.9,-217.8,-188.95,-198.6,-207.3,-191.5,-217.05,-188.55,-226.5,-185.9,-232.4,-200.35,-237.75,-208.95,-230.65,-216.3,-223.55,-220.15,-214.7,-223.1,-205.8,-222.55,-197.85],"uvs":[0.73054,0,0.63405,0.00143,0.54838,0.00943,0.46271,0.02561,0.37351,0.05553,0.30567,0.08791,0.23432,0.12848,0.18081,0.16639,0.12378,0.22869,0.08081,0.29898,0.04892,0.36926,0.02054,0.43156,0.00541,0.50471,0.00541,0.56414,0.00541,0.67234,0.00946,0.75635,0.03081,0.81578,0.07027,0.87807,0.12027,0.92398,0.18432,0.96189,0.25946,0.9918,0.3346,1.0002,0.40567,1.0002,0.48054,0.98627,0.56622,0.96475,0.6554,0.94037,0.73054,0.91045,0.7627,0.87275,0.73054,0.84016,0.69838,0.81066,0.73054,0.79139,0.75541,0.76434,0.75892,0.72643,0.8054,0.69672,0.88379,0.6752,0.89135,0.63463,0.90919,0.59672,0.95891,0.58033,0.98378,0.55615,0.98027,0.52623,0.96244,0.49652,0.91973,0.4748,0.87352,0.44775,0.86243,0.41004,0.85892,0.3666,0.83027,0.33689,0.79838,0.30164,0.78406,0.2666,0.77676,0.20963,0.79108,0.17172,0.81621,0.13934,0.85567,0.1041,0.87352,0.06619,0.88756,0.03115,0.85892,0.00143,0.79838,0,0.81787,0.0425,0.75597,0.04066,0.66409,0.0425,0.57732,0.05193,0.51056,0.05931,0.43111,0.08,0.36435,0.11012,0.29733,0.15152,0.25273,0.18717,0.20084,0.23594,0.14381,0.30377,0.10651,0.37324,0.08435,0.43328,0.06192,0.5048,0.05705,0.56299,0.05705,0.67385,0.06435,0.74721,0.07679,0.79599,0.11408,0.85234,0.15355,0.89168,0.21057,0.92754,0.2676,0.95193,0.33219,0.96135,0.40381,0.95931,0.47841,0.9425,0.5476,0.93308,0.63435,0.89558,0.68164,0.86545,0.64922,0.8259,0.66409,0.7714,0.70381,0.75828,0.71868,0.70562,0.78056,0.66996,0.8376,0.65131,0.84002,0.61935,0.86246,0.5798,0.91192,0.55541,0.92679,0.52713,0.89463,0.50459,0.84759,0.48021,0.82273,0.41812,0.8203,0.38062,0.79056,0.35992,0.75327,0.32242,0.7384,0.2716,0.7311,0.20787,0.74841,0.15705,0.76814,0.11586,0.81543,0.07058,0.75084,0.07058,0.69381,0.09312,0.63435,0.13635,0.57976,0.19086,0.51543,0.27181,0.48327,0.36012,0.4484,0.43328,0.42111,0.51976,0.40381,0.62508,0.39138,0.72467,0.38651,0.80541,0.38409,0.88431,0.65165,0.07447,0.57246,0.1007,0.51056,0.13635,0.44111,0.1966,0.39651,0.24721,0.34678,0.29988,0.29976,0.36566,0.27759,0.44844,0.2403,0.53103,0.223,0.60808,0.21814,0.7134,0.223,0.78471,0.24517,0.86935,0.64922,0.27365,0.63922,0.33943,0.63922,0.43328,0.63192,0.53103,0.62435,0.62303,0.58976,0.71894,0.54517,0.83553,0.51786,0.88615,0.8057,0.58997,0.79299,0.62501,0.67002,0.74735,0.62029,0.77521,0.57245,0.79099,0.51974,0.79837,0.47028,0.7789,0.43677,0.74386,0.42867,0.69899,0.43191,0.65288,0.43975,0.60698,0.45732,0.57173,0.48785,0.53423,0.53731,0.50513,0.59651,0.49058,0.65542,0.48464,0.69867,0.49058,0.74191,0.51251,0.76732,0.53177,0.78651,0.55841,0.73056,0.53915,0.67786,0.56456,0.64434,0.5912,0.59651,0.65903,0.55812,0.71353,0.53731,0.75841,0.6411,0.68321,0.67948,0.64325,0.69542,0.60452,0.70975,0.58034,0.63164,0.55841,0.58515,0.58751,0.54542,0.61661,0.52461,0.65288,0.50867,0.68935,0.51164,0.72194],"triangles":[92,37,38,93,92,38,39,93,38,40,93,39,94,93,40,41,94,40,92,36,37,94,92,93,91,36,92,95,94,41,42,95,41,90,35,36,94,91,92,91,90,36,89,34,35,157,91,94,95,157,94,90,89,35,156,157,95,56,52,53,54,56,53,89,33,34,44,97,43,104,51,52,56,104,52,43,96,42,96,95,42,97,96,43,138,90,91,157,138,91,55,56,54,45,97,44,103,50,51,104,103,51,98,97,45,88,33,89,139,89,90,96,155,95,155,156,95,138,139,90,154,155,96,139,88,89,46,98,45,99,98,46,105,103,104,98,132,96,132,154,96,97,98,96,57,104,56,55,57,56,102,49,50,103,102,50,57,105,104,157,167,138,167,139,138,88,32,33,48,100,47,167,166,139,0,57,55,47,100,46,100,99,46,102,101,48,101,100,48,87,32,88,165,88,139,166,165,139,102,48,49,99,131,98,131,132,98,156,158,157,158,167,157,165,87,88,105,106,103,106,102,103,86,31,32,155,158,156,83,26,27,28,83,27,87,86,32,86,30,31,100,130,99,58,105,57,0,58,57,130,131,99,58,106,105,101,130,100,107,101,102,106,107,102,154,158,155,132,153,154,133,159,154,165,164,87,140,86,87,159,167,158,154,159,158,86,29,30,1,58,0,83,82,26,108,130,101,107,108,101,29,83,28,82,25,26,58,117,106,84,83,29,85,29,86,164,140,87,153,133,154,159,166,167,159,160,166,140,85,86,85,84,29,134,165,166,160,134,166,117,107,106,141,84,85,164,135,140,133,168,159,84,82,83,168,160,159,134,164,165,134,161,164,141,85,140,135,141,140,118,107,117,132,152,153,152,133,153,59,117,58,1,59,58,108,109,130,130,109,131,110,132,131,141,142,84,136,82,84,82,81,25,81,24,25,59,118,117,142,136,84,168,169,160,169,134,160,110,111,132,161,135,164,111,152,132,109,110,131,137,81,82,136,137,82,118,108,107,133,169,168,2,59,1,152,151,133,151,169,133,118,119,108,111,151,152,170,161,134,169,170,134,135,163,141,163,142,141,162,163,135,151,150,169,162,135,161,171,162,161,170,171,161,171,172,162,60,118,59,150,170,169,150,149,170,143,136,142,2,60,59,120,109,108,119,120,108,163,143,142,60,119,118,173,163,162,81,80,24,80,23,24,172,173,162,149,148,170,3,60,2,137,80,81,143,137,136,148,171,170,111,112,150,61,119,60,143,144,137,144,115,137,111,150,151,144,143,163,173,144,163,121,110,109,120,121,109,145,144,173,115,116,137,147,172,171,148,147,171,116,80,137,121,122,110,172,146,173,146,145,173,3,61,60,61,120,119,147,146,172,61,62,120,116,79,80,80,79,23,112,149,150,123,111,110,122,123,110,79,22,23,145,115,144,113,147,148,4,61,3,112,148,149,62,63,120,112,113,148,146,114,145,124,112,111,123,124,111,63,121,120,114,115,145,125,113,112,114,146,147,113,114,147,4,62,61,116,78,79,125,126,113,124,125,112,63,64,121,78,21,79,79,21,22,127,114,113,126,127,113,128,115,114,115,129,116,64,122,121,127,128,114,5,62,4,128,129,115,77,78,116,129,77,116,64,65,122,5,63,62,65,123,122,65,66,123,20,21,78,77,20,78,129,76,77,67,124,123,6,63,5,66,67,123,6,64,63,68,125,124,67,68,124,6,7,64,19,20,77,76,19,77,68,69,125,128,74,129,75,76,129,74,75,129,7,65,64,126,71,127,70,126,125,69,70,125,127,72,128,70,71,126,73,74,128,72,73,128,71,72,127,7,8,65,8,66,65,18,19,76,75,18,76,8,9,66,9,67,66,17,18,75,74,17,75,9,10,67,10,68,67,73,16,74,16,17,74,13,14,70,70,14,71,11,12,69,71,14,72,14,15,72,72,15,73,11,69,68,10,11,68,15,16,73,69,12,70,12,13,70],"weights":[1,8,1,1,8,1,1,8,1,1,8,1,1,8,1,1,8,1,1,8,1,1,8,1,1,8,1,1,8,1,1,8,1,1,8,1,1,8,1,1,8,1,1,8,1,1,8,1,1,8,1,1,8,1,1,8,1,1,8,1,1,8,1,1,8,1,1,8,1,1,8,1,1,8,1,1,8,1,1,8,1,1,8,1,1,8,1,1,8,1,1,8,1,1,8,1,1,8,1,1,8,1,1,13,1,1,13,1,1,13,1,1,13,1,1,13,1,1,13,1,1,13,1,1,13,1,2,13,0.68,8,0.32,1,8,1,1,8,1,1,8,1,1,8,1,1,8,1,1,8,1,1,8,1,1,8,1,1,8,1,1,8,1,1,8,1,1,8,1,1,8,1,1,8,1,1,8,1,1,8,1,1,8,1,1,8,1,1,8,1,1,8,1,1,8,1,1,8,1,1,8,1,1,8,1,1,8,1,1,8,1,1,8,1,1,8,1,1,8,1,1,8,1,1,8,1,1,8,1,1,8,1,1,8,1,1,8,1,1,8,1,1,8,1,1,8,1,1,8,1,1,8,1,1,8,1,1,8,1,1,8,1,1,8,1,1,8,1,1,8,1,1,13,1,1,13,1,2,13,0.87,8,0.13,1,13,1,1,13,1,1,13,1,1,13,1,1,8,1,1,8,1,1,8,1,1,8,1,1,8,1,1,8,1,1,8,1,1,8,1,1,8,1,1,8,1,1,8,1,1,8,1,1,8,1,1,8,1,1,8,1,1,8,1,1,8,1,1,8,1,1,8,1,1,8,1,1,8,1,1,8,1,1,8,1,1,8,1,1,8,1,1,8,1,1,8,1,1,8,1,1,8,1,1,8,1,1,8,1,1,8,1,1,8,1,1,8,1,1,8,1,1,8,1,1,8,1,1,8,1,1,8,1,1,8,1,1,8,1,1,8,1,1,8,1,1,8,1,1,8,1,1,8,1,1,8,1,1,8,1,1,8,1,1,8,1,1,8,1,1,8,1,1,8,1,1,8,1,1,8,1,1,8,1,1,8,1,1,8,1,1,8,1,1,8,1,1,8,1,1,8,1,1,8,1,1,8,1,1,8,1,1,8,1,1,8,1,1,8,1,1,8,1,1,8,1,1,8,1,1,8,1,1,8,1,1,8,1,1,8,1,1,8,1,1,8,1,1,8,1],"slotPose":[1,0,0,1,0,0],"bonePose":[8,-0.799788,-0.600282,0.600282,-0.799788,-268.748335,-289.232021,13,-0.319939,0.947438,-0.947438,-0.319939,-149.15,-251.25],"edges":[0,1,1,2,2,3,3,4,4,5,5,6,6,7,7,8,8,9,9,10,10,11,11,12,12,13,13,14,14,15,15,16,16,17,17,18,18,19,19,20,20,21,21,22,22,23,23,24,24,25,25,26,26,27,27,28,28,29,29,30,30,31,31,32,32,33,33,34,34,35,35,36,36,37,37,38,38,39,39,40,40,41,41,42,42,43,43,44,44,45,45,46,46,47,47,48,48,49,49,50,50,51,51,52,52,53,53,54,54,55,55,0],"userEdges":[]}]},{"name":"Layer_13","display":[{"type":"mesh","name":"Layer_13","width":22,"height":27,"vertices":[-263.33,-206.81,-264.82,-199.34,-262.2,-195.82,-255.55,-189.83,-250.25,-187.87,-244.56,-187.31,-241.24,-190.99,-240.67,-197.14,-241.87,-203.13,-244.11,-208.93,-251.3,-212.46,-257.4,-212.57,-260.89,-209.52],"uvs":[0.33636,0,0.03864,0.14444,0,0.3037,0,0.63519,0.09545,0.82963,0.25,1,0.475,1,0.7,0.86296,0.86591,0.68148,0.99318,0.47593,0.89318,0.19074,0.71136,0.02037,0.50227,0],"triangles":[10,8,9,2,3,8,11,12,10,2,8,10,12,2,10,3,7,8,0,2,12,4,6,7,3,4,7,1,2,0,4,5,6],"weights":[1,8,1,1,8,1,1,8,1,1,8,1,1,8,1,1,8,1,1,8,1,1,8,1,1,8,1,1,8,1,1,8,1,1,8,1,1,8,1],"slotPose":[1,0,0,1,0,0],"bonePose":[8,-0.337862,-0.941196,0.941196,-0.337862,-260.510888,-345.743274],"edges":[0,1,1,2,2,3,3,4,4,5,5,6,6,7,7,8,8,9,9,10,10,11,11,12,12,0],"userEdges":[]}]},{"name":"Layer_11_copy","display":[{"type":"mesh","name":"Layer_11_copy","width":122,"height":133,"path":"Layer 11 copy_0","vertices":[-158.39,-229.85,-164.34,-224.4,-172.49,-214.1,-177.34,-203.8,-177.34,-193,-183.29,-184.3,-189.79,-175.1,-196.34,-165.9,-200.09,-155.05,-201.74,-144.2,-204.99,-134.45,-211.84,-127.5,-219.34,-122.2,-225.04,-117.75,-230.39,-111.15,-227.29,-105.4,-221.49,-103.15,-213.99,-101.85,-207.44,-103.15,-197.29,-102.35,-186.64,-100.95,-178.39,-100.15,-168.19,-100.5,-161.54,-101.45,-151.04,-101.45,-141.69,-101.45,-132.89,-102.35,-127.64,-105.4,-123.69,-112,-120.14,-120,-116.99,-128.8,-116.99,-136.7,-116.99,-150.35,-116.99,-161,-119.59,-168.5,-122.24,-175.5,-127.09,-185.2,-128.94,-195.85,-129.29,-202.9,-131.54,-215.7,-131.54,-224.5,-136.79,-230.25,-145.64,-231.2,-151.44,-231.2,-212.22,-109.28,-207.47,-115.93,-201.97,-119.58,-193.12,-123.63,-183.22,-126.58,-172.92,-132.43,-167.02,-145.68,-164.07,-155.63,-161.87,-168.83,-160.02,-178.78,-155.62,-189.78,-153.07,-203.78,-149.77,-221.03,-150.87,-213.33,-157.07,-222.13,-160.77,-215.88,-163.72,-210.03,-166.27,-198.28,-167.72,-189.43,-172.17,-173.63,-178.02,-168.13,-183.92,-157.43,-188.32,-146.43,-191.62,-136.13,-204.87,-125.83,-215.52,-117.03,-221.02,-110.78,-201.92,-110.03,-192.72,-112.98,-176.92,-115.93,-159.27,-121.43,-149.72,-129.88,-145.67,-143.48,-144.22,-157.08,-144.22,-167.03,-145.32,-178.78,-143.47,-190.18,-141.62,-199.73,-137.97,-215.18,-139.82,-221.43],"uvs":[0.66107,0.01015,0.6123,0.05113,0.54549,0.12857,0.50574,0.20602,0.50574,0.28722,0.45697,0.35263,0.40369,0.4218,0.35,0.49098,0.31926,0.57256,0.30574,0.65414,0.2791,0.72744,0.22295,0.7797,0.16148,0.81955,0.11475,0.85301,0.0709,0.90263,0.09631,0.94586,0.14385,0.96278,0.20533,0.97256,0.25902,0.96278,0.34221,0.9688,0.42951,0.97932,0.49713,0.98534,0.58074,0.98271,0.63525,0.97556,0.72131,0.97556,0.79795,0.97556,0.87008,0.9688,0.91311,0.94586,0.94549,0.89624,0.97459,0.83609,1.00041,0.76992,1.00041,0.71053,1.00041,0.60789,1.00041,0.52782,0.9791,0.47143,0.95738,0.4188,0.91762,0.34586,0.90246,0.26579,0.89959,0.21278,0.88115,0.11654,0.88115,0.05038,0.83811,0.00714,0.76557,0,0.71803,0,0.21987,0.91669,0.25881,0.86669,0.30389,0.83925,0.37643,0.8088,0.45758,0.78662,0.542,0.74263,0.59037,0.64301,0.61455,0.56819,0.63258,0.46895,0.64774,0.39413,0.68381,0.31143,0.70471,0.20616,0.73176,0.07646,0.72274,0.13436,0.67192,0.06819,0.6416,0.11519,0.61741,0.15917,0.59651,0.24752,0.58463,0.31406,0.54815,0.43286,0.5002,0.47421,0.45184,0.55466,0.41578,0.63737,0.38873,0.71481,0.28012,0.79225,0.19282,0.85842,0.14774,0.90541,0.3043,0.91105,0.37971,0.88887,0.50922,0.86669,0.65389,0.82534,0.73217,0.7618,0.76537,0.65955,0.77725,0.55729,0.77725,0.48248,0.76823,0.39413,0.7834,0.30842,0.79856,0.23662,0.82848,0.12045,0.81332,0.07346],"triangles":[34,77,33,75,29,30,76,75,30,33,77,32,77,76,32,32,76,31,76,30,31,35,78,34,78,77,34,75,28,29,36,79,35,79,78,35,25,26,28,75,25,28,26,27,28,39,82,38,37,80,36,80,79,36,81,80,37,82,81,38,81,37,38,75,74,25,41,83,40,40,83,39,83,82,39,74,24,25,57,81,82,42,83,41,57,55,81,83,56,82,56,57,82,42,56,83,55,54,80,55,80,81,53,52,79,43,56,42,79,52,78,51,76,77,78,52,77,54,79,80,52,51,77,54,53,79,50,75,76,51,50,76,74,23,24,58,59,57,0,58,43,49,74,75,50,49,75,43,58,56,58,57,56,61,54,55,60,55,57,59,60,57,60,61,55,73,22,23,73,23,74,0,1,58,62,53,54,61,62,54,1,59,58,63,52,53,49,73,74,62,63,53,2,60,59,1,2,59,64,51,52,63,64,52,64,65,51,3,61,60,2,3,60,65,50,51,73,21,22,5,63,62,4,62,61,3,4,61,48,73,49,66,49,50,65,66,50,4,5,62,67,48,49,66,67,49,5,64,63,5,6,64,20,21,73,48,72,73,72,20,73,6,65,64,6,7,65,47,72,48,67,47,48,8,66,65,7,8,65,72,19,20,9,67,66,8,9,66,10,68,47,10,47,67,71,19,72,46,72,47,9,10,67,46,71,72,68,46,47,71,18,19,46,45,71,44,18,71,45,44,71,68,45,46,11,69,45,10,11,68,11,45,68,69,44,45,44,17,18,69,70,44,16,17,44,70,16,44,12,69,11,12,13,69,13,70,69,15,16,70,13,14,70,14,15,70],"weights":[1,3,1,1,3,1,2,3,0.7,10,0.3,2,3,0.51,10,0.49,2,10,0.65,3,0.35,2,10,0.79,3,0.21,2,10,0.87,3,0.13,1,10,1,1,10,1,1,10,1,1,10,1,1,10,1,1,10,1,1,10,1,1,10,1,1,10,1,1,10,1,1,10,1,1,10,1,1,10,1,1,10,1,1,10,1,1,10,1,1,10,1,1,10,1,1,10,1,1,10,1,1,10,1,1,10,1,1,10,1,1,10,1,1,10,1,1,10,1,1,10,1,1,10,1,2,10,0.87,3,0.13,2,10,0.65,3,0.35,2,3,0.51,10,0.49,2,3,0.7,10,0.3,1,3,1,1,3,1,1,3,1,1,3,1,1,3,1,1,10,1,1,10,1,1,10,1,1,10,1,1,10,1,1,10,1,1,10,1,1,10,1,2,10,0.87,3,0.13,2,10,0.79,3,0.21,2,10,0.65,3,0.35,2,3,0.51,10,0.49,1,3,1,2,3,0.7,10,0.3,1,3,1,1,3,1,2,3,0.7,10,0.3,2,3,0.51,10,0.49,2,10,0.65,3,0.35,2,10,0.87,3,0.13,1,10,1,1,10,1,1,10,1,1,10,1,1,10,1,1,10,1,1,10,1,1,10,1,1,10,1,1,10,1,1,10,1,1,10,1,1,10,1,1,10,1,2,10,0.87,3,0.13,2,10,0.79,3,0.21,2,10,0.65,3,0.35,2,3,0.51,10,0.49,1,3,1,1,3,1],"slotPose":[1,0,0,1,0,0],"bonePose":[10,0.038932,-0.999242,0.999242,0.038932,-398.8,-62.8,3,-0.970118,-0.242635,0.242635,-0.970118,1.9,-168.7],"edges":[0,1,1,2,2,3,3,4,4,5,5,6,6,7,7,8,8,9,9,10,10,11,11,12,12,13,13,14,14,15,15,16,16,17,17,18,18,19,19,20,20,21,21,22,22,23,23,24,24,25,25,26,26,27,27,28,28,29,29,30,30,31,31,32,32,33,33,34,34,35,35,36,36,37,37,38,38,39,39,40,40,41,41,42,42,43,43,0],"userEdges":[]}]},{"name":"Layer_12","display":[{"type":"mesh","name":"Layer_12","width":143,"height":94,"path":"Layer_12_copy_5","vertices":[-68.16,28,-43.85,26.29,-18.2,20.69,7.43,18.16,16.81,31.72,26.58,24.16,29.79,17.92,43.91,9.78,49.28,-0.35,33.43,-12.62,-5.89,-28.4,-34.08,-31.81,-65.08,-32.64,-93.68,-26.16,-107.03,-8.74,-100.46,3.23,-83.04,16.59],"uvs":[0.62832,0,0.5007,0.17181,0.38217,0.38511,0.2507,0.57234,0.14091,0.51862,0.11888,0.64574,0.12762,0.71915,0.08392,0.87926,0.0972,0.99947,0.23741,1.00053,0.52273,0.87926,0.69371,0.72553,0.86923,0.53191,1.00035,0.29202,1.00035,0.05851,0.91294,0,0.75944,0],"triangles":[15,16,13,16,12,13,14,15,13,16,1,12,0,1,16,1,11,12,1,2,11,2,10,11,2,3,10,3,9,10,6,9,3,6,7,9,7,8,9,4,5,3,5,6,3],"edges":[0,1,1,2,2,3,3,4,4,5,5,6,6,7,7,8,8,9,9,10,10,11,11,12,12,13,13,14,14,15,15,16,16,0],"userEdges":[]}]},{"name":"Layer_14","display":[{"type":"mesh","name":"Layer_14","width":110,"height":103,"path":"Layer 14_0","vertices":[-262.38,-281.29,-269.73,-276.89,-277.76,-271.05,-284.44,-264.95,-288.96,-258.71,-293.88,-250.71,-294.38,-242.91,-294.37,-232.01,-294.36,-217.81,-294.35,-206.91,-291.74,-201.46,-286.81,-194.65,-281.21,-189.9,-274.53,-187.1,-266.15,-184.64,-258.45,-183.98,-251.03,-185.03,-245.43,-186.57,-247.59,-193.58,-249.69,-201.43,-249.69,-207.53,-249.36,-215.38,-247.22,-222.18,-244.11,-229.22,-240.94,-234.57,-237.1,-238.82,-231.84,-242.86,-222.73,-246.56,-215.03,-248.4,-206.94,-249.05,-198.5,-246.79,-190.46,-243.08,-183.78,-238.78,-179.25,-235.43,-175.73,-228.87,-172.9,-223.37,-169.84,-227.32,-169.85,-236.07,-170.14,-248.37,-173.32,-256.12,-177.51,-262.03,-181.37,-267.58,-187.66,-273.53,-193.66,-278.79,-203.8,-284.29,-211.55,-286.25,-221.68,-286.46,-230.46,-286.46,-238.89,-286.47,-248,-285.63,-255.36,-284.33],"uvs":[0.25727,0.05097,0.19818,0.09369,0.13364,0.15049,0.08,0.20971,0.04364,0.27039,0.00409,0.34806,0,0.42379,0,0.52961,0,0.66748,0,0.7733,0.02091,0.82621,0.06045,0.89223,0.10545,0.93835,0.15909,0.96553,0.22636,0.98932,0.28818,0.99563,0.34773,0.98544,0.39273,0.97039,0.37545,0.90243,0.35864,0.82621,0.35864,0.76699,0.36136,0.69078,0.37864,0.62476,0.40364,0.55631,0.42909,0.50437,0.46,0.46311,0.50227,0.42379,0.57545,0.38786,0.63727,0.3699,0.70227,0.36359,0.77,0.38544,0.83455,0.42136,0.88818,0.46311,0.92455,0.49563,0.95273,0.55922,0.97545,0.61262,1,0.57427,1,0.48932,0.99773,0.3699,0.97227,0.29466,0.93864,0.23738,0.90773,0.1835,0.85727,0.12573,0.80909,0.07476,0.72773,0.02136,0.66545,0.00243,0.58409,0.00049,0.51364,0.00049,0.44591,0.00049,0.37273,0.00874,0.31364,0.02136],"triangles":[34,35,36,32,33,38,34,36,37,33,34,37,38,33,37,39,31,38,31,32,38,40,31,39,30,31,40,41,30,40,29,30,42,42,30,41,43,29,42,44,29,43,28,29,44,45,28,44,46,28,45,47,27,46,46,27,28,47,48,27,48,26,27,49,50,26,50,0,26,48,49,26,1,2,25,1,25,26,0,1,26,2,3,24,3,4,24,2,24,25,4,6,24,6,23,24,7,22,23,6,7,23,18,16,17,7,21,22,19,15,18,15,16,18,14,15,19,7,9,21,12,19,20,11,12,20,10,11,20,21,9,20,9,10,20,12,13,19,13,14,19,5,6,4],"weights":[1,8,1,1,8,1,1,8,1,1,8,1,1,8,1,1,8,1,1,8,1,1,8,1,1,8,1,1,8,1,1,8,1,1,8,1,1,8,1,1,8,1,1,8,1,1,8,1,1,8,1,1,8,1,1,8,1,1,8,1,1,8,1,1,8,1,1,8,1,1,8,1,1,8,1,1,8,1,1,8,1,1,8,1,1,8,1,1,8,1,1,8,1,1,8,1,1,8,1,1,8,1,1,8,1,1,8,1,1,8,1,1,8,1,1,8,1,1,8,1,1,8,1,1,8,1,1,8,1,1,8,1,1,8,1,1,8,1,1,8,1,1,8,1,1,8,1,1,8,1,1,8,1],"slotPose":[1,0,0,1,0,0],"bonePose":[8,-0.661748,-0.749726,0.749726,-0.661748,-260.563191,-293.439485,1,-0.706253,-0.707959,0.707959,-0.706253,-229.6,-256.85],"edges":[0,1,1,2,2,3,3,4,4,5,5,6,6,7,7,8,8,9,9,10,10,11,11,12,12,13,13,14,14,15,15,16,16,17,17,18,18,19,19,20,20,21,21,22,22,23,23,24,24,25,25,26,26,27,27,28,28,29,29,30,30,31,31,32,32,33,33,34,34,35,35,36,36,37,37,38,38,39,39,40,40,41,41,42,42,43,43,44,44,45,45,46,46,47,47,48,48,49,49,50,50,0],"userEdges":[]}]},{"name":"Layer_11","display":[{"type":"mesh","name":"Layer_11","width":122,"height":147,"path":"Layer 11_0","vertices":[-111.47,-188.78,-116.57,-183.63,-121.72,-180.18,-125.87,-175.38,-129.67,-168.48,-133.42,-159.13,-135.17,-149.48,-136.22,-141.88,-135.47,-136.38,-134.82,-131.58,-138.52,-125.33,-144.42,-116.73,-148.57,-112.23,-150.97,-103.98,-152.77,-96.38,-155.07,-86.38,-157.92,-77.43,-160.57,-72.58,-164.12,-67.38,-170.32,-64.68,-177.92,-62.23,-183.42,-62.58,-188.97,-61.58,-192.67,-57.78,-192.67,-51.88,-192.67,-47.33,-187.92,-46.03,-181.72,-45.33,-174.82,-46.03,-167.52,-46.33,-161.72,-44.68,-154.12,-44.68,-147.22,-43.63,-140.02,-43.28,-132.07,-42.83,-123.77,-43.63,-115.17,-44.68,-107.57,-45.03,-99.32,-44.68,-91.02,-44.68,-84.82,-46.03,-81.02,-49.13,-76.57,-55.68,-73.47,-62.88,-71.72,-68.78,-70.67,-75.68,-70.67,-84.93,-70.67,-93.93,-70.67,-101.23,-72.07,-109.48,-75.17,-116.98,-76.57,-125.33,-77.22,-132.53,-76.92,-141.23,-74.47,-147.08,-73.12,-158.43,-74.77,-166.63,-78.97,-171.53,-83.47,-183.63,-88.97,-188.43,-98.97,-188.68,-105.17,-188.68,-106.05,-183.15,-110.9,-179.15,-115.5,-173.4,-119.8,-167.95,-123.55,-159.05,-126.45,-151,-125.85,-142.65,-125.55,-128.55,-125.55,-135.75,-129.3,-121.7,-132.15,-113.9,-136.75,-109.6,-142.8,-101.85,-144.55,-94.95,-145.7,-86.6,-147.4,-76.25,-151.7,-70.25,-158.3,-64.75,-166.95,-60.45,-175.25,-56.15,-183,-52.7,-171.25,-51.85,-163.75,-53,-158.6,-59.05,-150.85,-63.05,-143.35,-63.9,-158.5,-49.7,-153,-53.3,-146.75,-54.75,-138.15,-54.95,-132.15,-60,-132.4,-69.1,-132.4,-79.65,-131.7,-89.95,-130,-97.1,-126.15,-103.8,-121.85,-109.55,-119.25,-115.8,-117.05,-121.8,-115.4,-132.25,-114.7,-143.5,-112.3,-156.2,-108,-164.6,-103.65,-168.45,-97.9,-172.5,-91.2,-175.35,-81.4,-156.7,-82.35,-151.2,-84.75,-138.25,-85.7,-132.75,-84.75,-125.1,-85.25,-116.25,-82.85,-110.7,-80.45,-102.6,-78.75,-95.15,-79,-90.15,-78.3,-81.25,-80.2,-76.7,-81.15,-71.2,-83.8,-61.65,-86.2,-55.15,-90.75,-50.6,-101.55,-52.55,-109.2,-52.3,-116.6,-51.1,-124.75,-52.3,-116.85,-62.6,-115.4,-79.6,-111.35,-89.65,-105.1,-101.65,-102.75,-116,-102.25,-129.4,-100.8,-140.65,-99.35,-147.6,-96,-156.95,-93.4,-162.7,-87.4,-166.5],"uvs":[0.66557,0,0.62377,0.03503,0.58156,0.0585,0.54754,0.09116,0.51639,0.1381,0.48566,0.2017,0.47131,0.26735,0.4627,0.31905,0.46885,0.35646,0.47418,0.38912,0.44385,0.43163,0.39549,0.49014,0.36148,0.52075,0.3418,0.57687,0.32705,0.62857,0.3082,0.6966,0.28484,0.75748,0.26311,0.79048,0.23402,0.82585,0.1832,0.84422,0.1209,0.86088,0.07582,0.8585,0.03033,0.86531,0,0.89116,0,0.93129,0,0.96224,0.03893,0.97109,0.08975,0.97585,0.14631,0.97109,0.20615,0.96905,0.25369,0.98027,0.31598,0.98027,0.37254,0.98741,0.43156,0.9898,0.49672,0.99286,0.56475,0.98741,0.63525,0.98027,0.69754,0.97789,0.76516,0.98027,0.8332,0.98027,0.88402,0.97109,0.91516,0.95,0.95164,0.90544,0.97705,0.85646,0.99139,0.81633,1,0.76939,1,0.70646,1,0.64524,1,0.59558,0.98852,0.53946,0.96311,0.48844,0.95164,0.43163,0.94631,0.38265,0.94877,0.32347,0.96885,0.28367,0.97992,0.20646,0.96639,0.15068,0.93197,0.11735,0.89508,0.03503,0.85,0.00238,0.76803,0.00068,0.71721,0.00068,0.71,0.03828,0.67024,0.06549,0.63254,0.10461,0.59729,0.14168,0.56656,0.20223,0.54279,0.25699,0.5477,0.31379,0.55016,0.40971,0.55016,0.36073,0.51942,0.45631,0.49606,0.50937,0.45836,0.53862,0.40877,0.59134,0.39442,0.63828,0.385,0.69508,0.37106,0.76549,0.33582,0.80631,0.28172,0.84372,0.21082,0.87297,0.14279,0.90223,0.07926,0.9257,0.17557,0.93148,0.23705,0.92365,0.27926,0.8825,0.34279,0.85529,0.40426,0.84951,0.28008,0.9461,0.32516,0.92161,0.37639,0.91175,0.44688,0.91039,0.49606,0.87604,0.49401,0.81413,0.49401,0.74236,0.49975,0.67229,0.51369,0.62365,0.54524,0.57808,0.58049,0.53896,0.6018,0.49644,0.61983,0.45563,0.63336,0.38454,0.6391,0.30801,0.65877,0.22161,0.69401,0.16447,0.72967,0.13828,0.7768,0.11073,0.83172,0.09134,0.91205,0.21821,0.90426,0.25563,0.88459,0.34372,0.8768,0.38114,0.88459,0.43318,0.88049,0.49338,0.90016,0.53114,0.91983,0.58624,0.93377,0.63692,0.93172,0.67093,0.93746,0.73148,0.92188,0.76243,0.9141,0.79985,0.89238,0.86481,0.8727,0.90903,0.83541,0.93998,0.74688,0.92672,0.68418,0.92842,0.62352,0.93658,0.55672,0.92842,0.62147,0.85835,0.63336,0.7427,0.66656,0.67434,0.71779,0.5927,0.73705,0.49508,0.74115,0.40393,0.75303,0.3274,0.76492,0.28012,0.79238,0.21651,0.81369,0.1774,0.86287,0.15155],"triangles":[108,109,54,108,54,55,116,117,47,47,117,46,117,118,46,49,115,48,116,47,48,115,116,48,118,119,45,120,44,45,119,120,45,46,118,45,50,114,49,120,43,44,114,115,49,121,42,43,120,121,43,56,108,55,112,113,51,51,113,50,138,108,56,109,53,54,53,110,52,57,138,56,113,114,50,109,110,53,111,112,52,122,41,42,121,122,42,52,112,51,110,111,52,130,119,117,117,119,118,58,107,57,107,138,57,131,117,116,115,131,116,131,130,117,130,129,119,114,131,115,138,137,108,119,129,120,129,121,120,136,109,108,137,136,108,135,110,109,122,40,41,122,123,40,129,124,121,136,135,109,113,132,114,132,131,114,59,107,58,124,122,121,129,128,124,123,39,40,135,134,110,132,113,112,133,132,112,110,134,111,134,133,111,133,112,111,124,123,122,60,107,59,107,106,138,106,137,138,60,62,106,60,106,107,38,39,123,124,38,123,105,136,137,106,105,137,128,125,124,105,104,136,103,135,136,104,103,136,61,62,60,63,105,106,62,63,106,124,37,38,102,134,135,103,102,135,99,131,132,133,100,132,101,133,134,102,101,134,125,37,124,99,98,131,63,64,105,101,100,133,100,99,132,64,104,105,97,130,131,98,97,131,0,62,61,0,63,62,1,63,0,126,36,125,128,126,125,125,36,37,65,103,104,64,65,104,97,96,130,67,102,103,65,66,103,1,64,63,95,129,130,96,95,130,66,67,103,127,126,128,1,2,64,67,68,102,68,70,102,95,94,129,93,128,129,94,93,129,69,100,101,102,70,101,126,35,36,70,69,101,3,65,64,2,3,64,127,35,126,92,127,128,93,92,128,71,99,100,69,71,100,72,98,99,71,72,99,4,66,65,3,4,65,72,97,98,5,67,66,4,5,66,127,34,35,72,73,97,92,91,127,91,34,127,9,71,69,9,69,70,8,9,70,67,6,68,6,7,68,8,70,68,7,8,68,5,6,67,73,96,97,91,33,34,10,72,71,9,10,71,73,74,96,75,95,96,74,75,96,10,11,72,76,94,95,75,76,95,94,77,93,77,87,93,87,92,93,11,73,72,87,91,92,76,77,94,90,33,91,90,32,33,12,74,73,11,12,73,87,90,91,77,78,87,12,13,74,13,14,75,78,86,87,86,90,87,13,75,74,89,32,90,89,31,32,15,77,76,14,15,76,14,76,75,86,89,90,15,16,77,16,78,77,85,89,86,88,31,89,79,85,86,79,86,78,17,79,78,16,17,78,85,88,89,88,30,31,85,84,88,80,85,79,18,80,79,17,18,79,80,84,85,84,30,88,84,29,30,80,83,84,83,29,84,19,80,18,81,83,80,19,81,80,83,28,29,20,81,19,81,28,83,82,27,28,82,28,81,20,82,81,21,82,20,22,82,21,82,26,27,22,23,82,23,24,82,24,26,82,24,25,26],"weights":[1,3,1,1,3,1,1,3,1,1,3,1,1,3,1,2,3,0.87,6,0.13,2,3,0.79,6,0.21,2,6,0.34,3,0.66,2,6,0.55,3,0.45,2,6,0.69,3,0.31,2,6,0.87,3,0.13,1,6,1,1,6,1,1,6,1,1,6,1,1,6,1,1,6,1,1,6,1,1,6,1,1,6,1,1,6,1,1,6,1,1,6,1,1,6,1,1,6,1,1,6,1,1,6,1,1,6,1,1,6,1,1,6,1,1,6,1,1,6,1,1,6,1,1,6,1,1,6,1,1,6,1,1,6,1,1,6,1,1,6,1,1,6,1,1,6,1,1,6,1,1,6,1,1,6,1,1,6,1,1,6,1,1,6,1,1,6,1,1,6,1,1,6,1,1,6,1,2,6,0.77,3,0.23,2,6,0.69,3,0.31,2,6,0.47,3,0.53,2,6,0.55,3,0.45,1,3,1,1,3,1,1,3,1,1,3,1,1,3,1,1,3,1,1,3,1,1,3,1,1,3,1,1,3,1,1,3,1,2,3,0.87,6,0.13,2,3,0.79,6,0.21,2,6,0.34,3,0.66,2,6,0.77,3,0.23,2,6,0.55,3,0.45,2,6,0.87,3,0.13,1,6,1,1,6,1,1,6,1,1,6,1,1,6,1,1,6,1,1,6,1,1,6,1,1,6,1,1,6,1,1,6,1,1,6,1,1,6,1,1,6,1,1,6,1,1,6,1,1,6,1,1,6,1,1,6,1,1,6,1,1,6,1,1,6,1,1,6,1,1,6,1,1,6,1,1,6,1,1,6,1,1,6,1,2,6,0.87,3,0.13,2,6,0.69,3,0.31,2,6,0.34,3,0.66,2,3,0.79,6,0.21,1,3,1,1,3,1,1,3,1,1,3,1,1,3,1,1,3,1,2,6,0.61,3,0.39,2,6,0.69,3,0.31,2,6,0.77,3,0.23,1,6,1,1,6,1,1,6,1,1,6,1,1,6,1,1,6,1,1,6,1,1,6,1,1,6,1,1,6,1,1,6,1,1,6,1,1,6,1,1,6,1,1,6,1,1,6,1,1,6,1,1,6,1,1,6,1,1,6,1,2,6,0.69,3,0.31,2,6,0.55,3,0.45,2,6,0.34,3,0.66,1,3,1,1,3,1,1,3,1],"slotPose":[1,0,0,1,0,0],"bonePose":[6,0.032082,-0.999485,0.999485,0.032082,-335.55,-61.95,3,-0.970118,-0.242635,0.242635,-0.970118,1.9,-168.7],"edges":[0,1,1,2,2,3,3,4,4,5,5,6,6,7,7,8,8,9,9,10,10,11,11,12,12,13,13,14,14,15,15,16,16,17,17,18,18,19,19,20,20,21,21,22,22,23,23,24,24,25,25,26,26,27,27,28,28,29,29,30,30,31,31,32,32,33,33,34,34,35,35,36,36,37,37,38,38,39,39,40,40,41,41,42,42,43,43,44,44,45,45,46,46,47,47,48,48,49,49,50,50,51,51,52,52,53,53,54,54,55,55,56,56,57,57,58,58,59,59,60,60,61,61,0],"userEdges":[]}]},{"name":"Layer_6","display":[{"type":"mesh","name":"Layer_6","width":82,"height":87,"vertices":[-223.1,-244.65,-230.2,-241.85,-236.95,-237.25,-243.1,-231.05,-246.8,-222.75,-248.65,-211.65,-249.35,-203,-248.65,-194.7,-246.8,-187.6,-243.75,-181.45,-239.8,-177.1,-233,-173.75,-225.3,-173.45,-218.15,-174.95,-208.05,-179.6,-200.65,-184.5,-192.3,-191.9,-185.8,-199.3,-180.9,-208.85,-178.15,-215.35,-177.45,-224.6,-181.15,-232.3,-186.15,-238.45,-192.3,-243.1,-199.7,-246.8,-207.7,-248.3,-215.7,-246.8,-235.05,-226.25,-237.7,-221.55,-239.4,-213.25,-239.8,-205.1,-239.6,-198.5,-237.9,-193,-236,-187.9,-231.3,-183.55,-226.75,-181.65,-219.95,-183.2,-211.6,-186.4,-204.8,-190.75,-197.85,-196.4,-192.15,-203.2,-188.2,-210.2,-185.95,-215.7,-184.6,-222.3,-186.7,-228.15,-189.7,-232.5,-193.85,-235.7,-200.3,-239.7,-207.1,-241,-214.45,-240.6,-220.5,-238.9,-226.55,-235.7,-231.1,-231.35,-229.2,-188.35,-227.05,-194.95,-223.2,-201.35,-219.4,-207.15,-212.75,-216.3,-206.6,-223.55,-200.4,-228.65,-232.8,-196.45,-231.55,-206.25,-228.95,-214.15,-225.75,-220.35,-221.1,-225.25,-215.1,-229.5,-207.2,-232.7,-201.25,-234.65,-191,-223.55,-193.6,-215.45,-196.55,-209.45,-199.55,-205.2,-204.05,-200.5,-208.95,-196.25,-215.1,-190.3,-222.35,-187.3],"uvs":[0.39634,0.08908,0.30976,0.12126,0.22744,0.17414,0.15244,0.2454,0.10732,0.3408,0.08476,0.46839,0.07622,0.56782,0.08476,0.66322,0.10732,0.74483,0.14451,0.81552,0.19268,0.86552,0.27561,0.90402,0.36951,0.90747,0.45671,0.89023,0.57988,0.83678,0.67012,0.78046,0.77195,0.6954,0.85122,0.61034,0.91098,0.50057,0.94451,0.42586,0.95305,0.31954,0.90793,0.23103,0.84695,0.16034,0.77195,0.1069,0.68171,0.06437,0.58415,0.04713,0.48659,0.06437,0.25064,0.30055,0.21832,0.35458,0.19759,0.44998,0.19271,0.54366,0.19515,0.61952,0.21588,0.68274,0.23905,0.74136,0.29637,0.79136,0.35186,0.8132,0.43478,0.79538,0.53661,0.7586,0.61954,0.7086,0.7043,0.64366,0.77381,0.56549,0.82198,0.48503,0.84942,0.42182,0.86588,0.34595,0.84027,0.27871,0.80369,0.22871,0.75308,0.19193,0.67442,0.14595,0.59149,0.13101,0.50186,0.13561,0.42808,0.15515,0.3543,0.19193,0.29881,0.24193,0.32198,0.73618,0.3482,0.66032,0.39515,0.58676,0.44149,0.52009,0.52259,0.41492,0.59759,0.33159,0.6732,0.27297,0.27808,0.64308,0.29332,0.53044,0.32503,0.43963,0.36405,0.36837,0.42076,0.31205,0.49393,0.2632,0.59027,0.22641,0.66283,0.204,0.78783,0.33159,0.75613,0.42469,0.72015,0.49366,0.68357,0.54251,0.62869,0.59653,0.56893,0.64538,0.49393,0.71377,0.40552,0.74825],"triangles":[43,42,19,21,44,20,44,43,20,43,19,20,42,18,19,42,41,18,41,17,18,22,45,21,45,44,21,41,40,17,68,42,43,44,68,43,46,45,22,40,16,17,69,41,42,68,69,42,23,46,22,39,16,40,45,68,44,70,40,41,69,70,41,59,68,45,46,59,45,59,69,68,59,58,69,47,46,23,39,15,16,70,71,40,71,39,40,24,47,23,38,15,39,58,70,69,67,59,46,47,67,46,71,72,39,57,71,70,58,57,70,72,38,39,72,73,38,25,48,24,24,48,47,67,66,59,57,72,71,47,48,67,66,58,59,48,66,67,38,14,15,56,73,72,57,56,72,37,14,38,73,37,38,74,37,73,26,49,25,66,65,58,65,57,58,25,49,48,49,66,48,49,65,66,37,13,14,65,64,57,36,13,37,55,74,73,56,55,73,50,65,49,74,36,37,63,56,57,64,63,57,63,62,56,55,54,74,54,75,74,75,36,74,0,50,26,50,51,65,26,50,49,51,64,65,36,35,13,35,12,13,51,52,64,61,55,56,62,61,56,75,35,36,0,51,50,54,53,75,1,51,0,52,63,64,53,35,75,61,54,55,61,60,54,52,27,63,53,34,35,35,11,12,28,62,63,27,28,63,1,52,51,34,11,35,1,2,52,60,53,54,32,33,60,29,61,62,28,29,62,33,34,53,60,33,53,10,11,34,31,60,61,30,31,61,2,27,52,33,10,34,29,30,61,2,3,27,9,10,33,31,32,60,3,28,27,32,8,33,8,9,33,4,29,28,3,4,28,31,7,32,7,8,32,4,5,29,6,31,30,29,5,30,5,6,30,6,7,31],"weights":[1,8,1,1,8,1,1,8,1,1,8,1,1,8,1,1,8,1,1,8,1,1,8,1,1,8,1,2,8,0.75,2,0.25,2,8,0.65,2,0.35,2,8,0.58,2,0.42,2,8,0.55,2,0.45,2,8,0.54,2,0.46,2,8,0.56,2,0.44,2,8,0.6,2,0.4,2,8,0.68,2,0.32,2,8,0.77,2,0.23,2,8,0.89,2,0.11,1,8,1,1,8,1,1,8,1,1,8,1,1,8,1,1,8,1,1,8,1,1,8,1,2,8,0.94,2,0.06,2,8,0.92,2,0.08,2,8,0.88,2,0.12,2,8,0.83,2,0.17,2,8,0.77,2,0.23,2,8,0.73,2,0.27,2,8,0.68,2,0.32,2,8,0.63,2,0.37,2,8,0.61,2,0.39,2,8,0.59,2,0.41,2,8,0.61,2,0.39,2,8,0.64,2,0.36,2,8,0.69,2,0.31,2,8,0.75,2,0.25,2,8,0.83,2,0.17,2,8,0.87,2,0.13,2,8,0.92,2,0.08,2,8,0.95,2,0.05,1,8,1,1,8,1,1,8,1,1,8,1,1,8,1,1,8,1,1,8,1,2,8,0.97,2,0.03,2,8,0.65,2,0.35,2,8,0.69,2,0.31,2,8,0.72,2,0.28,2,8,0.75,2,0.25,2,8,0.8,2,0.2,2,8,0.85,2,0.15,2,8,0.9,2,0.1,2,8,0.73,2,0.27,2,8,0.79,2,0.21,2,8,0.83,2,0.17,2,8,0.85,2,0.15,2,8,0.88,2,0.12,2,8,0.9,2,0.1,2,8,0.9,2,0.1,2,8,0.92,2,0.08,2,8,0.9,2,0.1,2,8,0.83,2,0.17,2,8,0.77,2,0.23,2,8,0.73,2,0.27,2,8,0.69,2,0.31,2,8,0.66,2,0.34,2,8,0.63,2,0.37,2,8,0.63,2,0.37],"slotPose":[1,0,0,1,0,0],"bonePose":[8,-0.661748,-0.749726,0.749726,-0.661748,-260.563191,-293.439485,1,-0.706253,-0.707959,0.707959,-0.706253,-229.6,-256.85,2,0,-1,1,0,-426.5,-188.9],"edges":[0,1,1,2,2,3,3,4,4,5,5,6,6,7,7,8,8,9,9,10,10,11,11,12,12,13,13,14,14,15,15,16,16,17,17,18,18,19,19,20,20,21,21,22,22,23,23,24,24,25,25,26,26,0],"userEdges":[]}]},{"name":"Layer_9","display":[{"type":"mesh","name":"Layer_9","width":104,"height":190,"path":"Layer_19","vertices":[43.21,-188.77,52.41,-189.7,63.92,-193.32,72.19,-201.05,80.02,-211.68,86.49,-221.71,88.82,-234.11,87.95,-245.16,88.43,-260.76,89.82,-277.36,94.01,-292,101.39,-304.88,110.61,-312.21,119.82,-316.78,130.82,-319.51,141.43,-320.43,144.82,-316.72,144.8,-310.22,139.98,-302.49,132.62,-295.55,125.7,-288.22,122.03,-280.48,121.51,-271.73,121.98,-260.28,124.25,-245.97,125.57,-234.52,126.49,-220.27,125.96,-207.37,124.12,-194.57,118.55,-182.64,109.81,-169.31,99.69,-158.33,91.82,-149.6,82.14,-139.97,72.99,-138,65.6,-142.31,52.33,-154.25,42.71,-165.82,40.48,-177.22,55.92,-173.06,71.09,-182.22,82.17,-192.74,95.06,-208.36,101.05,-224.9,102.94,-244.19,102.09,-262.1,102.57,-276.8,107.66,-292.43,113.68,-300.67,122.85,-308,132.5,-311.17,71.49,-157.87,95,-182.61,107,-204.64,114.86,-228.52,112.6,-246.92,113.11,-270.82,115.94,-285.96,121.02,-296.5,129.29,-304.33],"uvs":[0.02596,0.73316,0.11442,0.72816,0.225,0.70895,0.30433,0.66816,0.37933,0.61211,0.44135,0.55921,0.46346,0.49395,0.45481,0.43579,0.45913,0.35368,0.47212,0.26632,0.51202,0.18921,0.58269,0.12132,0.67115,0.08263,0.75962,0.05842,0.86538,0.04395,0.96731,0.03895,1,0.05842,1,0.09263,0.95385,0.13342,0.88317,0.17,0.81683,0.20868,0.78173,0.24947,0.77692,0.29553,0.78173,0.35579,0.80385,0.43105,0.81683,0.49132,0.82596,0.56632,0.82115,0.63421,0.80385,0.70158,0.75048,0.76447,0.66683,0.83474,0.56971,0.89263,0.49423,0.93868,0.40144,0.98947,0.31346,1,0.24231,0.97737,0.11442,0.91474,0.02163,0.85395,0,0.79395,0.14859,0.8157,0.29426,0.76728,0.40051,0.71175,0.52407,0.62938,0.58128,0.54228,0.59907,0.4407,0.59042,0.34649,0.59474,0.26912,0.6433,0.18675,0.70099,0.14333,0.78897,0.10465,0.88176,0.0878,0.29859,0.89543,0.52407,0.76491,0.63897,0.64886,0.71397,0.52307,0.69186,0.42622,0.69619,0.30043,0.72311,0.2207,0.77167,0.16517,0.85099,0.12386],"triangles":[50,18,17,50,17,16,15,50,16,14,50,15,59,19,18,50,59,18,49,59,50,14,13,50,13,49,50,59,58,19,58,20,19,25,54,26,49,58,59,23,55,24,24,55,25,53,28,27,53,27,26,54,53,26,55,54,25,57,21,20,48,58,49,58,57,20,22,56,23,53,29,28,43,53,54,56,22,21,13,12,49,12,48,49,45,55,23,56,45,23,57,56,21,47,57,58,48,47,58,55,44,54,52,30,29,53,52,29,44,43,54,46,56,57,47,46,57,45,44,55,12,11,48,43,42,53,11,47,48,46,45,56,42,52,53,10,46,47,52,31,30,41,52,42,6,43,44,11,10,47,45,8,44,5,42,43,10,9,46,46,9,45,9,8,45,7,6,44,8,7,44,52,51,31,6,5,43,40,51,52,51,32,31,41,40,52,5,4,42,4,41,42,51,33,32,4,3,41,51,35,34,2,40,41,51,34,33,3,2,41,40,39,51,36,35,51,39,36,51,2,39,40,1,39,2,0,38,1,1,38,39,38,37,39,37,36,39],"weights":[2,11,0.09,3,0.91,2,11,0.63,3,0.37,2,11,0.79,3,0.21,1,11,1,1,11,1,1,11,1,1,11,1,1,11,1,1,11,1,1,11,1,1,11,1,1,11,1,1,11,1,1,11,1,1,11,1,1,11,1,1,11,1,1,11,1,1,11,1,1,11,1,1,11,1,1,11,1,1,11,1,1,11,1,1,11,1,1,11,1,1,11,1,1,11,1,1,11,1,1,11,1,1,11,1,2,11,0.83,3,0.17,2,11,0.53,3,0.47,2,11,0.14,3,0.86,2,11,0.14,3,0.86,2,11,0.26,3,0.74,2,11,0.26,3,0.74,2,11,0.29,3,0.71,2,11,0.17,3,0.83,2,11,0.63,3,0.37,2,11,0.79,3,0.21,1,11,1,1,11,1,1,11,1,1,11,1,1,11,1,1,11,1,1,11,1,1,11,1,1,11,1,1,11,1,2,11,0.63,3,0.37,1,11,1,1,11,1,1,11,1,1,11,1,1,11,1,1,11,1,1,11,1,1,11,1],"slotPose":[1,0,0,1,0,0],"bonePose":[11,0.319083,-0.947727,0.947727,0.319083,282.789958,-166.876683,3,-0.970118,-0.242635,0.242635,-0.970118,1.9,-168.7],"edges":[0,1,1,2,2,3,3,4,4,5,5,6,6,7,7,8,8,9,9,10,10,11,11,12,12,13,13,14,14,15,15,16,16,17,17,18,18,19,19,20,20,21,21,22,22,23,23,24,24,25,25,26,26,27,27,28,28,29,29,30,30,31,31,32,32,33,33,34,34,35,35,36,36,37,37,38,38,0],"userEdges":[]}]},{"name":"Layer_15","display":[{"type":"mesh","name":"Layer_15","width":121,"height":82,"path":"Layer 15_0","vertices":[-243.99,-139.97,-240.84,-137.52,-232.69,-137.52,-219.79,-139.07,-205.64,-142.12,-192.79,-146.87,-181.59,-151.17,-173.44,-157.12,-161.84,-165.77,-149.44,-175.62,-138.24,-183.37,-128.79,-192.37,-123.24,-199.67,-129.24,-207.77,-131.39,-216.82,-140.84,-218.52,-150.29,-215.12,-160.14,-208.22,-171.74,-200.47,-180.74,-193.67,-192.79,-182.42,-201.79,-174.32,-210.79,-165.77,-220.69,-155.42,-227.09,-151.17,-236.54,-147.27,-242.54,-144.67],"uvs":[0,0.96402,0.02603,0.9939,0.09339,0.9939,0.2,0.975,0.31694,0.9378,0.42314,0.87988,0.5157,0.82744,0.58306,0.75487,0.67893,0.64939,0.7814,0.52927,0.87397,0.43476,0.95207,0.325,0.99793,0.23598,0.94835,0.1372,0.93058,0.02683,0.85248,0.0061,0.77438,0.04757,0.69298,0.13171,0.59711,0.22622,0.52273,0.30915,0.42314,0.44634,0.34876,0.54512,0.27438,0.64939,0.19256,0.77561,0.13967,0.82744,0.06157,0.875,0.01198,0.90671],"triangles":[13,11,12,16,10,11,16,11,13,15,16,13,14,15,13,16,17,10,17,9,10,17,18,9,18,19,8,18,8,9,20,7,8,19,20,8,20,21,6,20,6,7,21,5,6,21,22,5,22,4,5,22,23,4,23,3,4,24,2,3,24,3,23,25,2,24,26,1,25,25,1,2,26,0,1],"weights":[1,13,1,1,13,1,1,13,1,1,13,1,1,13,1,1,13,1,1,13,1,1,13,1,1,13,1,1,13,1,1,13,1,1,13,1,1,13,1,1,13,1,1,13,1,1,13,1,1,13,1,1,13,1,1,13,1,1,13,1,1,13,1,1,13,1,1,13,1,1,13,1,1,13,1,1,13,1,1,13,1],"slotPose":[1,0,0,1,0,0],"bonePose":[13,-0.319939,0.947438,-0.947438,-0.319939,-149.15,-251.25],"edges":[0,1,1,2,2,3,3,4,4,5,5,6,6,7,7,8,8,9,9,10,10,11,11,12,12,13,13,14,14,15,15,16,16,17,17,18,18,19,19,20,20,21,21,22,22,23,23,24,24,25,25,26,26,0],"userEdges":[]}]},{"name":"Layer_8","display":[{"type":"mesh","name":"Layer_8","width":273,"height":189,"path":"Layer 8_0","vertices":[-162.94,-219.82,-145.74,-231.27,-128.59,-239.47,-108.94,-242.77,-76.99,-242.77,-46.69,-241.92,-23.79,-234.62,-0.04,-224.72,24.51,-210.82,47.41,-195.27,66.26,-178.92,76.91,-162.52,84.71,-146.22,79.36,-133.12,67.01,-127.32,45.81,-117.57,22.81,-109.32,12.21,-104.47,-1.69,-101.12,-13.14,-100.37,-33.59,-97.02,-50.79,-95.47,-72.89,-95.47,-101.49,-99.52,-128.59,-107.67,-151.49,-119.12,-170.34,-135.57,-180.14,-151.87,-183.44,-170.77,-181.84,-187.07,-176.04,-203.52,-171.14,-211.67,-157.45,-211.2,-137.55,-216.3,-104.6,-218.6,-77.9,-215.75,-43.8,-208.9,-13.65,-200.4,9.1,-186.2,35.25,-172.55,59.1,-149.8,-162,-185.6,-144.4,-185.6,-121.1,-183.35,-99.5,-183.35,-72.2,-177.1,-50.05,-173.1,-31.25,-167.4,-4.55,-157.2,15.9,-149.25,36.4,-141.85,-168.85,-168.55,-155.2,-158.3,-133.6,-149.25,-109.7,-141.85,-76.75,-135.6,-46.05,-131.05,-25,-129.9,0.55,-127.05,26.15,-128.2],"uvs":[0.09286,0.12143,0.15586,0.06085,0.21868,0.01746,0.29066,0,0.40769,0,0.51868,0.0045,0.60256,0.04312,0.68956,0.0955,0.77949,0.16905,0.86337,0.25132,0.93242,0.33783,0.97143,0.4246,1,0.51085,0.9804,0.58016,0.93516,0.61085,0.85751,0.66243,0.77326,0.70608,0.73443,0.73175,0.68352,0.74947,0.64158,0.75344,0.56667,0.77116,0.50366,0.77937,0.42271,0.77937,0.31795,0.75794,0.21868,0.71481,0.1348,0.65423,0.06575,0.5672,0.02985,0.48095,0.01777,0.38095,0.02363,0.29471,0.04487,0.20767,0.06282,0.16455,0.11296,0.16706,0.18586,0.14008,0.30655,0.12791,0.40435,0.14299,0.52926,0.17923,0.6397,0.2242,0.72304,0.29934,0.81882,0.37156,0.90619,0.49193,0.0963,0.30251,0.16076,0.30251,0.24611,0.31441,0.32523,0.31441,0.42523,0.34748,0.50637,0.36865,0.57523,0.39881,0.67304,0.45277,0.74794,0.49484,0.82304,0.53399,0.0712,0.39272,0.1212,0.44695,0.20032,0.49484,0.28787,0.53399,0.40857,0.56706,0.52102,0.59113,0.59813,0.59722,0.69172,0.6123,0.78549,0.60621],"triangles":[40,13,12,11,40,12,40,14,13,10,40,11,39,40,10,40,50,14,50,15,14,9,39,10,39,50,40,50,59,15,38,39,9,8,38,9,39,49,50,59,16,15,49,59,50,38,49,39,38,48,49,58,17,16,58,16,59,49,58,59,37,38,8,7,37,8,58,18,17,48,58,49,37,47,48,37,48,38,48,57,58,19,18,58,57,19,58,6,37,7,47,57,48,6,36,37,36,47,37,57,20,19,36,46,47,47,56,57,56,20,57,5,36,6,46,56,47,56,21,20,45,55,46,4,35,5,22,21,56,55,22,56,46,55,56,45,46,36,35,45,36,5,35,36,34,35,4,55,23,22,54,55,45,44,54,45,35,44,45,34,44,35,54,23,55,3,34,4,43,53,54,33,43,34,54,24,23,34,43,44,43,54,44,3,2,34,2,33,34,53,24,54,42,52,53,53,25,24,42,53,43,33,42,43,32,42,33,1,33,2,52,26,25,52,25,53,1,32,33,41,51,52,0,32,1,41,52,42,32,41,42,30,41,32,31,30,32,51,27,52,27,26,52,0,31,32,29,51,41,30,29,41,28,27,51,29,28,51],"weights":[1,13,1,1,13,1,1,13,1,1,13,1,2,3,0.37,13,0.63,1,3,1,1,3,1,1,3,1,1,3,1,1,3,1,1,3,1,1,3,1,1,3,1,1,3,1,1,3,1,1,3,1,1,3,1,1,3,1,1,3,1,1,3,1,1,3,1,1,3,1,1,3,1,1,3,1,1,3,1,1,3,1,1,3,1,1,3,1,1,3,1,1,13,1,1,13,1,1,13,1,2,13,0.7,3,0.3,2,13,0.7,3,0.3,2,13,0.7,3,0.3,2,3,0.71,13,0.29,1,3,1,1,3,1,1,3,1,1,3,1,1,3,1,2,3,0.71,13,0.29,2,3,0.71,13,0.29,2,3,0.71,13,0.29,2,3,0.71,13,0.29,1,3,1,1,3,1,1,3,1,1,3,1,1,3,1,1,3,1,1,3,1,1,3,1,1,3,1,1,3,1,1,3,1,1,3,1,1,3,1,1,3,1,1,3,1],"slotPose":[1,0,0,1,0,0],"bonePose":[3,-0.970118,-0.242635,0.242635,-0.970118,1.9,-168.7,13,-0.319939,0.947438,-0.947438,-0.319939,-149.15,-251.25],"edges":[0,1,1,2,2,3,3,4,4,5,5,6,6,7,7,8,8,9,9,10,10,11,11,12,12,13,13,14,14,15,15,16,16,17,17,18,18,19,19,20,20,21,21,22,22,23,23,24,24,25,25,26,26,27,27,28,28,29,29,30,30,31,31,0],"userEdges":[]}]},{"name":"Layer_22","display":[{"type":"mesh","name":"Layer_22","width":123,"height":191,"vertices":[-217.1,-361.59,-94.1,-361.59,-217.1,-170.59,-94.1,-170.59],"uvs":[0,0,1,0,0,1,1,1],"triangles":[1,0,3,0,2,3],"weights":[1,1,1,1,1,1,1,1,1,1,1,1],"slotPose":[1,0,0,1,0,0],"bonePose":[1,-0.706253,-0.707959,0.707959,-0.706253,-229.6,-256.85],"edges":[0,1,1,3,3,2,2,0],"userEdges":[]}]}]}],"animation":[{"duration":45,"playTimes":0,"name":"eat","bone":[{"name":"head","translateFrame":[{"duration":10,"tweenEasing":0},{"duration":6,"tweenEasing":0,"x":19.5,"y":58.62},{"duration":5,"tweenEasing":0,"x":24.88,"y":63.99},{"duration":4,"tweenEasing":0,"x":-2.69,"y":-2.68},{"duration":20}],"rotateFrame":[{"duration":10,"tweenEasing":0},{"duration":6,"tweenEasing":0,"rotate":38.43},{"duration":5,"tweenEasing":0,"rotate":41.8},{"duration":4,"tweenEasing":0,"rotate":-6.04},{"duration":20}]},{"name":"head1","translateFrame":[{"duration":15,"tweenEasing":0},{"duration":7,"tweenEasing":0,"x":3.8,"y":-35.45},{"duration":23}]},{"name":"Eye","translateFrame":[{"duration":16,"tweenEasing":0},{"duration":5,"tweenEasing":0,"x":5.06,"y":-55.71},{"duration":11,"tweenEasing":0,"x":5.06,"y":165.56},{"duration":5,"tweenEasing":0,"x":5.06,"y":165.56},{"duration":8,"x":5.06,"y":17.41}]},{"name":"body","translateFrame":[{"duration":15,"tweenEasing":0},{"duration":7,"tweenEasing":0,"y":-8.86},{"duration":23}]},{"name":"tail","translateFrame":[{"duration":16,"tweenEasing":0,"x":-4.05,"y":-16.2},{"duration":7,"tweenEasing":0,"x":13.94,"y":11.32},{"duration":5,"tweenEasing":0,"x":-4.05,"y":-16.2},{"duration":17,"tweenEasing":0,"x":13.94,"y":11.32},{"duration":0,"x":-4.05,"y":-16.2}],"rotateFrame":[{"duration":16,"tweenEasing":0,"rotate":7.7},{"duration":7,"tweenEasing":0,"rotate":-4.97},{"duration":5,"tweenEasing":0,"rotate":7.7},{"duration":17,"tweenEasing":0,"rotate":-4.97},{"duration":0,"rotate":7.7}]},{"name":"leg","translateFrame":[{"duration":15,"tweenEasing":0},{"duration":7,"tweenEasing":0,"x":-1.23,"y":-4.91},{"duration":23}]},{"name":"hand1","translateFrame":[{"duration":15,"tweenEasing":0,"x":0.46,"y":1.86},{"duration":7,"tweenEasing":0,"x":-1.38,"y":-5.51},{"duration":23,"x":0.46,"y":1.86}]},{"name":"hand2","translateFrame":[{"duration":15,"tweenEasing":0},{"duration":7,"tweenEasing":0,"x":-2.46,"y":-9.83},{"duration":23}]},{"name":"bone","translateFrame":[{"duration":5,"tweenEasing":0},{"duration":6,"tweenEasing":0,"x":-7.18,"y":-17.22},{"duration":6,"tweenEasing":0,"x":25.14,"y":-29.3},{"duration":9,"tweenEasing":0,"x":29.75,"y":3.49},{"duration":4,"tweenEasing":0,"x":11.1,"y":9.97},{"duration":4,"tweenEasing":0,"x":-7.18,"y":-17.22},{"duration":4,"tweenEasing":0,"x":25.45,"y":-25.15},{"duration":7,"tweenEasing":0,"x":29.75,"y":3.49},{"duration":0}]},{"name":"horn","translateFrame":[{"duration":15,"tweenEasing":0},{"duration":2,"tweenEasing":0,"x":10.24,"y":11.95},{"duration":5,"tweenEasing":0,"x":10.24,"y":11.95},{"duration":23}],"rotateFrame":[{"duration":15,"tweenEasing":0},{"duration":2,"tweenEasing":0,"rotate":19.96},{"duration":5,"tweenEasing":0,"rotate":19.96},{"duration":23}]}]},{"duration":80,"playTimes":0,"name":"move","bone":[{"name":"head1","translateFrame":[{"duration":12,"tweenEasing":0},{"duration":8,"tweenEasing":0,"y":13.85},{"duration":8,"tweenEasing":0},{"duration":8,"tweenEasing":0,"y":13.85},{"duration":8,"tweenEasing":0},{"duration":7,"tweenEasing":0,"y":13.85},{"duration":8,"tweenEasing":0},{"duration":6,"tweenEasing":0,"y":13.85},{"duration":6,"tweenEasing":0},{"duration":9,"tweenEasing":0,"y":13.85},{"duration":0}]},{"name":"Eye","translateFrame":[{"duration":28},{"duration":8,"tweenEasing":0},{"duration":7,"tweenEasing":0,"y":152.87},{"duration":7,"tweenEasing":0,"y":109.95},{"duration":30}]},{"name":"body","translateFrame":[{"duration":12,"tweenEasing":0},{"duration":16,"tweenEasing":0,"y":3.83},{"duration":15,"tweenEasing":0},{"duration":13,"tweenEasing":0,"y":3.83},{"duration":12,"tweenEasing":0},{"duration":12,"tweenEasing":0,"y":3.83},{"duration":0}]},{"name":"tail","translateFrame":[{"duration":12,"tweenEasing":0,"x":-4.05,"y":-16.2},{"duration":13,"tweenEasing":0,"x":13.94,"y":11.32},{"duration":15,"tweenEasing":0,"x":-4.05,"y":-16.2},{"duration":13,"tweenEasing":0,"x":13.94,"y":11.32},{"duration":13,"tweenEasing":0,"x":-4.05,"y":-16.2},{"duration":14,"tweenEasing":0,"x":13.94,"y":11.32},{"duration":0,"x":-4.05,"y":-16.2}],"rotateFrame":[{"duration":12,"tweenEasing":0,"rotate":7.7},{"duration":13,"tweenEasing":0,"rotate":-4.97},{"duration":15,"tweenEasing":0,"rotate":7.7},{"duration":13,"tweenEasing":0,"rotate":-4.97},{"duration":13,"tweenEasing":0,"rotate":7.7},{"duration":14,"tweenEasing":0,"rotate":-4.97},{"duration":0,"rotate":7.7}]},{"name":"leg","translateFrame":[{"duration":8,"tweenEasing":0,"x":19.42,"y":0.08},{"duration":4,"tweenEasing":0,"x":-42.57,"y":12.62},{"duration":10,"tweenEasing":0,"x":-42.57,"y":12.62},{"duration":6,"tweenEasing":0,"x":12.2,"y":22.2},{"duration":8,"tweenEasing":0,"x":19.42,"y":0.08},{"duration":4,"tweenEasing":0,"x":-42.57,"y":12.62},{"duration":10,"tweenEasing":0,"x":-42.57,"y":12.62},{"duration":5,"tweenEasing":0,"x":12.2,"y":22.2},{"duration":8,"tweenEasing":0,"x":19.42,"y":0.08},{"duration":4,"tweenEasing":0,"x":-42.57,"y":12.62},{"duration":9,"tweenEasing":0,"x":-42.57,"y":12.62},{"duration":4,"tweenEasing":0,"x":12.2,"y":22.2},{"duration":0,"x":19.42,"y":0.08}]},{"name":"hand1","translateFrame":[{"duration":8,"tweenEasing":0,"x":-42.57,"y":12.62},{"duration":4,"tweenEasing":0,"x":12.2,"y":22.2},{"duration":10,"tweenEasing":0,"x":19.42,"y":0.08},{"duration":6,"tweenEasing":0,"x":-42.57,"y":12.62},{"duration":8,"tweenEasing":0,"x":-42.57,"y":12.62},{"duration":4,"tweenEasing":0,"x":12.2,"y":22.2},{"duration":10,"tweenEasing":0,"x":19.42,"y":0.08},{"duration":5,"tweenEasing":0,"x":-42.57,"y":12.62},{"duration":8,"tweenEasing":0,"x":-42.57,"y":12.62},{"duration":4,"tweenEasing":0,"x":12.2,"y":22.2},{"duration":10,"tweenEasing":0,"x":19.42,"y":0.08},{"duration":3,"x":-42.57,"y":12.62}]},{"name":"hand2","translateFrame":[{"duration":8,"tweenEasing":0,"x":19.42,"y":0.08},{"duration":4,"tweenEasing":0,"x":-42.57,"y":12.62},{"duration":10,"tweenEasing":0,"x":-42.57,"y":12.62},{"duration":6,"tweenEasing":0,"x":12.2,"y":22.2},{"duration":8,"tweenEasing":0,"x":19.42,"y":0.08},{"duration":4,"tweenEasing":0,"x":-42.57,"y":12.62},{"duration":10,"tweenEasing":0,"x":-42.57,"y":12.62},{"duration":5,"tweenEasing":0,"x":12.2,"y":22.2},{"duration":8,"tweenEasing":0,"x":19.42,"y":0.08},{"duration":4,"tweenEasing":0,"x":-42.57,"y":12.62},{"duration":9,"tweenEasing":0,"x":-42.57,"y":12.62},{"duration":4,"tweenEasing":0,"x":12.2,"y":22.2},{"duration":0,"x":19.42,"y":0.08}]},{"name":"bone","translateFrame":[{"duration":6,"tweenEasing":0},{"duration":8,"tweenEasing":0,"x":-7.18,"y":-17.22},{"duration":7,"tweenEasing":0,"x":25.14,"y":-29.3},{"duration":7,"tweenEasing":0,"x":29.75,"y":3.49},{"duration":7,"tweenEasing":0,"x":11.1,"y":9.97},{"duration":7,"tweenEasing":0,"x":-7.18,"y":-17.22},{"duration":7,"tweenEasing":0,"x":25.45,"y":-25.15},{"duration":6,"tweenEasing":0,"x":29.75,"y":3.49},{"duration":6,"tweenEasing":0},{"duration":7,"tweenEasing":0,"x":-7.18,"y":-17.22},{"duration":7,"tweenEasing":0,"x":25.45,"y":-25.15},{"duration":5,"tweenEasing":0,"x":29.75,"y":3.49},{"duration":0}]}]},{"duration":50,"playTimes":0,"name":"Dash","bone":[{"name":"head1","translateFrame":[{"duration":7,"tweenEasing":0,"y":16.46},{"duration":5,"tweenEasing":0,"y":35.37},{"duration":5,"tweenEasing":0,"y":16.46},{"duration":5,"tweenEasing":0,"y":35.37},{"duration":5,"tweenEasing":0,"y":16.46},{"duration":5,"tweenEasing":0,"y":35.37},{"duration":5,"tweenEasing":0,"y":16.46},{"duration":4,"tweenEasing":0,"y":35.37},{"duration":3,"tweenEasing":0,"y":16.46},{"duration":6,"tweenEasing":0,"y":35.37},{"duration":0,"y":16.46}]},{"name":"body","translateFrame":[{"duration":7,"tweenEasing":0},{"duration":10,"tweenEasing":0,"y":3.83},{"duration":10,"tweenEasing":0},{"duration":8,"tweenEasing":0,"y":3.83},{"duration":7,"tweenEasing":0},{"duration":8,"tweenEasing":0,"y":3.83},{"duration":0}]},{"name":"tail","translateFrame":[{"duration":7,"tweenEasing":0,"x":-4.05,"y":-16.2},{"duration":9,"tweenEasing":0,"x":13.94,"y":11.32},{"duration":9,"tweenEasing":0,"x":-4.05,"y":-16.2},{"duration":7,"tweenEasing":0,"x":13.94,"y":11.32},{"duration":9,"tweenEasing":0,"x":-4.05,"y":-16.2},{"duration":9,"tweenEasing":0,"x":13.94,"y":11.32},{"duration":0,"x":-4.05,"y":-16.2}],"rotateFrame":[{"duration":7,"tweenEasing":0,"rotate":7.7},{"duration":9,"tweenEasing":0,"rotate":-4.97},{"duration":9,"tweenEasing":0,"rotate":7.7},{"duration":7,"tweenEasing":0,"rotate":-4.97},{"duration":9,"tweenEasing":0,"rotate":7.7},{"duration":9,"tweenEasing":0,"rotate":-4.97},{"duration":0,"rotate":7.7}]},{"name":"leg","translateFrame":[{"duration":5,"tweenEasing":0,"x":19.42,"y":0.08},{"duration":2,"tweenEasing":0,"x":-42.57,"y":12.62},{"duration":6,"tweenEasing":0,"x":-42.57,"y":12.62},{"duration":4,"tweenEasing":0,"x":12.2,"y":22.2},{"duration":5,"tweenEasing":0,"x":19.42,"y":0.08},{"duration":3,"tweenEasing":0,"x":-42.57,"y":12.62},{"duration":7,"tweenEasing":0,"x":-42.57,"y":12.62},{"duration":2,"tweenEasing":0,"x":12.2,"y":22.2},{"duration":5,"tweenEasing":0,"x":19.42,"y":0.08},{"duration":3,"tweenEasing":0,"x":-42.57,"y":12.62},{"duration":5,"tweenEasing":0,"x":-42.57,"y":12.62},{"duration":3,"tweenEasing":0,"x":12.2,"y":22.2},{"duration":0,"x":19.42,"y":0.08}]},{"name":"hand1","translateFrame":[{"duration":5,"tweenEasing":0,"x":-42.57,"y":12.62},{"duration":2,"tweenEasing":0,"x":12.2,"y":22.2},{"duration":7,"tweenEasing":0,"x":19.42,"y":0.08},{"duration":3,"tweenEasing":0,"x":-42.57,"y":12.62},{"duration":6,"tweenEasing":0,"x":-42.57,"y":12.62},{"duration":3,"tweenEasing":0,"x":12.2,"y":22.2},{"duration":6,"tweenEasing":0,"x":19.42,"y":0.08},{"duration":4,"tweenEasing":0,"x":-42.57,"y":12.62},{"duration":5,"tweenEasing":0,"x":-42.57,"y":12.62},{"duration":2,"tweenEasing":0,"x":12.2,"y":22.2},{"duration":7,"tweenEasing":0,"x":19.42,"y":0.08},{"duration":0,"x":-42.57,"y":12.62}]},{"name":"hand2","translateFrame":[{"duration":5,"tweenEasing":0,"x":19.42,"y":0.08},{"duration":2,"tweenEasing":0,"x":-42.57,"y":12.62},{"duration":6,"tweenEasing":0,"x":-42.57,"y":12.62},{"duration":4,"tweenEasing":0,"x":12.2,"y":22.2},{"duration":5,"tweenEasing":0,"x":19.42,"y":0.08},{"duration":3,"tweenEasing":0,"x":-42.57,"y":12.62},{"duration":7,"tweenEasing":0,"x":-42.57,"y":12.62},{"duration":2,"tweenEasing":0,"x":12.2,"y":22.2},{"duration":5,"tweenEasing":0,"x":19.42,"y":0.08},{"duration":2,"tweenEasing":0,"x":-42.57,"y":12.62},{"duration":6,"tweenEasing":0,"x":-42.57,"y":12.62},{"duration":3,"tweenEasing":0,"x":12.2,"y":22.2},{"duration":0,"x":19.42,"y":0.08}]},{"name":"bone","translateFrame":[{"duration":3,"tweenEasing":0},{"duration":5,"tweenEasing":0,"x":-7.18,"y":-17.22},{"duration":4,"tweenEasing":0,"x":25.14,"y":-29.3},{"duration":5,"tweenEasing":0,"x":29.75,"y":3.49},{"duration":5,"tweenEasing":0,"x":11.1,"y":9.97},{"duration":5,"tweenEasing":0,"x":-7.18,"y":-17.22},{"duration":4,"tweenEasing":0,"x":25.45,"y":-25.15},{"duration":3,"tweenEasing":0,"x":29.75,"y":3.49},{"duration":3,"tweenEasing":0},{"duration":5,"tweenEasing":0,"x":-7.18,"y":-17.22},{"duration":4,"tweenEasing":0,"x":25.45,"y":-25.15},{"duration":4,"tweenEasing":0,"x":29.75,"y":3.49},{"duration":0}]}]},{"duration":80,"playTimes":0,"name":"Idle","bone":[{"name":"head1","translateFrame":[{"duration":12,"tweenEasing":0},{"duration":16,"tweenEasing":0,"y":3.09},{"duration":15,"tweenEasing":0},{"duration":13,"tweenEasing":0,"y":3.09},{"duration":12,"tweenEasing":0},{"duration":12,"tweenEasing":0,"y":3.09},{"duration":0}]},{"name":"Eye","translateFrame":[{"duration":28},{"duration":8,"tweenEasing":0},{"duration":7,"tweenEasing":0,"y":152.87},{"duration":7,"tweenEasing":0,"y":109.95},{"duration":30}]},{"name":"body","translateFrame":[{"duration":12,"tweenEasing":0},{"duration":16,"tweenEasing":0,"y":3.83},{"duration":15,"tweenEasing":0},{"duration":13,"tweenEasing":0,"y":3.83},{"duration":12,"tweenEasing":0},{"duration":12,"tweenEasing":0,"y":3.83},{"duration":0}]},{"name":"tail","translateFrame":[{"duration":40,"tweenEasing":0,"x":-4.05,"y":-16.2},{"duration":40,"tweenEasing":0,"x":13.94,"y":11.32},{"duration":0,"x":-4.05,"y":-16.2}],"rotateFrame":[{"duration":40,"tweenEasing":0,"rotate":7.7},{"duration":40,"tweenEasing":0,"rotate":-4.97},{"duration":0,"rotate":7.7}]},{"name":"leg","translateFrame":[{"duration":12,"tweenEasing":0},{"duration":16,"tweenEasing":0,"x":0.7,"y":2.79},{"duration":15,"tweenEasing":0},{"duration":13,"tweenEasing":0,"x":0.7,"y":2.79},{"duration":12,"tweenEasing":0},{"duration":12,"tweenEasing":0,"x":0.7,"y":2.79},{"duration":0}]},{"name":"hand1","translateFrame":[{"duration":12,"tweenEasing":0,"x":0.46,"y":1.86},{"duration":16,"tweenEasing":0,"x":1.16,"y":4.65},{"duration":15,"tweenEasing":0,"x":0.46,"y":1.86},{"duration":13,"tweenEasing":0,"x":1.16,"y":4.65},{"duration":12,"tweenEasing":0,"x":0.46,"y":1.86},{"duration":12,"tweenEasing":0,"x":1.16,"y":4.65},{"duration":0,"x":0.46,"y":1.86}]},{"name":"hand2","translateFrame":[{"duration":12,"tweenEasing":0},{"duration":16,"tweenEasing":0,"x":0.7,"y":2.79},{"duration":15,"tweenEasing":0},{"duration":13,"tweenEasing":0,"x":0.7,"y":2.79},{"duration":12,"tweenEasing":0},{"duration":12,"tweenEasing":0,"x":0.7,"y":2.79},{"duration":0}]},{"name":"bone","translateFrame":[{"duration":10,"tweenEasing":0},{"duration":10,"tweenEasing":0,"x":-7.18,"y":-17.22},{"duration":10,"tweenEasing":0,"x":25.14,"y":-29.3},{"duration":10,"tweenEasing":0,"x":29.75,"y":3.49},{"duration":10,"tweenEasing":0,"x":11.1,"y":9.97},{"duration":10,"tweenEasing":0,"x":-7.18,"y":-17.22},{"duration":10,"tweenEasing":0,"x":25.45,"y":-25.15},{"duration":10,"tweenEasing":0,"x":29.75,"y":3.49},{"duration":0}]}]},{"duration":80,"playTimes":0,"name":"PowerUp","bone":[{"name":"head","translateFrame":[{"duration":10,"tweenEasing":0},{"duration":6,"tweenEasing":0,"x":19.5,"y":58.62},{"duration":44,"tweenEasing":0,"x":24.88,"y":63.99},{"duration":10,"tweenEasing":0,"x":24.88,"y":63.99},{"duration":10}],"rotateFrame":[{"duration":10,"tweenEasing":0},{"duration":6,"tweenEasing":0,"rotate":38.43},{"duration":44,"tweenEasing":0,"rotate":41.8},{"duration":10,"tweenEasing":0,"rotate":41.8},{"duration":10}]},{"name":"Mane","scaleFrame":[{"duration":15,"tweenEasing":0},{"duration":45,"tweenEasing":0,"x":1.1,"y":1.1},{"duration":10,"tweenEasing":0,"x":1.1,"y":1.1},{"duration":10}]},{"name":"head1","translateFrame":[{"duration":15,"tweenEasing":0},{"duration":5,"tweenEasing":0,"x":3.8,"y":-35.45},{"duration":4,"tweenEasing":0,"x":3.8,"y":-39.77},{"duration":4,"tweenEasing":0,"x":3.8,"y":-35.45},{"duration":4,"tweenEasing":0,"x":3.8,"y":-39.77},{"duration":5,"tweenEasing":0,"x":3.8,"y":-35.45},{"duration":4,"tweenEasing":0,"x":3.8,"y":-39.77},{"duration":5,"tweenEasing":0,"x":3.8,"y":-35.45},{"duration":4,"tweenEasing":0,"x":3.8,"y":-39.77},{"duration":6,"tweenEasing":0,"x":3.8,"y":-35.45},{"duration":4,"tweenEasing":0,"x":3.8,"y":-39.77},{"duration":10,"tweenEasing":0,"x":3.8,"y":-35.45},{"duration":10,"tweenEasing":0,"x":3.8,"y":-22.96},{"duration":0}]},{"name":"Eye","translateFrame":[{"duration":16,"tweenEasing":0},{"duration":64,"x":5.06,"y":-55.71}]},{"name":"body","translateFrame":[{"duration":15,"tweenEasing":0,"y":-8.86},{"duration":5,"tweenEasing":0,"y":-8.86},{"duration":5,"tweenEasing":0},{"duration":5,"tweenEasing":0,"y":-8.86},{"duration":5,"tweenEasing":0},{"duration":5,"tweenEasing":0,"y":-8.86},{"duration":5,"tweenEasing":0},{"duration":5,"tweenEasing":0,"y":-8.86},{"duration":5,"tweenEasing":0},{"duration":5,"tweenEasing":0,"y":-8.86},{"duration":10,"tweenEasing":0},{"duration":10,"tweenEasing":0,"y":3.75},{"duration":0,"y":-8.86}]},{"name":"tail","translateFrame":[{"duration":16,"tweenEasing":0,"x":-4.05,"y":-16.2},{"duration":6,"tweenEasing":0,"x":13.94,"y":11.32},{"duration":4,"tweenEasing":0,"x":-4.05,"y":-16.2},{"duration":6,"tweenEasing":0,"x":13.94,"y":11.32},{"duration":6,"tweenEasing":0,"x":13.94,"y":11.32},{"duration":4,"tweenEasing":0,"x":-4.05,"y":-16.2},{"duration":4,"tweenEasing":0,"x":13.94,"y":11.32},{"duration":6,"tweenEasing":0,"x":13.94,"y":11.32},{"duration":4,"tweenEasing":0,"x":-4.05,"y":-16.2},{"duration":14,"tweenEasing":0,"x":13.94,"y":11.32},{"duration":10,"x":-4.05,"y":-16.2}],"rotateFrame":[{"duration":16,"tweenEasing":0,"rotate":7.7},{"duration":6,"tweenEasing":0,"rotate":-4.97},{"duration":4,"tweenEasing":0,"rotate":7.7},{"duration":6,"tweenEasing":0,"rotate":-4.97},{"duration":6,"tweenEasing":0,"rotate":-4.97},{"duration":4,"tweenEasing":0,"rotate":7.7},{"duration":4,"tweenEasing":0,"rotate":-4.97},{"duration":6,"tweenEasing":0,"rotate":-4.97},{"duration":4,"tweenEasing":0,"rotate":7.7},{"duration":14,"tweenEasing":0,"rotate":-4.97},{"duration":10,"rotate":7.7}]},{"name":"leg","translateFrame":[{"duration":15,"tweenEasing":0,"y":-8.86},{"duration":5,"tweenEasing":0,"y":-8.86},{"duration":5,"tweenEasing":0,"x":2.42,"y":-0.61},{"duration":5,"tweenEasing":0,"y":-8.86},{"duration":5,"tweenEasing":0,"x":2.42,"y":-0.61},{"duration":5,"tweenEasing":0,"y":-8.86},{"duration":5,"tweenEasing":0,"x":2.42,"y":-0.61},{"duration":5,"tweenEasing":0,"y":-8.86},{"duration":5,"tweenEasing":0,"x":2.42,"y":-0.61},{"duration":5,"tweenEasing":0,"y":-8.86},{"duration":10,"tweenEasing":0,"x":2.42,"y":-0.61},{"duration":10,"tweenEasing":0,"x":3.94,"y":5.46},{"duration":0,"y":-8.86}]},{"name":"hand1","translateFrame":[{"duration":15,"tweenEasing":0,"y":-8.86},{"duration":5,"tweenEasing":0,"y":-8.86},{"duration":5,"tweenEasing":0,"x":2.42,"y":-0.61},{"duration":5,"tweenEasing":0,"y":-8.86},{"duration":5,"tweenEasing":0,"x":2.42,"y":-0.61},{"duration":5,"tweenEasing":0,"y":-8.86},{"duration":5,"tweenEasing":0,"x":2.42,"y":-0.61},{"duration":5,"tweenEasing":0,"y":-8.86},{"duration":5,"tweenEasing":0,"x":2.42,"y":-0.61},{"duration":5,"tweenEasing":0,"y":-8.86},{"duration":10,"tweenEasing":0,"x":2.42,"y":-0.61},{"duration":10,"tweenEasing":0,"x":4.24,"y":6.67},{"duration":0,"y":-8.86}]},{"name":"hand2","translateFrame":[{"duration":15,"tweenEasing":0,"y":-8.86},{"duration":5,"tweenEasing":0,"y":-8.86},{"duration":5,"tweenEasing":0,"x":2.42,"y":-0.61},{"duration":5,"tweenEasing":0,"y":-8.86},{"duration":5,"tweenEasing":0,"x":2.42,"y":-0.61},{"duration":5,"tweenEasing":0,"y":-8.86},{"duration":5,"tweenEasing":0,"x":2.42,"y":-0.61},{"duration":5,"tweenEasing":0,"y":-8.86},{"duration":5,"tweenEasing":0,"x":2.42,"y":-0.61},{"duration":5,"tweenEasing":0,"y":-8.86},{"duration":10,"tweenEasing":0,"x":2.42,"y":-0.61},{"duration":10,"tweenEasing":0,"x":3.64,"y":4.24},{"duration":0,"y":-8.86}]},{"name":"bone","translateFrame":[{"duration":5,"tweenEasing":0},{"duration":6,"tweenEasing":0,"x":-7.18,"y":-17.22},{"duration":6,"tweenEasing":0,"x":25.14,"y":-29.3},{"duration":4,"tweenEasing":0,"x":29.75,"y":3.49},{"duration":4,"tweenEasing":0,"x":11.1,"y":9.97},{"duration":4,"tweenEasing":0,"x":-7.18,"y":-17.22},{"duration":4,"tweenEasing":0,"x":25.45,"y":-25.15},{"duration":4,"tweenEasing":0,"x":29.75,"y":3.49},{"duration":4,"tweenEasing":0,"x":11.1,"y":9.97},{"duration":4,"tweenEasing":0,"x":-7.18,"y":-17.22},{"duration":4,"tweenEasing":0,"x":25.45,"y":-25.15},{"duration":11,"tweenEasing":0,"x":29.75,"y":3.49},{"duration":5,"tweenEasing":0},{"duration":6,"tweenEasing":0,"x":-7.18,"y":-17.22},{"duration":6,"tweenEasing":0,"x":25.14,"y":-29.3},{"duration":3,"x":29.75,"y":3.49}]},{"name":"horn","translateFrame":[{"duration":15,"tweenEasing":0},{"duration":45,"tweenEasing":0,"x":10.24,"y":11.95},{"duration":10,"tweenEasing":0,"x":10.24,"y":11.95},{"duration":10}],"rotateFrame":[{"duration":15,"tweenEasing":0},{"duration":45,"tweenEasing":0,"rotate":19.96},{"duration":10,"tweenEasing":0,"rotate":19.96},{"duration":10}]}]},{"duration":50,"playTimes":0,"name":"Hurt","bone":[{"name":"head","translateFrame":[{"duration":10,