{"frameRate":24,"name":"Sidesprite3","version":"5.5","compatibleVersion":"5.5","armature":[{"type":"Armature","frameRate":24,"name":"Armature","aabb":{"x":-293.73,"y":-504.24,"width":516.57,"height":491.6},"bone":[{"name":"root"},{"length":29,"name":"head1","parent":"root","transform":{"x":-229.6,"y":-256.85,"skX":-134.9309,"skY":-134.9309}},{"length":27,"name":"Eye","parent":"root","transform":{"x":-421.5834,"y":-349.7374,"skX":-90,"skY":-90}},{"length":117,"name":"body","parent":"root","transform":{"x":1.9,"y":-168.7,"skX":-165.9579,"skY":-165.9579}},{"length":47,"name":"bone","parent":"root","transform":{"x":-15.4176,"y":-515.876,"skX":-30.3432,"skY":-30.3432}},{"length":26,"name":"leg","parent":"body","transform":{"x":-248.3552,"y":-45.1973,"skX":75.9579,"skY":75.9579}},{"length":23,"name":"horn","parent":"head1","transform":{"x":-20.1237,"y":82.5437,"skX":77.6589,"skY":77.6589}},{"length":29,"name":"hand1","parent":"body","transform":{"x":311.2293,"y":-186.617,"skX":77.7964,"skY":77.7964}},{"length":25,"name":"jaw","parent":"head1","transform":{"x":-79.9288,"y":-50.5678,"skX":-82.5483,"skY":-82.5483}},{"length":49,"name":"tail","parent":"body","transform":{"x":-270.9851,"y":61.0547,"skX":94.5653,"skY":94.5653}},{"length":33,"name":"Mane","parent":"head1","transform":{"x":-78.7838,"y":77.9829,"skX":92.3624,"skY":92.3624}},{"length":26,"name":"leg2","parent":"body","transform":{"x":67.255,"y":-236.7945,"skX":75.9579,"skY":75.9579}},{"length":44,"name":"head","parent":"head1","transform":{"x":45.7936,"y":4.4141,"skX":2.9869,"skY":2.9869}},{"length":20,"name":"kongtentacle","parent":"body","transform":{"x":-211.8103,"y":245.2783,"skX":92.9562,"skY":92.9562}},{"length":30,"name":"hand2","parent":"body","transform":{"x":377.7676,"y":-212.005,"skX":78.189,"skY":78.189}},{"length":30,"name":"bone1","parent":"body","transform":{"x":-265.2755,"y":214.732,"skX":153.6498,"skY":153.6498}},{"length":24,"name":"bone3","parent":"body","transform":{"x":-308.642,"y":203.9315,"skX":147.4866,"skY":147.4866}},{"length":52,"name":"Layer_121","parent":"jaw","transform":{"x":-100.2104,"y":32.4162,"skX":-33.8616,"skY":-33.8616}},{"length":29,"name":"fire","parent":"tail","transform":{"x":65.1608,"y":-2.5658,"skX":-3.0319,"skY":-3.0319}},{"length":31,"name":"bone2","parent":"kongtentacle","transform":{"x":72.2231,"y":26.7718,"skX":80.705,"skY":80.705}}],"slot":[{"name":"Layer_40","parent":"root"},{"name":"Layer_37_copy","parent":"kongtentacle"},{"name":"Layer_38_copy","parent":"root"},{"name":"Layer_45","parent":"fire"},{"name":"Layer_9","parent":"tail"},{"name":"Layer_11_copy","parent":"hand2"},{"name":"Layer_10_copy","parent":"leg2"},{"name":"Layer_8","parent":"body"},{"name":"Layer_10","parent":"leg"},{"name":"Layer_11","parent":"hand1"},{"name":"Layer_12","parent":"jaw"},{"name":"Layer_13","parent":"jaw"},{"name":"Layer_15","parent":"jaw"},{"name":"Layer_40_copy","parent":"root"},{"name":"Layer_38","parent":"root"},{"name":"Layer_37","parent":"kongtentacle"},{"name":"Layer_12_copy_3","parent":"head"},{"name":"Layer_7","parent":"Mane"},{"name":"Layer_6","parent":"Eye"},{"name":"Layer_6_copy","parent":"Eye"},{"name":"Layer_14","parent":"Eye"},{"name":"Layer_23","parent":"head1"},{"name":"Layer_4","parent":"horn"}],"skin":[{"slot":[{"name":"Layer_11","display":[{"type":"mesh","name":"Layer_11","width":120,"height":171,"vertices":[-165.2,-207.08,-169.6,-199.73,-169.6,-186.28,-168.45,-170.38,-161.95,-159.38,-152.55,-148.38,-145.65,-144.73,-144,-133.28,-144.85,-123.53,-141.55,-112.48,-133.8,-100.28,-126.05,-91.73,-122,-79.88,-124.85,-69.68,-129.75,-63.18,-135.85,-52.18,-133.8,-43.63,-126.05,-41.18,-113.85,-51.33,-104.85,-61.53,-93.05,-70.13,-84.9,-77.43,-77.55,-85.18,-72.65,-93.78,-64.5,-101.08,-58,-106.78,-51.85,-114.13,-49.6,-122.28,-51.85,-133.73,-56.75,-143.88,-65.35,-154.93,-73.9,-164.68,-86.1,-171.23,-95.1,-174.88,-103.25,-182.63,-111,-189.18,-116.3,-198.13,-122,-205.88,-133.8,-209.53,-143.6,-212.08,-155,-212.08,-160,-195.3,-156.1,-176.5,-145.75,-158.4,-127.6,-152.55,-122.45,-136.35,-122.45,-120.8,-113.35,-105.9,-101.05,-93.6,-108.2,-76.75,-84.85,-105.25,-88.1,-124.7,-100.4,-141.55,-107.55,-156.45,-122.45,-170.05,-141.2,-178.45,-141.85,-195.95],"uvs":[0.03667,0.02924,0,0.07222,0,0.15088,0.00958,0.24386,0.06375,0.30819,0.14208,0.37251,0.19958,0.39386,0.21333,0.46082,0.20625,0.51784,0.23375,0.58246,0.29833,0.6538,0.36292,0.7038,0.39667,0.7731,0.37292,0.83275,0.33208,0.87076,0.28125,0.93509,0.29833,0.98509,0.36292,0.99942,0.46458,0.94006,0.53958,0.88041,0.63792,0.83012,0.70583,0.78743,0.76708,0.74211,0.80792,0.69181,0.87583,0.64912,0.93,0.61579,0.98125,0.57281,1,0.52515,0.98125,0.45819,0.94042,0.39883,0.86875,0.33421,0.7975,0.27719,0.69583,0.23889,0.62083,0.21754,0.55292,0.17222,0.48833,0.13392,0.44417,0.08158,0.39667,0.03626,0.29833,0.01491,0.21667,0,0.12167,0,0.07999,0.09811,0.11249,0.20805,0.19874,0.3139,0.34999,0.34811,0.3929,0.44285,0.3929,0.53378,0.46874,0.62092,0.57124,0.69285,0.51165,0.79138,0.70624,0.62472,0.67915,0.51098,0.57665,0.41244,0.51707,0.3253,0.3929,0.24577,0.23665,0.19665,0.23124,0.09431],"triangles":[28,51,27,51,26,27,51,25,26,29,51,28,50,24,25,51,50,25,30,51,29,50,23,24,31,52,30,52,51,30,32,52,31,50,22,23,53,52,32,48,21,22,50,48,22,48,49,20,33,53,32,51,47,50,47,48,50,48,20,21,52,46,51,46,47,51,49,19,20,54,53,34,45,46,52,34,53,33,12,49,48,11,12,48,53,45,52,47,11,48,49,13,19,35,54,34,44,45,53,13,18,19,54,44,53,12,13,49,13,14,18,36,55,35,55,54,35,56,55,36,46,10,47,10,11,47,15,17,18,14,15,18,37,56,36,15,16,17,43,44,54,55,43,54,38,56,37,44,6,45,6,7,45,8,9,46,45,7,46,7,8,46,9,10,46,43,6,44,39,56,38,43,5,6,42,43,55,39,40,56,40,41,56,42,55,56,41,42,56,42,4,43,4,5,43,3,4,42,41,2,42,0,41,40,2,3,42,0,1,41,1,2,41],"weights":[2,17,0.87,7,0.13,2,7,0.18,17,0.82,2,7,0.26,17,0.74,2,7,0.5,17,0.5,1,7,1,1,7,1,1,7,1,1,7,1,1,7,1,1,7,1,1,7,1,1,7,1,1,7,1,1,7,1,1,7,1,1,7,1,1,7,1,1,7,1,1,7,1,1,7,1,1,7,1,1,7,1,1,7,1,1,7,1,1,7,1,1,7,1,1,7,1,1,7,1,1,7,1,1,7,1,1,7,1,1,7,1,1,7,1,1,7,1,1,7,1,1,7,1,2,7,0.44,17,0.56,2,7,0.3,17,0.7,2,17,0.87,7,0.13,2,17,0.87,7,0.13,2,17,0.87,7,0.13,2,7,0.27,17,0.73,2,7,0.54,17,0.46,1,7,1,1,7,1,1,7,1,1,7,1,1,7,1,1,7,1,1,7,1,1,7,1,1,7,1,1,7,1,1,7,1,1,7,1,2,7,0.49,17,0.51,2,7,0.28,17,0.72],"slotPose":[1,0,0,1,0,0],"bonePose":[7,0.032082,-0.999485,0.999485,0.032082,-345.308872,-63.17486,17,-0.319939,0.947438,-0.947438,-0.319939,-149.15,-251.25],"edges":[0,1,1,2,2,3,3,4,4,5,5,6,6,7,7,8,8,9,9,10,10,11,11,12,12,13,13,14,14,15,15,16,16,17,17,18,18,19,19,20,20,21,21,22,22,23,23,24,24,25,25,26,26,27,27,28,28,29,29,30,30,31,31,32,32,33,33,34,34,35,35,36,36,37,37,38,38,39,39,40,40,0],"userEdges":[]}]},{"name":"Layer_7","display":[{"type":"mesh","name":"Layer_7","width":408,"height":389,"path":"Layer_7_copy","vertices":[-264.51,-346,-265.11,-361.85,-259.61,-378.35,-254.11,-388.15,-240.71,-391.2,-231.51,-392.4,-224.81,-401.6,-224.81,-412,-227.86,-419.95,-226.66,-427.85,-221.81,-434,-214.41,-431.55,-213.26,-424.8,-207.11,-426.6,-209.56,-440.1,-207.11,-452.3,-199.76,-462.1,-190.01,-476.75,-177.16,-480.4,-165.56,-476.75,-151.51,-474.9,-138.66,-474.95,-128.26,-481.1,-116.06,-485.95,-103.26,-490.9,-94.06,-491,-79.41,-491,-75.76,-485.95,-79.36,-480.65,-86.61,-475.8,-87.81,-471.55,-84.51,-467.7,-78.51,-467.8,-70.26,-468.2,-58.66,-473.7,-48.86,-476.8,-39.11,-477.4,-30.56,-473.1,-22.61,-465.8,-13.46,-458.45,-4.31,-451.1,4.24,-445.6,17.09,-445.6,29.89,-448.65,40.29,-449.9,50.09,-448.05,60.44,-441.3,65.34,-432.75,68.99,-419.95,59.84,-423.6,55.44,-419.3,52.39,-414.4,51.24,-406.55,48.89,-398.4,50.79,-395.8,56.74,-393.45,63.74,-393.35,73.59,-386.65,82.39,-375.8,87.94,-360.7,94.84,-354.35,99.89,-348.95,107.94,-347.15,116.99,-346.15,123.49,-346.5,138.59,-341.85,136.59,-332.8,129.14,-326.1,120.44,-316.4,112.59,-308.95,101.34,-302.75,91.49,-297.1,82.09,-293.55,67.54,-290.5,59.54,-290.95,54.09,-289.35,47.94,-287.3,46.84,-280.9,43.64,-272.55,36.69,-265.65,30.29,-261.8,23.84,-261.7,31.24,-260.65,44.99,-261.3,53.79,-255.75,57.39,-247.1,49.79,-242.75,40.39,-239.7,34.79,-233.65,31.14,-223.25,23.04,-216.05,16.24,-210.05,9.99,-202.05,3.44,-191.85,-6.76,-186.1,-17.51,-180.2,-35.06,-177.1,-45.76,-174.05,-51.56,-167.3,-48.26,-158.55,-46.56,-147.6,-49.46,-139.55,-60.26,-141.6,-69.61,-144.1,-75.61,-147.1,-74.91,-137.95,-78.11,-132.35,-90.66,-129.35,-105.66,-131.5,-116.16,-134.35,-131.96,-137.65,-143.16,-139.7,-152.51,-131.15,-157.11,-124.6,-162.91,-119.35,-174.11,-126,-172.86,-136.5,-174.41,-119.9,-177.46,-111.6,-185.16,-104.9,-195.46,-115.15,-206.66,-121.7,-211.36,-131.65,-216.26,-143.85,-213.81,-150.55,-204.01,-153.6,-194.26,-156.65,-187.51,-161.55,-185.11,-168.3,-191.81,-178.65,-188.16,-185.4,-189.36,-196.35,-185.11,-202.5,-175.31,-208,-164.91,-213.5,-155.16,-217.15,-153.31,-227.55,-148.46,-234.25,-142.31,-241.6,-145.36,-251.35,-154.56,-261.1,-161.26,-264.8,-164.91,-271.5,-163.71,-277.6,-171.06,-284.95,-177.76,-294.1,-180.81,-303.9,-182.66,-314.9,-179.61,-323.45,-177.76,-335.65,-174.71,-343.6,-169.81,-349.7,-164.31,-354.6,-160.06,-361.9,-165.56,-366.2,-175.31,-366.8,-190.01,-366.8,-204.06,-366.2,-218.76,-363.15,-230.31,-358.85,-243.76,-353.35,-252.91,-346.05,-261.46,-338.7,-258.45,-352.5,-256.6,-362.55,-252.05,-371.65,-246.6,-378.05,-237,-379.4,-227.45,-380.75,-218.3,-392.6,-216.95,-406.75,-219.25,-420.4,-212.85,-414.5,-202.35,-415.85,-199.2,-433.65,-198.7,-444.1,-193.7,-451.85,-185.05,-464.65,-176.85,-468.75,-165.45,-466,-154.05,-465.55,-138.1,-463.7,-125.35,-470.1,-113.95,-475.55,-104.4,-479.2,-93.45,-483.75,-98.8,-477.6,-100.45,-470,-95.8,-462.7,-87.55,-456.4,-79.55,-455.05,-69.95,-458.35,-57.7,-464,-47.4,-467,-39.8,-467.3,-32.5,-463.35,-24.2,-457.05,-15.9,-450.1,-6.95,-441.45,4,-435.8,18.25,-436.5,31.5,-438.5,38.15,-440.15,46.75,-439.45,55.05,-433.5,48.75,-428.55,37.8,-419.9,36.8,-408.95,35.85,-400,35.85,-389.75,43.45,-383.1,52.1,-382.1,58.7,-383.75,65.35,-375.8,73.9,-361.25,81.9,-348.65,90.85,-338.7,102.75,-334.4,114.05,-334.05,123.3,-334.4,115.35,-328.4,108.05,-321.45,98.1,-315.5,90.85,-311.85,82.2,-307.85,71.25,-307.2,60.35,-306.55,50.7,-306.85,41.1,-302.25,35.8,-296.6,35.1,-287.3,33.15,-280.7,25.5,-273.7,16.55,-266.75,9,-261.1,10.3,-251.15,21.25,-250.8,29.85,-251.15,37.15,-249.85,30.2,-244.5,25.9,-236.9,23.9,-230.6,17.95,-227.95,10.3,-222.3,2.7,-213.05,-1.95,-203.75,-9.6,-198.75,-20.9,-196.45,-39.45,-193.45,-56.05,-185.8,-65,-177.5,-66.3,-164.9,-61.7,-155.3,-68.3,-156.65,-77.6,-160.95,-85.9,-155,-90.2,-146.7,-101.8,-146.7,-116.05,-149.7,-130.3,-151.35,-146.85,-148.4,-156.8,-143.4,-165.45,-138.45,-170.75,-142.75,-178.35,-139.75,-184.65,-131.8,-188.3,-120.85,-193.95,-125.2,-198.6,-130.8,-205.9,-134.15,-208.2,-141.1,-202.55,-145.05,-190.95,-148.05,-181.65,-154.7,-176.05,-164.3,-183.65,-175.9,-179,-179.55,-178.35,-191.15,-174.7,-197.45,-167.1,-201.45,-160.1,-204.4,-151.5,-209.05,-146.2,-219.95,-144.2,-227.25,-137.25,-230.25,-132.95,-239.2,-135.9,-252.8,-147.85,-265.05,-153.2,-269.7,-153.2,-276.65,-157.5,-283.95,-166.45,-294.25,-169.45,-303.5,-170.45,-314.45,-169.1,-324.05,-168.45,-330.7,-166.1,-337,-162.15,-341.65,-158.15,-346.6,-150.55,-359.9,-155.85,-371.85,-172.1,-374.5,-192,-375.15,-206.55,-373.15,-221.15,-370.2,-233.1,-366.2,-247,-359.55,-111.9,-462.65,-122,-453.45,-132.55,-448.4,-148.15,-447.95,-165.6,-445.65,-178.45,-434.2,-183.5,-424.55,-188.05,-402.55,-194.95,-392.9,-207.35,-382.8,-164.2,-386.05,-157.8,-405.75,-149.55,-420.45,-130.25,-422.7,-118.8,-422.7,-91.75,-426.85,-75.2,-427.3,-58.25,-439.7,-44.5,-444.75,-23.4,-427.3,-30.7,-436.05,-9.6,-417.7,11.5,-415.85,22.95,-423.2,35.8,-431,-141.75,-373.65,-130.7,-388.8,-127.5,-398.85,-112.85,-402.1,-90.8,-400.25,-70.65,-399.35,-49.55,-401.15,-51.8,-424.55,-33.95,-396.1,-12.35,-388.8,6.45,-388.8,20.2,-376.4,33.95,-358.05,51.85,-353.45,64.2,-343.85,74.3,-330.55,92.2,-324.55,-150,-337.4,-131.2,-340.6,-121.1,-355.75,-113.75,-366.3,-100.95,-379.15,-82.6,-378.25,-68.8,-371.35,-50,-372.75,-33.95,-370,-19.75,-362.65,0.45,-356.65,12.4,-347.05,23.4,-334.2,42.65,-330.05,59.15,-328.7,-155.05,-317.7,-143.15,-311.7,-116.05,-317.7,-109.2,-332.8,-87.15,-350.25,-67.45,-342.9,-49.1,-334.2,-33.95,-334.65,-15.6,-329.6,-1.4,-316.75,16.5,-295.2,10.55,-308.5,-148.15,-293.85,-128.9,-284.2,-107.8,-286.5,-86.25,-293.85,-60.1,-299.8,-40.35,-297.95,-28.45,-291.55,-6.4,-284.65,-84.85,-320.9,-86.25,-334.65,-126.6,-256.2,-99.55,-257.6,-82.1,-268.15,-55.95,-261.7,-33.5,-258.05,-11.95,-253,11.45,-239.7,-10.1,-231.9,-33.5,-234.2,-50.9,-234.2,-73.4,-230.55,-97.25,-220.45,-113.75,-210.35,-128,-202.1,-161,-183.75,-144.5,-175,-122.5,-176.4,-90.85,-183.3,-77.05,-171.8],"uvs":[0.01078,0.37776,0.00932,0.33701,0.02279,0.2946,0.03627,0.26941,0.06912,0.26157,0.09167,0.25848,0.10809,0.23483,0.10809,0.20809,0.10062,0.18767,0.10356,0.16736,0.11544,0.15154,0.13358,0.15784,0.1364,0.17519,0.15147,0.17056,0.14547,0.13586,0.15147,0.1045,0.16948,0.07931,0.19338,0.04164,0.22487,0.03226,0.25331,0.04164,0.28774,0.0464,0.31924,0.04627,0.34473,0.03046,0.37464,0.018,0.40601,0.00527,0.42856,0.00501,0.46446,0.00501,0.47341,0.018,0.46458,0.03162,0.44681,0.04319,0.44386,0.05501,0.45196,0.06491,0.46446,0.06465,0.48688,0.06362,0.51532,0.04949,0.53934,0.04151,0.56324,0.03997,0.5842,0.05102,0.60367,0.06979,0.62611,0.08869,0.64853,0.10759,0.66949,0.12172,0.70098,0.12172,0.73236,0.11388,0.75784,0.11067,0.78186,0.11543,0.80723,0.13278,0.81924,0.15476,0.82819,0.18767,0.80576,0.17828,0.79497,0.18933,0.7875,0.20193,0.78468,0.2221,0.77892,0.24305,0.7843,0.24938,0.79816,0.25578,0.81531,0.25604,0.83945,0.27327,0.86103,0.30114,0.87463,0.33997,0.89154,0.35629,0.90405,0.37009,0.92364,0.3748,0.94583,0.37737,0.95992,0.37647,0.99915,0.38714,0.99404,0.41199,0.97558,0.42888,0.95405,0.45399,0.93489,0.47312,0.90737,0.489,0.88358,0.5035,0.85822,0.5126,0.82524,0.52044,0.8054,0.51928,0.79198,0.52339,0.77679,0.52866,0.77393,0.54512,0.76603,0.56659,0.7488,0.58446,0.73324,0.59427,0.71748,0.5945,0.73566,0.59717,0.76936,0.5955,0.79093,0.60976,0.79975,0.63201,0.78113,0.64319,0.75808,0.65103,0.74436,0.66658,0.73542,0.69331,0.71556,0.71182,0.69727,0.72832,0.68325,0.74803,0.66754,0.77401,0.64252,0.78882,0.61616,0.80397,0.57315,0.81196,0.54693,0.81979,0.53271,0.83715,0.5408,0.85963,0.54498,0.8865,0.53787,0.90849,0.5114,0.90303,0.48995,0.89671,0.47466,0.88903,0.47519,0.91261,0.46764,0.92699,0.43687,0.93469,0.40011,0.92917,0.37438,0.92184,0.33419,0.91337,0.30821,0.9081,0.28527,0.93008,0.27401,0.94691,0.2598,0.96041,0.23395,0.94331,0.23541,0.91632,0.23161,0.95899,0.22414,0.98034,0.20527,0.99755,0.18002,0.9712,0.15234,0.95453,0.14105,0.92879,0.12904,0.89743,0.13505,0.88021,0.15907,0.87236,0.18296,0.86452,0.19951,0.85192,0.2054,0.83457,0.18897,0.80797,0.19792,0.79062,0.19497,0.76246,0.2054,0.74666,0.22941,0.73252,0.2549,0.71838,0.27879,0.709,0.28334,0.68227,0.29522,0.66504,0.31029,0.64614,0.30282,0.62108,0.28027,0.59601,0.26385,0.5865,0.2549,0.56928,0.25784,0.5536,0.23983,0.5347,0.22341,0.51118,0.21593,0.48599,0.2114,0.45771,0.21887,0.43573,0.22341,0.40437,0.23088,0.38394,0.24289,0.36825,0.25637,0.35566,0.26679,0.33688,0.25331,0.32584,0.22941,0.3243,0.19338,0.3243,0.15894,0.32584,0.12292,0.33368,0.09461,0.34473,0.06164,0.35887,0.03922,0.37763,0.01826,0.39653,0.02565,0.36105,0.03018,0.33522,0.04133,0.31183,0.05469,0.29538,0.07822,0.2919,0.10163,0.28844,0.12405,0.25797,0.12736,0.22159,0.12172,0.18651,0.13742,0.20167,0.16315,0.19821,0.17087,0.15244,0.1721,0.12558,0.18435,0.10566,0.20555,0.07275,0.22565,0.06222,0.25359,0.06928,0.28153,0.07044,0.32063,0.07519,0.35188,0.05874,0.37981,0.04473,0.40322,0.03535,0.43006,0.02365,0.41695,0.03946,0.4129,0.059,0.4243,0.07777,0.44452,0.09396,0.46413,0.09743,0.48766,0.08895,0.51768,0.07442,0.54293,0.06671,0.56156,0.06594,0.57944,0.07609,0.59979,0.09229,0.62013,0.11016,0.64207,0.13239,0.6689,0.14692,0.70383,0.14512,0.73631,0.13998,0.75261,0.13573,0.77368,0.13754,0.79403,0.15283,0.77859,0.16555,0.75176,0.18779,0.7493,0.21594,0.74698,0.23895,0.74698,0.2653,0.7656,0.28239,0.7868,0.28496,0.80298,0.28072,0.81928,0.30116,0.84023,0.33857,0.85984,0.37095,0.88177,0.39653,0.91094,0.40759,0.93864,0.40849,0.96131,0.40759,0.94183,0.42301,0.92393,0.44087,0.89954,0.45618,0.88177,0.46556,0.86058,0.47584,0.83374,0.47751,0.80702,0.47918,0.78337,0.4784,0.75984,0.49023,0.74685,0.50476,0.74514,0.52866,0.74036,0.54564,0.7216,0.56363,0.69967,0.58149,0.68116,0.59602,0.68435,0.6216,0.71119,0.6225,0.73227,0.6216,0.75016,0.62494,0.73313,0.63869,0.72259,0.65823,0.71768,0.67443,0.7031,0.68124,0.68435,0.69577,0.66572,0.71954,0.65433,0.74345,0.63558,0.7563,0.60788,0.76222,0.56242,0.76993,0.52173,0.78959,0.49979,0.81093,0.4966,0.84332,0.50788,0.868,0.4917,0.86452,0.46891,0.85348,0.44857,0.86877,0.43803,0.89011,0.40959,0.89011,0.37467,0.8824,0.33974,0.87815,0.29918,0.88573,0.27479,0.89859,0.25359,0.91132,0.2406,0.90026,0.22197,0.90797,0.20653,0.92841,0.19758,0.95656,0.18373,0.94537,0.17235,0.93098,0.15445,0.92237,0.14881,0.9045,0.16266,0.89434,0.19109,0.88663,0.21388,0.86954,0.22761,0.84486,0.20898,0.81504,0.22038,0.80565,0.22197,0.77583,0.23092,0.75964,0.24955,0.74936,0.2667,0.74178,0.28778,0.72982,0.30077,0.7018,0.30567,0.68304,0.32271,0.67533,0.33325,0.65232,0.32602,0.61735,0.29673,0.58587,0.28361,0.57391,0.28361,0.55605,0.27308,0.53728,0.25114,0.5108,0.24379,0.48702,0.24134,0.45887,0.24465,0.43419,0.24624,0.4171,0.252,0.4009,0.26168,0.38895,0.27149,0.37623,0.29011,0.34203,0.27712,0.31131,0.23729,0.3045,0.18851,0.30283,0.15286,0.30798,0.11707,0.31556,0.08778,0.32584,0.05372,0.34293,0.38484,0.0779,0.36009,0.10155,0.33423,0.11452,0.29599,0.11568,0.25322,0.1216,0.22173,0.15104,0.20935,0.17584,0.19819,0.23239,0.18128,0.2572,0.15089,0.28316,0.25665,0.27481,0.27234,0.22417,0.29256,0.18638,0.33987,0.1806,0.36793,0.1806,0.43423,0.16993,0.47479,0.16877,0.51634,0.13689,0.55004,0.12391,0.60175,0.16877,0.58386,0.14628,0.63558,0.19344,0.6873,0.19821,0.71536,0.17931,0.74685,0.15926,0.31168,0.30669,0.33876,0.26774,0.3466,0.2419,0.38251,0.23355,0.43656,0.23831,0.48594,0.24061,0.53766,0.23599,0.53214,0.17584,0.5759,0.24898,0.62883,0.26774,0.67491,0.26774,0.70861,0.29962,0.74231,0.34679,0.78619,0.35862,0.81645,0.38329,0.84122,0.41749,0.88508,0.43291,0.29146,0.39987,0.33754,0.39165,0.36229,0.3527,0.38031,0.32558,0.41168,0.29255,0.45666,0.29486,0.49048,0.3126,0.53656,0.309,0.5759,0.31607,0.6107,0.33496,0.66021,0.35038,0.6895,0.37507,0.71645,0.4081,0.76364,0.41876,0.80408,0.42224,0.27908,0.45051,0.30825,0.46594,0.37467,0.45051,0.39146,0.4117,0.44551,0.36684,0.49379,0.38574,0.53876,0.4081,0.5759,0.40695,0.62087,0.41992,0.65568,0.45296,0.69954,0.50835,0.68497,0.47417,0.29599,0.51183,0.34318,0.53664,0.39489,0.53072,0.44771,0.51183,0.5118,0.49654,0.5602,0.50129,0.58937,0.51774,0.64342,0.53548,0.45114,0.44229,0.44771,0.40695,0.34882,0.60861,0.41511,0.60502,0.45788,0.57789,0.52198,0.59448,0.57699,0.60386,0.62982,0.61684,0.68717,0.65103,0.63435,0.67108,0.57699,0.66517,0.53435,0.66517,0.47921,0.67456,0.42074,0.70052,0.38031,0.72648,0.34538,0.74769,0.2645,0.79486,0.30494,0.81735,0.35886,0.81376,0.43643,0.79601,0.47026,0.82558],"triangles":[219,66,65,64,219,65,219,67,66,219,220,67,220,68,67,64,63,219,63,218,219,218,220,219,220,221,68,221,69,68,62,218,63,62,217,218,218,217,220,217,221,220,221,222,69,222,70,69,61,217,62,217,348,221,348,222,221,222,223,70,61,216,217,216,348,217,223,71,70,60,216,61,215,216,60,348,223,222,224,71,223,59,215,60,224,72,71,224,223,348,347,224,348,216,347,348,215,347,216,347,225,224,214,215,59,58,214,59,225,73,72,213,214,58,57,213,58,346,347,215,225,72,224,214,346,215,363,226,225,226,73,225,363,225,347,346,363,347,213,345,214,345,346,214,212,213,57,56,212,57,226,74,73,47,49,48,211,345,213,363,227,226,55,212,56,212,211,213,204,49,47,46,204,47,227,74,226,362,363,346,345,362,346,211,210,345,210,344,345,362,227,363,203,204,46,45,203,46,227,75,74,205,50,49,204,205,49,55,211,212,227,228,75,228,76,75,84,86,85,54,211,55,54,210,211,205,51,50,238,86,84,203,205,204,362,228,227,344,362,345,205,206,51,83,238,84,209,210,54,207,52,51,206,207,51,53,209,54,228,229,76,207,53,52,44,203,45,238,87,86,208,209,53,207,208,53,344,361,362,203,331,205,202,331,203,44,202,203,229,230,76,331,206,205,361,228,362,343,344,210,230,77,76,361,375,228,231,78,77,230,231,77,82,238,83,231,79,78,209,343,210,231,232,79,375,229,228,238,239,87,239,88,87,43,202,44,360,361,344,375,374,229,331,330,206,330,207,206,82,237,238,201,331,202,43,201,202,237,239,238,239,240,88,330,329,207,374,230,229,232,80,79,207,329,208,342,209,208,329,342,208,201,330,331,342,343,209,374,231,230,241,89,88,240,241,88,200,330,201,343,360,344,374,232,231,81,236,237,43,42,201,42,200,201,232,81,80,81,237,82,236,239,237,241,90,89,241,242,90,236,240,239,359,360,343,373,375,361,233,81,232,374,233,232,392,241,240,236,392,240,392,242,241,374,383,233,234,235,236,234,236,81,233,234,81,360,373,361,200,329,330,242,243,90,243,91,90,199,329,200,235,392,236,342,359,343,372,373,360,41,199,42,383,234,233,392,243,242,42,199,200,244,92,91,243,244,91,375,383,374,341,359,342,328,341,342,373,383,375,393,243,392,359,372,360,328,342,329,199,328,329,341,358,359,235,391,392,391,393,392,383,391,234,234,391,235,393,244,243,244,245,92,245,93,92,382,383,373,245,246,93,40,198,41,41,198,199,198,328,199,358,372,359,246,94,93,393,245,244,326,328,198,393,246,245,393,247,246,390,391,383,372,382,373,358,371,372,340,341,328,394,247,393,382,390,383,197,198,40,39,197,40,381,382,372,246,247,94,247,95,94,327,326,197,357,358,341,391,394,393,197,326,198,371,381,372,326,340,328,390,394,391,340,357,341,394,248,247,196,197,39,38,196,39,196,327,197,247,96,95,248,96,247,357,371,358,339,338,340,339,340,326,395,248,394,325,327,196,370,381,371,370,371,357,389,390,382,195,196,38,37,195,38,381,389,382,327,339,326,195,325,196,356,370,357,356,357,340,395,394,390,370,380,381,194,325,195,325,339,327,194,195,37,36,194,37,356,369,370,193,325,194,380,389,381,338,356,340,389,395,390,395,249,248,248,97,96,396,249,395,249,97,248,324,339,325,193,192,325,35,193,194,35,194,36,355,369,356,337,355,356,384,380,370,337,356,338,192,324,325,380,388,389,339,337,338,99,252,100,249,98,97,249,250,98,389,396,395,369,384,370,35,34,193,102,101,100,252,102,100,192,191,324,34,192,193,98,252,99,396,403,249,323,337,339,397,403,396,379,388,380,324,323,339,251,252,98,250,251,98,388,396,389,403,250,249,337,354,355,252,103,102,33,191,192,191,190,324,190,323,324,33,192,34,385,384,369,355,368,369,251,253,252,253,103,252,384,379,380,388,387,396,323,336,337,253,104,103,403,404,250,404,251,250,254,253,251,404,254,251,354,368,355,368,385,369,322,336,323,33,32,191,336,354,337,254,104,253,190,322,323,32,190,191,189,322,190,254,255,104,387,397,396,256,106,105,256,105,104,255,256,104,26,28,27,353,368,354,32,31,190,31,189,190,256,107,106,255,254,404,403,255,404,379,378,388,185,28,26,397,398,403,336,353,354,185,29,28,25,185,26,353,352,368,403,257,255,366,379,384,378,387,388,188,189,31,307,308,322,402,257,403,322,335,336,307,322,189,188,307,189,368,367,385,366,378,379,385,367,384,30,188,31,367,366,384,402,258,257,256,257,107,257,256,255,186,30,29,185,186,29,351,367,368,352,351,368,308,321,322,321,335,322,257,108,107,187,188,30,186,187,30,387,285,397,398,402,403,335,353,336,386,285,387,184,186,185,24,184,185,25,24,185,399,402,398,378,386,387,285,398,397,187,307,188,184,187,186,377,386,378,335,333,353,109,108,257,184,183,187,183,307,187,333,352,353,258,109,257,285,284,398,366,377,378,23,184,24,23,183,184,308,309,321,334,333,335,351,350,367,402,259,258,365,377,366,350,366,367,309,320,321,320,334,321,284,399,398,333,332,352,321,334,335,183,182,307,182,308,307,258,110,109,23,22,183,332,351,352,22,182,183,259,110,258,350,365,366,365,376,377,284,282,399,377,287,386,399,401,402,401,259,402,182,181,308,286,285,386,181,309,308,299,350,351,332,299,351,309,310,320,349,365,350,320,319,334,287,286,386,22,21,182,21,181,182,310,319,320,401,260,259,289,287,377,319,318,334,281,401,399,282,281,399,318,333,334,111,110,259,281,400,401,283,282,284,299,349,350,376,289,377,349,364,365,286,138,285,260,111,259,181,310,309,317,332,333,318,317,333,138,284,285,280,400,281,299,298,349,138,137,284,139,138,286,287,139,286,289,288,287,317,300,332,180,310,181,20,180,181,20,181,21,137,283,284,311,319,310,290,289,376,274,260,401,287,140,139,364,376,365,300,299,332,274,261,260,364,292,376,400,274,401,260,261,111,261,112,111,135,281,282,136,282,283,137,136,283,295,364,349,180,311,310,292,291,376,136,135,282,311,312,319,300,153,299,296,295,349,288,140,287,291,290,376,280,279,400,179,311,180,152,298,299,153,152,299,297,296,349,298,297,349,313,318,319,312,313,319,274,263,261,295,294,364,135,280,281,19,180,20,293,292,364,134,280,135,262,113,112,261,262,112,19,179,180,142,141,288,141,140,288,142,288,289,143,142,289,290,143,289,317,301,300,154,153,300,294,293,364,276,274,400,301,154,300,263,262,261,115,114,113,262,115,113,279,278,400,314,317,318,313,314,318,144,143,290,291,144,290,151,297,298,152,151,298,274,273,263,116,115,262,134,279,280,278,277,400,277,276,400,178,311,179,151,296,297,178,177,311,133,279,134,151,150,296,19,178,179,315,301,317,314,315,317,177,176,311,301,155,154,292,145,291,145,144,291,149,295,296,150,149,296,263,116,262,18,178,19,176,312,311,315,302,301,133,278,279,149,148,295,146,145,292,146,292,293,148,293,294,295,148,294,148,147,293,147,146,293,276,275,274,264,116,263,273,264,263,275,128,274,264,265,116,302,155,301,133,132,278,302,156,155,266,118,117,132,277,278,273,272,264,18,17,178,130,276,277,127,273,274,128,127,274,17,177,178,132,131,277,266,119,118,176,175,312,174,313,312,175,174,312,272,265,264,173,314,313,131,130,277,130,275,276,266,120,119,127,126,273,126,272,273,272,268,265,267,266,265,130,129,275,129,128,275,174,173,313,16,176,177,17,16,177,268,267,265,271,268,272,315,316,302,173,315,314,267,120,266,13,173,174,302,157,156,126,271,272,125,271,126,173,170,315,303,157,302,316,303,302,271,269,268,121,120,267,170,169,315,15,175,176,16,15,176,268,121,267,169,316,315,270,269,271,172,170,173,15,14,175,269,121,268,175,14,174,14,13,174,12,172,13,122,121,269,125,124,271,124,270,271,13,172,173,303,158,157,124,123,270,316,304,303,304,158,303,270,122,269,168,304,316,123,122,270,169,168,316,171,172,12,6,169,170,7,170,172,171,7,172,11,171,12,9,171,11,10,9,11,7,6,170,6,5,169,5,168,169,8,7,171,9,8,171,304,159,158,168,305,304,305,159,304,167,305,168,5,167,168,306,160,305,4,167,5,305,160,159,165,306,305,166,165,305,167,166,305,4,166,167,3,166,4,306,163,160,163,161,160,2,165,166,3,2,166,165,164,306,164,163,306,2,164,165,163,0,161,0,162,161,2,1,164,1,163,164,1,0,163,265,117,116,265,266,117],"weights":[2,10,0.43,12,0.57,3,10,0.47,12,0.48,4,0.05,3,10,0.62,12,0.33,4,0.05,3,10,0.6,12,0.35,4,0.05,3,10,0.7,12,0.25,4,0.05,3,10,0.7,12,0.25,4,0.05,3,10,0.71,12,0.19,4,0.1,3,10,0.8,4,0.1,12,0.1,3,10,0.8,4,0.1,12,0.1,3,10,0.8,4,0.1,12,0.1,3,10,0.8,4,0.1,12,0.1,3,10,0.8,4,0.1,12,0.1,3,10,0.8,4,0.1,12,0.1,3,10,0.83,4,0.07,12,0.1,3,10,0.83,4,0.07,12,0.1,2,10,0.81,4,0.19,2,10,0.81,4,0.19,2,10,0.81,4,0.19,2,10,0.81,4,0.19,2,10,0.81,4,0.19,2,10,0.81,4,0.19,2,10,0.81,4,0.19,2,10,0.81,4,0.19,2,10,0.81,4,0.19,2,10,0.81,4,0.19,2,10,0.81,4,0.19,2,10,0.81,4,0.19,2,10,0.81,4,0.19,2,10,0.81,4,0.19,2,10,0.81,4,0.19,2,10,0.81,4,0.19,2,10,0.81,4,0.19,2,10,0.81,4,0.19,2,10,0.81,4,0.19,2,10,0.81,4,0.19,2,10,0.81,4,0.19,2,10,0.81,4,0.19,2,10,0.81,4,0.19,2,10,0.81,4,0.19,2,10,0.81,4,0.19,2,10,0.81,4,0.19,2,10,0.81,4,0.19,2,10,0.81,4,0.19,2,10,0.81,4,0.19,2,10,0.81,4,0.19,2,10,0.81,4,0.19,2,10,0.81,4,0.19,2,10,0.81,4,0.19,2,10,0.81,4,0.19,2,10,0.81,4,0.19,2,10,0.81,4,0.19,2,10,0.81,4,0.19,2,10,0.81,4,0.19,2,10,0.81,4,0.19,2,10,0.81,4,0.19,2,10,0.71,4,0.29,2,10,0.71,4,0.29,2,10,0.71,4,0.29,2,10,0.71,4,0.29,2,10,0.71,4,0.29,2,10,0.71,4,0.29,2,10,0.71,4,0.29,2,10,0.71,4,0.29,2,10,0.71,4,0.29,2,10,0.71,4,0.29,2,10,0.71,4,0.29,2,10,0.71,4,0.29,2,10,0.71,4,0.29,2,10,0.75,4,0.25,2,10,0.77,4,0.23,2,10,0.79,4,0.21,2,10,0.87,4,0.13,2,10,0.87,4,0.13,2,10,0.87,4,0.13,2,10,0.87,4,0.13,2,10,0.87,4,0.13,2,10,0.87,4,0.13,2,10,0.87,4,0.13,2,10,0.87,4,0.13,2,10,0.9,4,0.1,2,10,0.9,4,0.1,2,10,0.9,4,0.1,2,10,0.87,4,0.13,2,10,0.87,4,0.13,2,10,0.87,4,0.13,2,10,0.87,4,0.13,2,10,0.87,4,0.13,2,10,0.87,4,0.13,2,10,0.87,4,0.13,2,10,0.87,4,0.13,2,10,0.87,4,0.13,1,10,1,2,10,0.92,4,0.08,2,10,0.92,4,0.08,2,10,0.92,4,0.08,2,10,0.92,4,0.08,2,10,0.92,4,0.08,2,10,0.92,4,0.08,2,10,0.92,4,0.08,2,10,0.9,4,0.1,2,10,0.9,4,0.1,2,10,0.9,4,0.1,2,10,0.9,4,0.1,2,10,0.9,4,0.1,2,10,0.9,4,0.1,2,10,0.9,4,0.1,2,10,0.9,4,0.1,2,10,0.9,4,0.1,2,10,0.9,4,0.1,2,10,0.9,4,0.1,2,10,0.9,4,0.1,2,10,0.9,4,0.1,2,10,0.9,4,0.1,2,10,0.9,4,0.1,2,10,0.9,4,0.1,2,10,0.9,4,0.1,2,10,0.9,4,0.1,2,10,0.9,4,0.1,2,10,0.9,4,0.1,2,10,0.9,4,0.1,2,10,0.9,4,0.1,3,10,0.72,4,0.07,8,0.21,2,17,0.35,10,0.65,2,17,0.47,10,0.53,3,17,0.34,10,0.49,8,0.17,3,17,0.48,10,0.4,8,0.12,3,17,0.52,10,0.44,8,0.04,2,17,0.54,10,0.46,2,17,0.54,10,0.46,2,17,0.89,10,0.11,1,17,1,1,17,1,1,17,1,1,17,1,1,17,1,1,17,1,1,17,1,1,17,1,1,17,1,1,17,1,2,1,0.23,12,0.77,2,1,0.23,12,0.77,2,1,0.23,12,0.77,2,1,0.23,12,0.77,2,1,0.23,12,0.77,2,1,0.92,12,0.08,2,1,0.7,12,0.3,2,1,0.53,12,0.47,2,1,0.51,12,0.49,2,1,0.5,12,0.5,2,1,0.49,12,0.51,2,1,0.52,12,0.48,2,1,0.53,12,0.47,2,12,0.52,1,0.48,3,12,0.58,10,0.04,1,0.38,3,10,0.08,12,0.72,1,0.2,2,10,0.04,12,0.96,2,12,0.98,10,0.02,2,10,0.05,12,0.95,2,10,0.17,12,0.83,2,10,0.18,12,0.82,2,10,0.33,12,0.67,2,10,0.3,12,0.7,2,10,0.32,12,0.68,3,10,0.47,12,0.48,4,0.05,3,10,0.6,12,0.35,4,0.05,3,10,0.7,12,0.25,4,0.05,3,10,0.7,12,0.25,4,0.05,3,10,0.62,12,0.33,4,0.05,3,10,0.71,12,0.24,4,0.05,3,10,0.73,12,0.17,4,0.1,3,10,0.8,4,0.1,12,0.1,3,10,0.8,4,0.1,12,0.1,1,10,1,3,10,0.83,4,0.07,12,0.1,2,10,0.81,4,0.19,2,10,0.81,4,0.19,2,10,0.81,4,0.19,2,10,0.81,4,0.19,2,10,0.81,4,0.19,2,10,0.81,4,0.19,2,10,0.81,4,0.19,2,10,0.81,4,0.19,2,10,0.81,4,0.19,2,10,0.81,4,0.19,2,10,0.81,4,0.19,2,10,0.81,4,0.19,2,10,0.81,4,0.19,2,10,0.81,4,0.19,2,10,0.81,4,0.19,2,10,0.81,4,0.19,2,10,0.81,4,0.19,2,10,0.81,4,0.19,2,10,0.81,4,0.19,2,10,0.81,4,0.19,2,10,0.81,4,0.19,2,10,0.81,4,0.19,2,10,0.81,4,0.19,2,10,0.81,4,0.19,2,10,0.81,4,0.19,2,10,0.81,4,0.19,2,10,0.81,4,0.19,2,10,0.81,4,0.19,2,10,0.81,4,0.19,2,10,0.81,4,0.19,2,10,0.81,4,0.19,2,10,0.81,4,0.19,2,10,0.81,4,0.19,2,10,0.81,4,0.19,2,10,0.85,4,0.15,2,10,0.71,4,0.29,2,10,0.71,4,0.29,2,10,0.71,4,0.29,2,10,0.71,4,0.29,2,10,0.71,4,0.29,2,10,0.71,4,0.29,2,10,0.71,4,0.29,2,10,0.72,4,0.28,2,10,0.71,4,0.29,2,10,0.71,4,0.29,2,10,0.71,4,0.29,2,10,0.75,4,0.25,2,10,0.78,4,0.22,2,10,0.87,4,0.13,2,10,0.87,4,0.13,2,10,0.87,4,0.13,2,10,0.87,4,0.13,2,10,0.87,4,0.13,2,10,0.87,4,0.13,2,10,0.87,4,0.13,2,10,0.87,4,0.13,2,10,0.87,4,0.13,2,10,0.9,4,0.1,2,10,0.9,4,0.1,2,10,0.9,4,0.1,2,10,0.87,4,0.13,2,10,0.87,4,0.13,2,10,0.87,4,0.13,2,10,0.87,4,0.13,2,10,0.87,4,0.13,2,10,0.87,4,0.13,2,10,0.87,4,0.13,2,10,0.87,4,0.13,2,10,0.87,4,0.13,2,10,0.92,4,0.08,2,10,0.92,4,0.08,2,10,0.92,4,0.08,2,10,0.92,4,0.08,2,10,0.92,4,0.08,2,10,0.92,4,0.08,2,10,0.9,4,0.1,2,10,0.9,4,0.1,2,10,0.9,4,0.1,2,10,0.9,4,0.1,2,10,0.9,4,0.1,2,10,0.9,4,0.1,2,10,0.9,4,0.1,2,10,0.9,4,0.1,2,10,0.9,4,0.1,2,10,0.9,4,0.1,2,10,0.9,4,0.1,2,10,0.9,4,0.1,2,10,0.9,4,0.1,2,10,0.9,4,0.1,2,10,0.9,4,0.1,2,10,0.9,4,0.1,2,10,0.9,4,0.1,2,10,0.9,4,0.1,3,10,0.73,4,0.08,8,0.19,3,10,0.6,4,0.04,8,0.36,2,17,0.44,10,0.56,3,17,0.37,10,0.46,8,0.17,2,17,0.54,10,0.46,2,17,0.54,10,0.46,2,17,0.54,10,0.46,2,17,0.65,10,0.35,2,17,0.89,10,0.11,1,17,1,1,17,1,1,17,1,1,17,1,1,17,1,1,17,1,1,17,1,1,17,1,1,17,1,1,17,1,2,1,0.46,12,0.54,2,1,0.12,12,0.88,2,1,0.12,12,0.88,2,1,0.03,12,0.97,2,1,0.1,12,0.9,2,1,0.11,12,0.89,2,1,0.2,12,0.8,2,1,0.35,12,0.65,2,1,0.41,12,0.59,2,1,0.58,12,0.42,2,1,0.57,12,0.43,2,1,0.6,12,0.4,2,1,0.64,12,0.36,3,10,0.14,12,0.51,1,0.35,3,10,0.17,12,0.66,1,0.17,2,10,0.1,12,0.9,2,10,0.07,12,0.93,2,10,0.12,12,0.88,2,10,0.05,12,0.95,2,10,0.28,12,0.72,1,10,1,1,10,1,1,10,1,1,10,1,1,10,1,1,10,1,1,10,1,1,10,1,2,10,0.93,12,0.07,2,10,0.79,12,0.21,2,10,0.75,1,0.25,2,10,0.81,1,0.19,2,10,0.94,12,0.06,1,10,1,1,10,1,1,10,1,1,10,1,1,10,1,1,10,1,1,10,1,1,10,1,1,10,1,1,10,1,1,10,1,2,10,0.92,4,0.08,1,10,1,1,10,1,1,10,1,1,10,1,1,10,1,1,10,1,1,10,1,1,10,1,1,10,1,1,10,1,1,10,1,1,10,1,1,10,1,1,10,1,1,10,1,1,10,1,2,10,0.71,4,0.29,1,10,1,1,10,1,1,10,1,1,10,1,1,10,1,1,10,1,1,10,1,1,10,1,1,10,1,1,10,1,1,10,1,1,10,1,1,10,1,1,10,1,1,10,1,1,10,1,1,10,1,1,10,1,1,10,1,1,10,1,1,10,1,1,10,1,1,10,1,1,10,1,1,10,1,1,10,1,1,10,1,1,10,1,1,10,1,1,10,1,1,10,1,1,10,1,1,10,1,1,10,1,1,10,1,1,10,1,1,10,1,1,10,1,1,10,1,1,10,1,1,10,1,1,10,1,1,10,1,2,10,0.87,4,0.13,1,10,1,1,10,1,1,10,1,1,10,1,1,10,1,1,10,1,1,10,1,1,10,1,1,10,1,1,10,1,1,10,1,2,10,0.9,4,0.1],"slotPose":[1,0,0,1,0,0],"bonePose":[10,0.736469,-0.676471,0.676471,0.736469,-118.75,-256.15,17,-0.319939,0.947438,-0.947438,-0.319939,-149.15,-251.25,8,-0.793575,0.608473,-0.608473,-0.793575,-208.95,-164.55,1,-0.706253,-0.707959,0.707959,-0.706253,-229.6,-256.85,12,-0.799788,-0.600282,0.600282,-0.799788,-268.748335,-289.232021,4,0.863014,-0.505179,0.505179,0.863014,-9,-520],"edges":[0,1,1,2,2,3,3,4,4,5,5,6,6,7,7,8,8,9,9,10,10,11,11,12,12,13,13,14,14,15,15,16,16,17,17,18,18,19,19,20,20,21,21,22,22,23,23,24,24,25,25,26,26,27,27,28,28,29,29,30,30,31,31,32,32,33,33,34,34,35,35,36,36,37,37,38,38,39,39,40,40,41,41,42,42,43,43,44,44,45,45,46,46,47,47,48,48,49,49,50,50,51,51,52,52,53,53,54,54,55,55,56,56,57,57,58,58,59,59,60,60,61,61,62,62,63,63,64,64,65,65,66,66,67,67,68,68,69,69,70,70,71,71,72,72,73,73,74,74,75,75,76,76,77,77,78,78,79,79,80,80,81,81,82,82,83,83,84,84,85,85,86,86,87,87,88,88,89,89,90,90,91,91,92,92,93,93,94,94,95,95,96,96,97,97,98,98,99,99,100,100,101,101,102,102,103,103,104,104,105,105,106,106,107,107,108,108,109,109,110,110,111,111,112,112,113,113,114,114,115,115,116,116,117,117,118,118,119,119,120,120,121,121,122,122,123,123,124,124,125,125,126,126,127,127,128,128,129,129,130,130,131,131,132,132,133,133,134,134,135,135,136,136,137,137,138,138,139,139,140,140,141,141,142,142,143,143,144,144,145,145,146,146,147,147,148,148,149,149,150,150,151,151,152,152,153,153,154,154,155,155,156,156,157,157,158,158,159,159,160,160,161,161,162,162,0],"userEdges":[]}]},{"name":"Layer_6","display":[{"type":"mesh","name":"Layer_6","width":82,"height":87,"vertices":[-223.1,-244.65,-230.2,-241.85,-236.95,-237.25,-243.1,-231.05,-246.8,-222.75,-248.65,-211.65,-249.35,-203,-248.65,-194.7,-246.8,-187.6,-243.75,-181.45,-239.8,-177.1,-233,-173.75,-225.3,-173.45,-218.15,-174.95,-208.05,-179.6,-200.65,-184.5,-192.3,-191.9,-185.8,-199.3,-180.9,-208.85,-178.15,-215.35,-177.45,-224.6,-181.15,-232.3,-186.15,-238.45,-192.3,-243.1,-199.7,-246.8,-207.7,-248.3,-215.7,-246.8,-235.05,-226.25,-237.7,-221.55,-239.4,-213.25,-239.8,-205.1,-239.6,-198.5,-237.9,-193,-236,-187.9,-231.3,-183.55,-226.75,-181.65,-219.95,-183.2,-211.6,-186.4,-204.8,-190.75,-197.85,-196.4,-192.15,-203.2,-188.2,-210.2,-185.95,-215.7,-184.6,-222.3,-186.7,-228.15,-189.7,-232.5,-193.85,-235.7,-200.3,-239.7,-207.1,-241,-214.45,-240.6,-220.5,-238.9,-226.55,-235.7,-231.1,-231.35,-229.2,-188.35,-227.05,-194.95,-223.2,-201.35,-219.4,-207.15,-212.75,-216.3,-206.6,-223.55,-200.4,-228.65,-232.8,-196.45,-231.55,-206.25,-228.95,-214.15,-225.75,-220.35,-221.1,-225.25,-215.1,-229.5,-207.2,-232.7,-201.25,-234.65,-191,-223.55,-193.6,-215.45,-196.55,-209.45,-199.55,-205.2,-204.05,-200.5,-208.95,-196.25,-215.1,-190.3,-222.35,-187.3],"uvs":[0.39634,0.08908,0.30976,0.12126,0.22744,0.17414,0.15244,0.2454,0.10732,0.3408,0.08476,0.46839,0.07622,0.56782,0.08476,0.66322,0.10732,0.74483,0.14451,0.81552,0.19268,0.86552,0.27561,0.90402,0.36951,0.90747,0.45671,0.89023,0.57988,0.83678,0.67012,0.78046,0.77195,0.6954,0.85122,0.61034,0.91098,0.50057,0.94451,0.42586,0.95305,0.31954,0.90793,0.23103,0.84695,0.16034,0.77195,0.1069,0.68171,0.06437,0.58415,0.04713,0.48659,0.06437,0.25064,0.30055,0.21832,0.35458,0.19759,0.44998,0.19271,0.54366,0.19515,0.61952,0.21588,0.68274,0.23905,0.74136,0.29637,0.79136,0.35186,0.8132,0.43478,0.79538,0.53661,0.7586,0.61954,0.7086,0.7043,0.64366,0.77381,0.56549,0.82198,0.48503,0.84942,0.42182,0.86588,0.34595,0.84027,0.27871,0.80369,0.22871,0.75308,0.19193,0.67442,0.14595,0.59149,0.13101,0.50186,0.13561,0.42808,0.15515,0.3543,0.19193,0.29881,0.24193,0.32198,0.73618,0.3482,0.66032,0.39515,0.58676,0.44149,0.52009,0.52259,0.41492,0.59759,0.33159,0.6732,0.27297,0.27808,0.64308,0.29332,0.53044,0.32503,0.43963,0.36405,0.36837,0.42076,0.31205,0.49393,0.2632,0.59027,0.22641,0.66283,0.204,0.78783,0.33159,0.75613,0.42469,0.72015,0.49366,0.68357,0.54251,0.62869,0.59653,0.56893,0.64538,0.49393,0.71377,0.40552,0.74825],"triangles":[43,42,19,21,44,20,44,43,20,43,19,20,42,18,19,42,41,18,41,17,18,22,45,21,45,44,21,41,40,17,68,42,43,44,68,43,46,45,22,40,16,17,69,41,42,68,69,42,23,46,22,39,16,40,45,68,44,70,40,41,69,70,41,59,68,45,46,59,45,59,69,68,59,58,69,47,46,23,39,15,16,70,71,40,71,39,40,24,47,23,38,15,39,58,70,69,67,59,46,47,67,46,71,72,39,57,71,70,58,57,70,72,38,39,72,73,38,25,48,24,24,48,47,67,66,59,57,72,71,47,48,67,66,58,59,48,66,67,38,14,15,56,73,72,57,56,72,37,14,38,73,37,38,74,37,73,26,49,25,66,65,58,65,57,58,25,49,48,49,66,48,49,65,66,37,13,14,65,64,57,36,13,37,55,74,73,56,55,73,50,65,49,74,36,37,63,56,57,64,63,57,63,62,56,55,54,74,54,75,74,75,36,74,0,50,26,50,51,65,26,50,49,51,64,65,36,35,13,35,12,13,51,52,64,61,55,56,62,61,56,75,35,36,0,51,50,54,53,75,1,51,0,52,63,64,53,35,75,61,54,55,61,60,54,52,27,63,53,34,35,35,11,12,28,62,63,27,28,63,1,52,51,34,11,35,1,2,52,60,53,54,32,33,60,29,61,62,28,29,62,33,34,53,60,33,53,10,11,34,31,60,61,30,31,61,2,27,52,33,10,34,29,30,61,2,3,27,9,10,33,31,32,60,3,28,27,32,8,33,8,9,33,4,29,28,3,4,28,31,7,32,7,8,32,4,5,29,6,31,30,29,5,30,5,6,30,6,7,31],"weights":[1,12,1,1,12,1,1,12,1,1,12,1,1,12,1,1,12,1,1,12,1,1,12,1,1,12,1,2,12,0.75,2,0.25,2,12,0.65,2,0.35,2,12,0.58,2,0.42,2,12,0.55,2,0.45,2,12,0.54,2,0.46,2,12,0.56,2,0.44,2,12,0.6,2,0.4,2,12,0.68,2,0.32,2,12,0.77,2,0.23,2,12,0.89,2,0.11,1,12,1,1,12,1,1,12,1,1,12,1,1,12,1,1,12,1,1,12,1,1,12,1,2,12,0.94,2,0.06,2,12,0.92,2,0.08,2,12,0.88,2,0.12,2,12,0.83,2,0.17,2,12,0.77,2,0.23,2,12,0.73,2,0.27,2,12,0.68,2,0.32,2,12,0.63,2,0.37,2,12,0.61,2,0.39,2,12,0.59,2,0.41,2,12,0.61,2,0.39,2,12,0.64,2,0.36,2,12,0.69,2,0.31,2,12,0.75,2,0.25,2,12,0.83,2,0.17,2,12,0.87,2,0.13,2,12,0.92,2,0.08,2,12,0.95,2,0.05,1,12,1,1,12,1,1,12,1,1,12,1,1,12,1,1,12,1,1,12,1,2,12,0.97,2,0.03,2,12,0.65,2,0.35,2,12,0.69,2,0.31,2,12,0.72,2,0.28,2,12,0.75,2,0.25,2,12,0.8,2,0.2,2,12,0.85,2,0.15,2,12,0.9,2,0.1,2,12,0.73,2,0.27,2,12,0.79,2,0.21,2,12,0.83,2,0.17,2,12,0.85,2,0.15,2,12,0.88,2,0.12,2,12,0.9,2,0.1,2,12,0.9,2,0.1,2,12,0.92,2,0.08,2,12,0.9,2,0.1,2,12,0.83,2,0.17,2,12,0.77,2,0.23,2,12,0.73,2,0.27,2,12,0.69,2,0.31,2,12,0.66,2,0.34,2,12,0.63,2,0.37,2,12,0.63,2,0.37],"slotPose":[1,0,0,1,0,0],"bonePose":[12,-0.661748,-0.749726,0.749726,-0.661748,-260.563191,-293.439485,1,-0.706253,-0.707959,0.707959,-0.706253,-229.6,-256.85,2,0,-1,1,0,-426.5,-188.9],"edges":[0,1,1,2,2,3,3,4,4,5,5,6,6,7,7,8,8,9,9,10,10,11,11,12,12,13,13,14,14,15,15,16,16,17,17,18,18,19,19,20,20,21,21,22,22,23,23,24,24,25,25,26,26,0],"userEdges":[]}]},{"name":"Layer_13","display":[{"type":"mesh","name":"Layer_13","width":22,"height":27,"vertices":[-261.81,-214.64,-263.31,-207.17,-260.68,-203.65,-254.04,-197.66,-248.73,-195.7,-243.04,-195.14,-239.72,-198.82,-239.16,-204.97,-240.35,-210.97,-242.59,-216.76,-249.78,-220.29,-255.88,-220.4,-259.37,-217.35],"uvs":[0.33636,0,0.03864,0.14444,0,0.3037,0,0.63519,0.09545,0.82963,0.25,1,0.475,1,0.7,0.86296,0.86591,0.68148,0.99318,0.47593,0.89318,0.19074,0.71136,0.02037,0.50227,0],"triangles":[10,8,9,2,3,8,11,12,10,2,8,10,12,2,10,3,7,8,0,2,12,4,6,7,3,4,7,1,2,0,4,5,6],"weights":[1,12,1,1,12,1,1,12,1,1,12,1,1,12,1,1,12,1,1,12,1,1,12,1,1,12,1,1,12,1,1,12,1,1,12,1,1,12,1],"slotPose":[1,0,0,1,0,0],"bonePose":[12,-0.337862,-0.941196,0.941196,-0.337862,-260.510888,-345.743274],"edges":[0,1,1,2,2,3,3,4,4,5,5,6,6,7,7,8,8,9,9,10,10,11,11,12,12,0],"userEdges":[]}]},{"name":"Layer_9","display":[{"type":"mesh","name":"Layer_9","width":145,"height":166,"path":"Layer_42","vertices":[63.32,-95.5,67.07,-107.85,72.42,-115.25,76.12,-123.8,76.67,-136.05,74.02,-148.85,70.27,-163.9,69.12,-176.1,71.87,-187.35,76.12,-197.5,75.02,-210.3,76.12,-225.35,78.27,-238.15,83.07,-246.75,90.52,-249.8,102.87,-249.8,108.22,-242.95,114.07,-233.9,119.37,-232.8,126.92,-236,141.87,-238.7,151.47,-236,157.87,-231.7,163.72,-224.75,161.62,-218.4,172.87,-221.05,180.32,-222.65,186.22,-220.45,190.47,-211.9,190.47,-202.9,187.27,-188,180.32,-176.7,172.87,-172.45,170.67,-161.7,166.42,-150.45,162.12,-140.3,155.17,-130.8,148.27,-121.6,139.72,-113.05,131.72,-107.85,118.87,-99.25,104.92,-95,91.62,-90.7,78.27,-86.95,68.67,-88.5,74.95,-100.1,76.5,-106.9,83.7,-111.85,87.85,-123.55,88.6,-136.05,86.7,-147.4,84.05,-160.65,84.45,-172.05,87.45,-181.5,96.55,-167.85,103.75,-156.5,114.7,-160.65,124.2,-168.25,131.75,-173.9,136.7,-161.45,143.5,-155,149.95,-157.25,161.3,-164.85,156.35,-154.25,151.05,-145.15,146.9,-135.7,138.95,-126.2,132.9,-121.7,121.15,-113.35,110.55,-107.7,96.95,-101.6,85.2,-97.45,90.85,-108.45,104.9,-123.55,111.3,-134.55,115.85,-150.85,112.85,-183.4,121.55,-200.8,133.25,-215.2,146.15,-203.45,149.55,-179.2,142.35,-223.15,157.5,-192.45,169.25,-200.4,178.3,-202.3,98.05,-194.35,98.8,-210.65,95.8,-225,94.3,-232.95],"uvs":[0.11966,0.92922,0.14552,0.85482,0.18241,0.81024,0.20793,0.75873,0.21172,0.68494,0.19345,0.60783,0.16759,0.51717,0.15966,0.44367,0.17862,0.3759,0.20793,0.31476,0.20034,0.23765,0.20793,0.14699,0.22276,0.06988,0.25586,0.01807,0.30724,-0.0003,0.39241,-0.0003,0.42931,0.04096,0.46966,0.09548,0.50621,0.10211,0.55828,0.08283,0.66138,0.06657,0.72759,0.08283,0.77172,0.10873,0.81207,0.1506,0.79759,0.18886,0.87517,0.17289,0.92655,0.16325,0.96724,0.17651,0.99655,0.22801,0.99655,0.28223,0.97448,0.37199,0.92655,0.44006,0.87517,0.46566,0.86,0.53042,0.83069,0.59819,0.80103,0.65934,0.7531,0.71657,0.70552,0.77199,0.64655,0.82349,0.59138,0.85482,0.50276,0.90663,0.40655,0.93223,0.31483,0.95813,0.22276,0.98072,0.15655,0.97139,0.19986,0.90149,0.21055,0.86052,0.2602,0.8307,0.28882,0.76022,0.29399,0.68492,0.28089,0.61655,0.26261,0.53673,0.26537,0.46805,0.28606,0.41113,0.34882,0.49336,0.39848,0.56173,0.47399,0.53673,0.53951,0.49095,0.59158,0.45691,0.62572,0.53191,0.67261,0.57076,0.7171,0.55721,0.79537,0.51143,0.76123,0.57528,0.72468,0.6301,0.69606,0.68703,0.64123,0.74426,0.59951,0.77137,0.51848,0.82167,0.44537,0.8557,0.35158,0.89245,0.27055,0.91745,0.30951,0.85119,0.40641,0.76022,0.45055,0.69396,0.48192,0.59576,0.46123,0.39968,0.52123,0.29486,0.60192,0.20811,0.69089,0.2789,0.71434,0.42498,0.66468,0.16022,0.76917,0.34516,0.8502,0.29727,0.91261,0.28582,0.35917,0.33372,0.36434,0.23552,0.34365,0.14908,0.3333,0.10119],"triangles":[84,30,29,84,29,28,27,84,28,25,84,26,26,84,27,83,31,30,84,83,30,25,83,84,82,32,31,83,82,31,24,83,25,80,62,32,82,80,32,62,33,32,62,63,34,24,79,83,62,34,33,79,82,83,63,35,34,63,64,35,22,24,23,64,36,35,22,81,24,81,79,24,61,63,62,80,61,62,64,65,36,21,81,22,79,80,82,59,61,80,61,64,63,65,37,36,77,58,79,81,78,79,65,66,37,59,60,61,58,59,80,79,58,80,20,81,21,61,60,64,60,65,64,60,75,65,66,38,37,75,66,65,78,77,79,75,74,66,66,67,38,19,81,20,59,75,60,74,67,66,19,78,81,77,76,58,67,39,38,56,75,57,19,18,78,58,57,59,57,75,59,18,77,78,68,39,67,74,68,67,18,86,77,68,40,39,76,57,58,17,86,18,74,73,68,69,40,68,76,56,57,87,86,17,73,69,68,85,76,77,86,85,77,76,54,56,69,41,40,54,55,56,56,55,75,55,74,75,55,49,74,16,88,17,88,87,17,50,49,55,85,53,76,53,54,76,73,72,69,70,41,69,49,73,74,72,70,69,15,88,16,14,88,15,48,72,73,49,48,73,70,42,41,54,51,55,51,50,55,14,13,88,53,52,54,87,10,86,10,9,86,86,9,85,9,53,85,48,47,72,11,10,87,71,42,70,72,71,70,52,51,54,13,12,88,88,11,87,12,11,88,47,71,72,71,43,42,9,8,53,4,48,49,47,46,71,51,5,50,3,47,48,4,3,48,50,4,49,7,52,53,8,7,53,5,4,50,3,2,47,45,43,71,46,45,71,7,6,52,52,6,51,6,5,51,2,46,47,45,44,43,0,44,45,1,45,46,2,1,46,1,0,45],"weights":[1,3,1,1,3,1,2,9,0.32,3,0.68,2,9,0.52,3,0.48,2,9,0.85,3,0.15,1,9,1,1,9,1,1,9,1,1,9,1,1,9,1,1,9,1,1,9,1,1,9,1,1,9,1,1,9,1,1,9,1,1,9,1,1,9,1,1,9,1,1,9,1,1,9,1,1,9,1,1,9,1,1,9,1,1,9,1,1,9,1,1,9,1,1,9,1,1,9,1,1,9,1,1,9,1,1,9,1,1,9,1,1,9,1,1,9,1,1,9,1,1,9,1,1,9,1,1,9,1,1,9,1,2,9,0.93,3,0.07,2,9,0.78,3,0.22,2,9,0.52,3,0.48,2,9,0.32,3,0.68,1,3,1,2,9,0.32,3,0.68,2,9,0.32,3,0.68,2,9,0.52,3,0.48,2,9,0.85,3,0.15,1,9,1,1,9,1,1,9,1,1,9,1,1,9,1,1,9,1,1,9,1,1,9,1,1,9,1,1,9,1,1,9,1,1,9,1,1,9,1,1,9,1,1,9,1,1,9,1,1,9,1,1,9,1,1,9,1,1,9,1,2,9,0.89,3,0.11,2,9,0.78,3,0.22,2,9,0.52,3,0.48,2,9,0.78,3,0.22,1,9,1,1,9,1,1,9,1,1,9,1,1,9,1,1,9,1,1,9,1,1,9,1,1,9,1,1,9,1,1,9,1,1,9,1,1,9,1,1,9,1,1,9,1,1,9,1],"slotPose":[1,0,0,1,0,0],"bonePose":[9,0.319083,-0.947727,0.947727,0.319083,282.789958,-166.876683,3,-0.970118,-0.242635,0.242635,-0.970118,1.9,-168.7],"edges":[0,1,1,2,2,3,3,4,4,5,5,6,6,7,7,8,8,9,9,10,10,11,11,12,12,13,13,14,14,15,15,16,16,17,17,18,18,19,19,20,20,21,21,22,22,23,23,24,24,25,25,26,26,27,27,28,28,29,29,30,30,31,31,32,32,33,33,34,34,35,35,36,36,37,37,38,38,39,39,40,40,41,41,42,42,43,43,44,44,0],"userEdges":[]}]},{"name":"Layer_40_copy","display":[{"type":"mesh","name":"Layer_40_copy","width":87,"height":31,"vertices":[-27.02,-252.59,-21.42,-253.29,-16.27,-253.29,-7.82,-251.64,-1.62,-251.84,2.63,-253.49,8.48,-255.34,17.08,-257.89,23.73,-260.09,30.68,-261.29,38.93,-260.99,45.53,-258.24,47.93,-253.84,46.28,-249.64,44.28,-247.09,40.23,-243.04,37.08,-240.29,32.88,-237.19,26.28,-234.24,18.93,-232.59,12.68,-232.79,5.93,-232.59,-2.32,-232.79,-10.57,-232.04,-20.87,-232.04,-29.22,-234.04,-36.47,-236.99,-36.47,-245.59,-31.87,-250.39,-30.05,-242.45,-24,-244.45,-17.75,-244.85,-8.95,-243.9,-1.25,-243,7.15,-245,15.05,-247.6,20.9,-250.5,28.25,-253.45,33.4,-254.35,38.5,-254.75,-26.55,-239.15,-22.15,-238.05,-12.1,-237.3,-4.2,-237.7,1.65,-238.05,8.1,-238.4,17.05,-239.5,23.65,-241.15,30.45,-243.35,34.85,-246.1,38.35,-249.05,42.55,-252.55],"uvs":[0.10862,0.28065,0.17299,0.25806,0.23218,0.25806,0.32931,0.31129,0.40057,0.30484,0.44943,0.25161,0.51667,0.19194,0.61552,0.10968,0.69195,0.03871,0.77184,0,0.86667,0.00968,0.94253,0.09839,0.97011,0.24032,0.95115,0.37581,0.92816,0.45806,0.88161,0.58871,0.8454,0.67742,0.79713,0.77742,0.72126,0.87258,0.63678,0.92581,0.56494,0.91935,0.48736,0.92581,0.39253,0.91935,0.2977,0.94355,0.17931,0.94355,0.08333,0.87903,0,0.78387,0,0.50645,0.05287,0.35161,0.07383,0.60777,0.14337,0.54325,0.21521,0.53035,0.31636,0.56099,0.40486,0.59002,0.50142,0.52551,0.59222,0.44164,0.65946,0.34809,0.74395,0.25293,0.80314,0.2239,0.86176,0.21099,0.11406,0.71422,0.16463,0.7497,0.28015,0.7739,0.37096,0.76099,0.4382,0.7497,0.51234,0.73841,0.61521,0.70293,0.69107,0.6497,0.76923,0.57873,0.81981,0.49002,0.86004,0.39486,0.90831,0.28196],"triangles":[11,51,12,51,13,12,51,14,13,39,51,11,10,39,11,51,50,14,50,15,14,39,50,51,50,49,15,49,16,15,39,38,50,38,39,10,9,38,10,38,49,50,49,48,16,48,17,16,38,37,49,37,48,49,9,37,38,48,18,17,37,36,48,36,47,48,47,18,48,8,37,9,8,36,37,7,36,8,47,19,18,36,35,47,35,46,47,46,19,47,7,35,36,6,35,7,46,20,19,45,20,46,35,34,46,34,45,46,6,34,35,45,21,20,44,21,45,44,45,34,5,34,6,5,4,34,4,33,34,33,44,34,44,22,21,33,43,44,43,22,44,32,43,33,3,32,33,3,33,4,43,23,22,32,42,43,42,23,43,2,31,32,2,32,3,31,42,32,42,24,23,31,41,42,41,24,42,1,30,31,1,31,2,30,41,31,30,40,41,41,25,24,0,30,1,40,25,41,0,28,30,28,29,30,29,40,30,29,25,40,28,27,29,26,25,29,27,26,29],"edges":[0,1,1,2,2,3,3,4,4,5,5,6,6,7,7,8,8,9,9,10,10,11,11,12,12,13,13,14,14,15,15,16,16,17,17,18,18,19,19,20,20,21,21,22,22,23,23,24,24,25,25,26,26,27,27,28,28,0],"userEdges":[]}]},{"name":"Layer_12","display":[{"type":"mesh","name":"Layer_12","width":172,"height":116,"path":"Layer_31","vertices":[-127.98,-254.3,-137.58,-249.54,-153.93,-245.59,-162.48,-241.59,-169.33,-235.79,-177.58,-224.79,-189.33,-213.49,-205.83,-200.99,-218.58,-190.59,-227.48,-182.89,-235.88,-175.69,-244.48,-181.69,-249.23,-181.69,-250.53,-176.94,-250.98,-168.74,-249.68,-161.04,-254.48,-155.94,-257.78,-148.04,-255.48,-138.29,-246.02,-138.29,-235.03,-139.89,-223.23,-141.79,-212.58,-144.69,-203.13,-147.94,-192.98,-152.54,-180.73,-157.44,-170.28,-164.64,-160.83,-171.99,-147.33,-182.79,-134.48,-195.19,-129.13,-198.39,-119.98,-209.49,-110.38,-220.04,-102.48,-231.39,-98.72,-240.73,-109.38,-254.29],"uvs":[0.82697,0,0.77019,0.04109,0.67876,0.07514,0.62901,0.10962,0.58914,0.15961,0.54108,0.25443,0.47267,0.35183,0.37583,0.4595,0.30171,0.54915,0.24997,0.61553,0.20114,0.6776,0.15114,0.62586,0.12352,0.62586,0.11596,0.66682,0.11334,0.73751,0.1209,0.8039,0.09299,0.84786,0.07381,0.91596,0.08719,0.99999,0.14214,0.99999,0.20345,0.99999,0.27469,0.96984,0.33661,0.94483,0.39155,0.91683,0.45056,0.87717,0.52178,0.83493,0.58254,0.77285,0.63748,0.70949,0.71598,0.61639,0.79061,0.50952,0.82177,0.48201,0.87495,0.38631,0.93136,0.29538,0.97779,0.19756,0.99999,0.11698,0.93698,0],"triangles":[35,33,34,35,0,33,0,32,33,1,31,32,0,1,32,2,3,29,2,29,30,2,30,31,1,2,31,4,5,29,3,4,29,5,28,29,6,27,28,5,6,28,6,7,26,6,26,27,7,25,26,7,8,24,7,24,25,8,9,23,8,23,24,9,10,22,9,22,23,10,21,22,10,15,21,15,20,21,15,19,20,15,16,19,14,15,10,11,13,10,13,14,10,16,17,19,17,18,19,12,13,11],"weights":[1,8,1,1,8,1,1,8,1,1,8,1,1,8,1,1,8,1,1,8,1,1,8,1,1,8,1,1,8,1,1,8,1,1,8,1,1,8,1,1,8,1,1,8,1,1,8,1,1,8,1,1,8,1,1,8,1,1,8,1,1,8,1,1,8,1,1,8,1,1,8,1,1,8,1,1,8,1,1,8,1,1,8,1,1,8,1,1,8,1,1,8,1,1,8,1,1,8,1,1,8,1,1,8,1,1,8,1],"slotPose":[1,0,0,1,0,0],"bonePose":[8,-0.793575,0.608473,-0.608473,-0.793575,-208.95,-164.55,17,-0.319939,0.947438,-0.947438,-0.319939,-149.15,-251.25],"edges":[0,1,1,2,2,3,3,4,4,5,5,6,6,7,7,8,8,9,9,10,10,11,11,12,12,13,13,14,14,15,15,16,16,17,17,18,18,19,19,20,20,21,21,22,22,23,23,24,24,25,25,26,26,27,27,28,28,29,29,30,30,31,31,32,32,33,33,34,34,35,35,0],"userEdges":[]}]},{"name":"Layer_38","display":[{"type":"mesh","name":"Layer_38","width":142,"height":48,"vertices":[-60.21,-284.15,-51.55,-281.33,-44.64,-278.61,-39.28,-275.02,-32.07,-273.8,-22.82,-273.83,-12.22,-274.22,-4.63,-275.9,3.61,-278.23,10.3,-282.45,17.88,-286.78,26.66,-291.86,36.56,-294.2,48.16,-294.24,56.13,-288.02,56.46,-278.97,52.9,-267.46,41.77,-261.47,33.42,-262.14,26.77,-262.46,15.58,-258.97,8.94,-258.1,-1.31,-256.06,-13.4,-254.02,-22.04,-252.59,-33.94,-250.54,-45.13,-249.95,-56.09,-251.16,-70.35,-254.71,-79.22,-259.43,-84.05,-268.21,-84.09,-278.86,-80.35,-282.43,-72.81,-285.2,-68.87,-285.92,40.65,-281.45,34.35,-278.45,23.8,-277.5,17.85,-275.15,5.95,-269.2,-7.3,-265.9,-20.5,-263.6,-29.75,-262.95,-38.05,-264.25,-48.95,-266.55,-58.55,-271.85,-69.1,-274.5,-77.35,-271.55],"uvs":[0.16831,0.20208,0.22923,0.26146,0.27782,0.31875,0.31549,0.39375,0.3662,0.41979,0.43134,0.41979,0.50599,0.4125,0.55951,0.37812,0.61761,0.33021,0.66479,0.24271,0.71831,0.15313,0.78028,0.04792,0.85,0,0.93169,0,0.98768,0.13021,0.98979,0.31875,0.96444,0.55833,0.88592,0.68229,0.82711,0.66771,0.78028,0.66042,0.70141,0.73229,0.65458,0.75,0.58239,0.79167,0.49718,0.83333,0.43627,0.8625,0.35246,0.90417,0.27359,0.91563,0.19648,0.88958,0.09613,0.81458,0.0338,0.71563,0,0.53229,0,0.31042,0.02641,0.23646,0.07958,0.17917,0.10739,0.16458,0.87851,0.26594,0.83407,0.32796,0.75975,0.34695,0.71779,0.39546,0.63383,0.51852,0.54044,0.58627,0.44742,0.63319,0.38227,0.64603,0.32385,0.61832,0.24715,0.56958,0.17968,0.45844,0.10545,0.40243,0.04728,0.46327],"triangles":[35,16,15,35,15,14,13,35,14,35,17,16,35,36,17,12,35,13,12,36,35,36,18,17,11,36,12,37,19,36,36,19,18,11,37,36,37,38,19,38,20,19,10,37,11,10,38,37,39,21,20,39,20,38,9,39,38,10,9,38,8,39,9,39,22,21,40,22,39,8,7,39,7,40,39,40,23,22,6,40,7,6,41,40,41,23,40,5,41,6,41,24,23,5,42,41,42,24,41,42,25,24,4,42,5,4,43,42,43,25,42,43,26,25,3,43,4,3,44,43,44,26,43,2,44,3,1,45,44,1,44,2,44,27,26,45,27,44,45,28,27,0,45,1,0,46,45,46,28,45,34,46,0,47,29,28,33,32,46,32,47,46,47,28,46,33,46,34,30,29,47,32,31,47,31,30,47],"weights":[1,15,1,1,15,1,1,15,1,1,15,1,1,15,1,1,15,1,1,15,1,1,15,1,1,15,1,1,15,1,1,15,1,1,15,1,1,15,1,1,15,1,1,15,1,1,15,1,1,15,1,1,15,1,1,15,1,1,15,1,1,15,1,1,15,1,1,15,1,1,15,1,1,15,1,1,15,1,1,15,1,1,15,1,1,15,1,1,15,1,1,15,1,1,15,1,1,15,1,1,15,1,1,15,1,1,15,1,1,15,1,1,15,1,1,15,1,1,15,1,1,15,1,1,15,1,1,15,1,1,15,1,1,15,1,1,15,1,1,15,1,1,15,1],"slotPose":[1,0,0,1,0,0],"bonePose":[15,0.977016,-0.213167,0.213167,0.977016,311.35,-312.65,3,-0.970118,-0.242635,0.242635,-0.970118,1.9,-168.7],"edges":[0,1,1,2,2,3,3,4,4,5,5,6,6,7,7,8,8,9,9,10,10,11,11,12,12,13,13,14,14,15,15,16,16,17,17,18,18,19,19,20,20,21,21,22,22,23,23,24,24,25,25,26,26,27,27,28,28,29,29,30,30,31,31,32,32,33,33,34,34,0],"userEdges":[]}]},{"name":"Layer_45","display":[{"type":"mesh","name":"Layer_45","width":108,"height":134,"vertices":[116.81,-222.28,111.71,-230.58,108.26,-240.18,108.01,-250.63,108.51,-260.53,112.81,-269.58,122.41,-276.53,131.51,-281.63,140.31,-283.48,141.91,-288.03,140.06,-294.98,139.81,-301.93,142.71,-307.83,148.86,-311.58,153.41,-314.78,155.81,-317.43,160.36,-322.23,164.66,-318.53,164.91,-313.98,165.96,-307.03,164.91,-301.13,162.51,-296.58,165.46,-294.98,170.51,-299.28,172.41,-307.28,169.21,-314.23,166.81,-320.63,165.96,-325.73,168.41,-331.83,172.66,-337.18,178.01,-340.38,182.86,-340.38,185.76,-339.88,184.71,-335.33,182.56,-331.58,183.66,-327.83,188.16,-323.83,194.86,-322.78,202.36,-318.48,206.61,-311.28,209.56,-302.98,210.36,-292.83,211.16,-284.03,209.31,-275.18,205.81,-269.58,200.76,-266.08,198.06,-263.98,196.21,-260.18,197.81,-257.48,200.76,-259.13,204.76,-263.43,207.71,-266.08,210.36,-264.98,213.56,-261.83,212.76,-257.83,213.56,-252.18,213.86,-244.43,211.96,-237.73,206.91,-231.08,201.56,-225.73,193.26,-220.33,186.31,-216.88,179.11,-214.53,172.41,-212.93,163.31,-211.03,155.86,-210.78,146.76,-211.58,135.81,-213.18,126.46,-216.08,120.81,-219.33,176.95,-331,174,-324.35,178,-314.45,179.85,-304.05,176.95,-292,170,-287.45,160.1,-286.9,155.3,-294.95,156.1,-301.9,158.75,-310.7,150.45,-305.1,147.25,-300.8,146.75,-292.8,148.6,-282.4,146.2,-276.75,139.5,-275.45,129.9,-271.95,120.55,-265.55,115.45,-257.25,115.45,-244.15,116.5,-234.55,121.85,-226.25,130.95,-220.1,143.5,-217.45,152.35,-216.9,164.35,-217.95,175.05,-220.9,183.35,-224.1,192.7,-229.45,198.85,-234,203.65,-242.3,207.65,-251.1,206.85,-257.8,197.5,-251.9,190.05,-257.25,188.7,-263.4,192.95,-271.15,200.7,-278.65,204.2,-285.3,204.45,-298.4,201,-308.85,196.2,-314.45,182.3,-321.65,135.75,-227.85,132.3,-245.75,139.5,-256.2,150.45,-265.25,163.3,-270.6,179.85,-277.55,186.3,-282.4,194.85,-294.4,196.7,-301.6,190.55,-309.35,186.8,-313.1,168.1,-231.85,159.55,-240.15,159.8,-246.55,167.6,-255.1,172.9,-257.8,178.8,-261,181.2,-239.35,191.65,-241.5],"uvs":[0.08148,0.88172,0.03426,0.81978,0.00231,0.74813,0,0.67015,0.00463,0.59627,0.04444,0.52873,0.13333,0.47687,0.21759,0.43881,0.29907,0.425,0.31389,0.39104,0.29676,0.33918,0.29444,0.28731,0.3213,0.24328,0.37824,0.2153,0.42037,0.19142,0.44259,0.17164,0.48472,0.13582,0.52454,0.16343,0.52685,0.19739,0.53657,0.24925,0.52685,0.29328,0.50463,0.32724,0.53194,0.33918,0.5787,0.30709,0.5963,0.24739,0.56667,0.19552,0.54444,0.14776,0.53657,0.1097,0.55926,0.06418,0.59861,0.02425,0.64815,0.00037,0.69306,0.00037,0.71991,0.0041,0.71019,0.03806,0.69028,0.06604,0.70046,0.09403,0.74213,0.12388,0.80417,0.13172,0.87361,0.16381,0.91296,0.21754,0.94028,0.27948,0.94769,0.35522,0.95509,0.4209,0.93796,0.48694,0.90556,0.52873,0.8588,0.55485,0.8338,0.57052,0.81667,0.59888,0.83148,0.61903,0.8588,0.60672,0.89583,0.57463,0.92315,0.55485,0.94769,0.56306,0.97731,0.58657,0.96991,0.61642,0.97731,0.65858,0.98009,0.71642,0.9625,0.76642,0.91574,0.81604,0.8662,0.85597,0.78935,0.89627,0.725,0.92201,0.65833,0.93955,0.5963,0.95149,0.51204,0.96567,0.44306,0.96754,0.3588,0.96157,0.25741,0.94963,0.17083,0.92799,0.11852,0.90373,0.63829,0.07034,0.61098,0.11996,0.64801,0.19384,0.66514,0.27146,0.63829,0.36138,0.57394,0.39534,0.48227,0.39944,0.43783,0.33937,0.44524,0.2875,0.46977,0.22183,0.39292,0.26362,0.36329,0.29571,0.35866,0.35541,0.37579,0.43302,0.35357,0.47519,0.29153,0.48489,0.20264,0.51101,0.11607,0.55877,0.06885,0.62071,0.06885,0.71847,0.07857,0.79011,0.12811,0.85205,0.21237,0.89795,0.32857,0.91773,0.41051,0.92183,0.52163,0.91399,0.6207,0.89198,0.69755,0.8681,0.78413,0.82817,0.84107,0.79422,0.88551,0.73228,0.92255,0.66661,0.91514,0.61661,0.82857,0.66064,0.75959,0.62071,0.74709,0.57481,0.78644,0.51698,0.8582,0.46101,0.89061,0.41138,0.89292,0.31362,0.86098,0.23564,0.81653,0.19384,0.68783,0.14011,0.25681,0.84011,0.22487,0.70653,0.29153,0.62855,0.39292,0.56101,0.5119,0.52108,0.66514,0.46922,0.72487,0.43302,0.80403,0.34347,0.82116,0.28974,0.76422,0.2319,0.7295,0.20392,0.55635,0.81026,0.47718,0.74832,0.4795,0.70056,0.55172,0.63676,0.60079,0.61661,0.65542,0.59273,0.67764,0.75429,0.7744,0.73825],"triangles":[109,41,40,101,55,54,102,101,54,100,57,56,101,100,56,55,101,56,102,54,53,52,102,53,108,43,42,41,108,42,50,102,52,100,58,57,108,107,43,51,50,52,109,108,41,39,110,40,110,109,40,107,44,43,109,120,108,100,99,58,103,100,101,102,49,101,49,103,101,110,121,109,38,110,39,50,49,102,99,59,58,107,45,44,48,103,49,107,106,45,111,110,38,120,107,108,121,120,109,131,99,100,103,131,100,120,119,107,99,98,59,37,111,38,98,60,59,122,121,110,111,122,110,106,46,45,119,106,107,131,98,99,105,47,46,106,105,46,47,104,48,48,104,103,104,131,103,122,120,121,122,73,120,36,123,37,37,123,111,123,122,111,105,104,47,131,130,98,97,60,98,74,119,120,73,74,120,104,130,131,97,61,60,130,97,98,118,105,106,119,118,106,129,128,130,112,123,36,129,130,104,118,129,105,123,73,122,105,129,104,35,112,36,112,72,123,72,73,123,97,62,61,130,124,97,74,118,119,31,33,32,128,127,130,124,96,97,96,62,97,31,30,33,30,34,33,74,75,118,30,70,34,71,112,35,70,71,35,34,70,35,23,74,73,72,24,73,117,129,118,71,72,112,29,70,30,125,124,130,126,125,130,127,126,130,117,128,129,24,23,73,75,117,118,96,63,62,71,25,72,25,24,72,26,25,71,23,22,74,22,75,74,28,71,70,29,28,70,28,27,71,95,63,96,124,95,96,76,117,75,117,127,128,27,26,71,95,64,63,22,76,75,94,95,124,125,94,124,117,116,127,116,126,127,18,79,19,76,83,117,21,76,22,78,20,19,79,78,19,65,64,95,17,15,18,15,79,18,78,21,20,94,65,95,83,84,117,77,76,21,16,15,17,113,94,125,84,116,117,78,77,21,113,93,94,15,14,79,80,78,79,115,114,126,116,115,126,126,114,125,114,113,125,77,83,76,82,83,77,14,13,79,13,80,79,94,66,65,80,81,78,78,81,77,81,82,77,82,9,83,93,66,94,84,85,116,85,115,116,13,12,80,12,81,80,81,10,82,8,84,83,9,8,83,86,115,85,12,11,81,11,10,81,10,9,82,93,67,66,8,85,84,92,67,93,113,92,93,86,87,115,7,85,8,7,86,85,87,114,115,87,88,114,90,91,114,114,91,113,91,92,113,92,68,67,88,89,114,89,90,114,6,86,7,69,68,92,91,69,92,6,87,86,5,87,6,90,1,91,1,0,91,0,69,91,3,89,88,5,88,87,5,4,88,89,2,90,2,1,90,3,2,89,4,3,88],"weights":[1,18,1,1,18,1,1,18,1,2,18,0.96,4,0.04,2,18,0.96,4,0.04,2,18,0.96,4,0.04,2,18,0.96,4,0.04,2,18,0.96,4,0.04,2,18,0.96,4,0.04,2,18,0.9,4,0.1,2,18,0.9,4,0.1,2,18,0.9,4,0.1,2,18,0.9,4,0.1,2,18,0.9,4,0.1,2,18,0.9,4,0.1,2,18,0.9,4,0.1,2,18,0.9,4,0.1,2,18,0.9,4,0.1,2,18,0.9,4,0.1,2,18,0.9,4,0.1,2,18,0.9,4,0.1,2,18,0.9,4,0.1,2,18,0.9,4,0.1,2,18,0.9,4,0.1,2,18,0.9,4,0.1,2,18,0.9,4,0.1,2,18,0.9,4,0.1,2,18,0.9,4,0.1,2,18,0.9,4,0.1,2,18,0.9,4,0.1,2,18,0.9,4,0.1,2,18,0.9,4,0.1,2,18,0.9,4,0.1,2,18,0.9,4,0.1,2,18,0.9,4,0.1,2,18,0.9,4,0.1,2,18,0.9,4,0.1,2,18,0.9,4,0.1,2,18,0.9,4,0.1,2,18,0.9,4,0.1,2,18,0.9,4,0.1,2,18,0.9,4,0.1,2,18,0.9,4,0.1,2,18,0.94,4,0.06,2,18,0.94,4,0.06,2,18,0.94,4,0.06,2,18,0.94,4,0.06,2,18,0.94,4,0.06,2,18,0.88,4,0.12,2,18,0.88,4,0.12,2,18,0.88,4,0.12,2,18,0.88,4,0.12,2,18,0.88,4,0.12,2,18,0.88,4,0.12,2,18,0.88,4,0.12,2,18,0.88,4,0.12,2,18,0.88,4,0.12,2,18,0.88,4,0.12,2,18,0.88,4,0.12,2,18,0.88,4,0.12,2,18,0.96,4,0.04,2,18,0.96,4,0.04,2,18,0.96,4,0.04,1,18,1,1,18,1,1,18,1,1,18,1,1,18,1,1,18,1,1,18,1,2,18,0.9,4,0.1,2,18,0.9,4,0.1,2,18,0.9,4,0.1,2,18,0.9,4,0.1,2,18,0.9,4,0.1,1,18,1,1,18,1,2,18,0.9,4,0.1,2,18,0.9,4,0.1,2,18,0.9,4,0.1,2,18,0.9,4,0.1,2,18,0.9,4,0.1,2,18,0.9,4,0.1,2,18,0.96,4,0.04,2,18,0.96,4,0.04,2,18,0.96,4,0.04,2,18,0.96,4,0.04,2,18,0.96,4,0.04,2,18,0.96,4,0.04,1,18,1,1,18,1,1,18,1,1,18,1,1,18,1,1,18,1,1,18,1,1,18,1,2,18,0.96,4,0.04,2,18,0.96,4,0.04,2,18,0.88,4,0.12,2,18,0.88,4,0.12,2,18,0.88,4,0.12,2,18,0.88,4,0.12,2,18,0.88,4,0.12,2,18,0.94,4,0.06,2,18,0.94,4,0.06,2,18,0.94,4,0.06,2,18,0.94,4,0.06,2,18,0.9,4,0.1,2,18,0.9,4,0.1,2,18,0.9,4,0.1,2,18,0.9,4,0.1,2,18,0.9,4,0.1,1,18,1,1,18,1,1,18,1,1,18,1,1,18,1,1,18,1,1,18,1,2,18,0.9,4,0.1,2,18,0.9,4,0.1,2,18,0.9,4,0.1,2,18,0.9,4,0.1,1,18,1,1,18,1,1,18,1,1,18,1,1,18,1,1,18,1,1,18,1,1,18,1],"slotPose":[1,0,0,1,0,0],"bonePose":[18,0.268509,-0.963277,0.963277,0.268509,301.15,-229.45,9,0.319083,-0.947727,0.947727,0.319083,282.789958,-166.876683,4,0.863014,-0.505179,0.505179,0.863014,-15.417622,-515.875961],"edges":[0,1,1,2,2,3,3,4,4,5,5,6,6,7,7,8,8,9,9,10,10,11,11,12,12,13,13,14,14,15,15,16,16,17,17,18,18,19,19,20,20,21,21,22,22,23,23,24,24,25,25,26,26,27,27,28,28,29,29,30,30,31,31,32,32,33,33,34,34,35,35,36,36,37,37,38,38,39,39,40,40,41,41,42,42,43,43,44,44,45,45,46,46,47,47,48,48,49,49,50,50,51,51,52,52,53,53,54,54,55,55,56,56,57,57,58,58,59,59,60,60,61,61,62,62,63,63,64,64,65,65,66,66,67,67,68,68,69,69,0],"userEdges":[]}]},{"name":"Layer_10","display":[{"type":"mesh","name":"Layer_10","width":121,"height":138,"vertices":[-45.62,-123.65,-44.42,-115.35,-41.12,-105.85,-36.12,-95.55,-28.27,-86.05,-19.22,-78.55,-10.52,-75.7,-12.17,-69.85,-10.92,-62,-7.22,-54.6,-10.12,-48.4,-15.87,-41.4,-21.67,-32.7,-25.82,-23.65,-24.97,-14.1,-22.07,-9.55,-13.42,-12.45,-1.82,-16.95,8.08,-22.8,20.88,-27.7,29.58,-33.15,39.08,-38.5,49.38,-43.9,59.33,-48,67.98,-52.1,73.78,-59.15,74.78,-68.65,71.33,-78.2,66.78,-90.6,63.48,-97.6,58.08,-105,52.28,-108.35,41.98,-113.3,32.88,-116.2,24.18,-119.9,17.18,-121.55,12.63,-127.75,6.03,-136.8,-3.07,-144.3,-15.87,-147.5,-27.87,-147.5,-36.97,-147.5,-44.82,-145.15,-46.22,-136.45,-46.22,-129.85,-34.85,-132,-29.45,-117.15,-20.35,-104.75,-9.6,-95.25,3.6,-88.2,10.2,-73.35,12.3,-58.05,4.85,-46.45,-3.4,-35.7,-4.25,-27.45,-7.15,-110.95,12.3,-102.25,37.05,-92.75,38.75,-82,36.65,-66.7,34.2,-54.75,23.45,-47.3,19.7,-39.05,-11.9,-122.7,-16.3,-139],"uvs":[0.00496,0.17319,0.01488,0.23333,0.04215,0.30217,0.08347,0.37681,0.14835,0.44565,0.22314,0.5,0.29504,0.52065,0.2814,0.56304,0.29174,0.61993,0.32231,0.67355,0.29835,0.71848,0.25083,0.7692,0.20289,0.83225,0.1686,0.89783,0.17562,0.96703,0.19959,1,0.27107,0.97899,0.36694,0.94638,0.44876,0.90399,0.55455,0.86848,0.62645,0.82899,0.70496,0.79022,0.79008,0.75109,0.87231,0.72138,0.9438,0.69167,0.99174,0.64058,1,0.57174,0.97149,0.50254,0.93388,0.41268,0.90661,0.36196,0.86198,0.30833,0.81405,0.28406,0.72893,0.24819,0.65372,0.22717,0.58182,0.20036,0.52397,0.18841,0.48636,0.14348,0.43182,0.0779,0.35661,0.02355,0.25083,0.00036,0.15165,0.00036,0.07645,0.00036,0.01157,0.01739,0,0.08043,0,0.12826,0.09396,0.11266,0.13859,0.22027,0.21379,0.31012,0.30264,0.37896,0.41173,0.43005,0.46627,0.53766,0.48363,0.64853,0.42206,0.73259,0.35388,0.81048,0.34685,0.87027,0.32288,0.26519,0.48363,0.32824,0.68817,0.39708,0.70222,0.47498,0.68487,0.58585,0.66462,0.67244,0.57578,0.72643,0.54479,0.78621,0.2836,0.18009,0.24724,0.06198],"triangles":[59,23,24,27,59,26,59,24,26,24,25,26,28,58,27,58,59,27,29,58,28,59,22,23,30,57,29,57,58,29,59,60,22,31,57,30,32,57,31,60,21,22,60,61,21,33,57,32,33,56,57,50,59,58,61,20,21,57,50,58,51,60,59,56,49,57,49,50,57,50,51,59,61,62,20,34,56,33,51,61,60,62,19,20,35,56,34,52,62,61,51,52,61,62,18,19,53,18,62,52,53,62,55,56,35,36,55,35,53,54,18,50,8,51,8,9,51,37,63,36,63,55,36,48,49,56,55,48,56,9,52,51,6,7,50,7,8,50,49,6,50,54,17,18,38,63,37,64,63,38,10,53,52,9,10,52,48,6,49,10,11,53,54,16,17,5,6,48,11,12,53,53,12,54,39,64,38,47,48,55,13,16,54,12,13,54,63,47,55,46,47,63,4,5,48,47,4,48,13,14,16,64,45,63,45,46,63,14,15,16,3,4,47,40,64,39,40,45,64,46,2,47,2,3,47,41,45,40,45,0,46,1,2,46,0,1,46,42,43,41,44,0,45,41,43,45,43,44,45],"weights":[2,5,0.34,3,0.66,2,5,0.67,3,0.33,2,5,0.81,3,0.19,2,5,0.85,3,0.15,1,5,1,1,5,1,1,5,1,1,5,1,1,5,1,1,5,1,1,5,1,1,5,1,1,5,1,1,5,1,1,5,1,1,5,1,1,5,1,1,5,1,1,5,1,1,5,1,1,5,1,1,5,1,1,5,1,1,5,1,1,5,1,1,5,1,1,5,1,1,5,1,1,5,1,1,5,1,1,5,1,1,5,1,1,5,1,1,5,1,1,5,1,2,5,0.88,3,0.12,2,5,0.79,3,0.21,2,5,0.68,3,0.32,2,5,0.19,3,0.81,1,3,1,1,3,1,1,3,1,1,3,1,2,5,0.34,3,0.66,2,5,0.34,3,0.66,2,5,0.19,3,0.81,2,5,0.6,3,0.4,2,5,0.7,3,0.3,1,5,1,1,5,1,1,5,1,1,5,1,1,5,1,1,5,1,1,5,1,2,5,0.8,3,0.2,1,5,1,1,5,1,1,5,1,1,5,1,1,5,1,1,5,1,1,5,1,2,5,0.5,3,0.5,2,5,0.19,3,0.81],"slotPose":[1,0,0,1,0,0],"bonePose":[5,0,-1,1,0,231.867228,-64.593532,3,-0.970118,-0.242635,0.242635,-0.970118,1.9,-168.7],"edges":[0,1,1,2,2,3,3,4,4,5,5,6,6,7,7,8,8,9,9,10,10,11,11,12,12,13,13,14,14,15,15,16,16,17,17,18,18,19,19,20,20,21,21,22,22,23,23,24,24,25,25,26,26,27,27,28,28,29,29,30,30,31,31,32,32,33,33,34,34,35,35,36,36,37,37,38,38,39,39,40,40,41,41,42,42,43,43,44,44,0],"userEdges":[]}]},{"name":"Layer_11_copy","display":[{"type":"mesh","name":"Layer_11_copy","width":103,"height":173,"path":"Layer_11_copy_2","vertices":[-183.68,-235.39,-189.83,-228.94,-190.03,-218.49,-190.03,-208.39,-190.03,-193.24,-186.58,-184.94,-181.88,-176.69,-176.48,-172.69,-177.48,-161.54,-178.58,-154.69,-180.08,-144.59,-177.18,-134.89,-174.28,-125.84,-170.33,-118.64,-169.63,-109.29,-171.78,-97.74,-178.58,-90.54,-185.13,-84.39,-188.33,-77.19,-186.13,-69.99,-182.58,-68.19,-171.43,-72.89,-160.23,-80.44,-150.53,-84.39,-136.83,-91.24,-125.63,-98.84,-120.18,-104.24,-110.88,-109.99,-101.48,-115.79,-92.13,-122.24,-88.43,-131.99,-89.98,-144.24,-93.58,-155.39,-98.98,-165.14,-105.78,-177.39,-113.73,-184.94,-122.38,-190.39,-128.53,-200.09,-132.83,-209.09,-137.88,-219.54,-141.88,-226.79,-149.48,-231.79,-157.78,-237.19,-166.78,-238.89,-176.48,-238.89,-179.29,-225.74,-177.84,-207.34,-172.44,-190.04,-162.69,-172.74,-158.74,-153.29,-157.29,-137.79,-150.79,-122.64,-151.14,-112.94,-155.14,-104.64,-159.79,-94.19,-162.34,-226.09,-156.94,-201.24,-145.74,-188.24,-136.74,-172.04,-128.44,-149.34,-124.84,-133.44,-126.64,-119.04,-133.49,-110.39,-138.19,-102.09],"uvs":[0.06165,0.02023,0.00194,0.05751,0,0.11792,0,0.1763,0,0.26387,0.0335,0.31185,0.07913,0.35954,0.13155,0.38266,0.12184,0.44711,0.11117,0.48671,0.0966,0.54509,0.12476,0.60116,0.15291,0.65347,0.19126,0.69509,0.19806,0.74913,0.17718,0.8159,0.11117,0.85751,0.04757,0.89306,0.0165,0.93468,0.03786,0.9763,0.07233,0.98671,0.18058,0.95954,0.28932,0.9159,0.3835,0.89306,0.5165,0.85347,0.62524,0.80954,0.67816,0.77832,0.76845,0.74509,0.85971,0.71156,0.95049,0.67428,0.98641,0.61792,0.97136,0.54711,0.93641,0.48266,0.88398,0.4263,0.81796,0.35549,0.74078,0.31185,0.6568,0.28035,0.59709,0.22428,0.55534,0.17225,0.50631,0.11185,0.46748,0.06994,0.39369,0.04104,0.31311,0.00983,0.22573,0,0.13155,0,0.10423,0.07602,0.1183,0.18237,0.17073,0.28237,0.26539,0.38237,0.30374,0.4948,0.31782,0.5844,0.38092,0.67197,0.37753,0.72804,0.33869,0.77602,0.29355,0.83642,0.26879,0.07399,0.32122,0.21763,0.42995,0.29278,0.51733,0.38642,0.59791,0.51763,0.63287,0.60954,0.61539,0.69278,0.54889,0.74278,0.50325,0.79076],"triangles":[60,28,29,31,60,30,60,29,30,32,60,31,59,60,32,33,59,32,61,27,28,60,61,28,34,59,33,58,59,34,35,58,34,61,26,27,36,58,35,62,25,26,61,62,26,37,57,36,57,58,36,59,50,60,50,51,60,51,61,60,62,63,25,63,24,25,58,49,59,51,62,61,49,50,59,38,57,37,51,52,62,39,56,38,56,57,38,52,63,62,53,23,63,57,48,58,48,49,58,63,23,24,53,54,23,52,53,63,40,55,39,55,56,39,41,55,40,56,47,57,47,48,57,42,55,41,50,13,51,51,13,52,54,22,23,14,53,52,13,14,52,14,15,54,48,8,49,12,13,50,55,46,56,14,54,53,49,10,50,10,11,50,11,12,50,46,47,56,43,55,42,45,46,55,16,22,54,15,16,54,9,10,49,8,9,49,47,7,48,16,21,22,43,45,55,7,8,48,6,7,47,16,17,21,44,45,43,45,2,46,0,45,44,46,4,47,5,6,47,18,20,21,17,18,21,4,5,47,18,19,20,3,4,46,2,3,46,0,1,45,1,2,45],"weights":[2,14,0.15,17,0.85,2,14,0.15,17,0.85,2,14,0.49,17,0.51,2,14,0.41,17,0.59,2,14,0.58,17,0.42,2,14,0.68,17,0.32,2,14,0.75,17,0.25,1,14,1,1,14,1,1,14,1,1,14,1,1,14,1,1,14,1,1,14,1,1,14,1,1,14,1,1,14,1,1,14,1,1,14,1,1,14,1,1,14,1,1,14,1,1,14,1,1,14,1,1,14,1,1,14,1,1,14,1,1,14,1,1,14,1,1,14,1,1,14,1,1,14,1,1,14,1,1,14,1,1,14,1,1,14,1,1,14,1,2,14,0.8,17,0.2,2,14,0.62,17,0.38,2,14,0.44,17,0.56,2,14,0.15,17,0.85,2,14,0.15,17,0.85,2,14,0.15,17,0.85,2,14,0.15,17,0.85,2,14,0.15,17,0.85,2,14,0.49,17,0.51,2,14,0.57,17,0.43,2,14,0.62,17,0.38,1,14,1,1,14,1,1,14,1,1,14,1,1,14,1,1,14,1,1,14,1,2,14,0.45,17,0.55,2,14,0.6,17,0.4,2,14,0.78,17,0.22,1,14,1,1,14,1,1,14,1,1,14,1,1,14,1,1,14,1],"slotPose":[1,0,0,1,0,0],"bonePose":[14,0.038932,-0.999242,0.999242,0.038932,-407.646789,-63.537232,17,-0.319939,0.947438,-0.947438,-0.319939,-149.15,-251.25],"edges":[0,1,1,2,2,3,3,4,4,5,5,6,6,7,7,8,8,9,9,10,10,11,11,12,12,13,13,14,14,15,15,16,16,17,17,18,18,19,19,20,20,21,21,22,22,23,23,24,24,25,25,26,26,27,27,28,28,29,29,30,30,31,31,32,32,33,33,34,34,35,35,36,36,37,37,38,38,39,39,40,40,41,41,42,42,43,43,44,44,0],"userEdges":[]}]},{"name":"Layer_4","display":[{"type":"mesh","name":"Layer_4","width":133,"height":156,"path":"Layer_46","vertices":[-141.18,-327.89,-155.53,-324.54,-178.88,-313.34,-192.68,-298.39,-200.73,-285.09,-207.13,-265.94,-208.03,-247.94,-208.03,-223.89,-201.78,-206.99,-187.43,-192.59,-173.03,-182.99,-154.48,-180.89,-132.13,-180.89,-117.68,-184.09,-100.13,-189.94,-91.68,-196.79,-78.38,-207.99,-75.08,-227.14,-80.98,-243.04,-94.28,-250.54,-98.03,-257.99,-98.03,-265.49,-100.73,-275.04,-95.93,-284.09,-94.83,-298.89,-100.13,-313.34,-110.33,-326.14,-126.28,-327.89],"uvs":[0.50301,0,0.39511,0.02147,0.21955,0.09327,0.11579,0.1891,0.05526,0.27436,0.00714,0.39712,0.00038,0.5125,0.00038,0.66667,0.04737,0.775,0.15526,0.86731,0.26353,0.92885,0.40301,0.94231,0.57105,0.94231,0.6797,0.92179,0.81165,0.88429,0.87519,0.84038,0.97519,0.76859,1,0.64583,0.95564,0.54391,0.85564,0.49583,0.82744,0.44808,0.82744,0.4,0.80714,0.33878,0.84323,0.28077,0.8515,0.1859,0.81165,0.09327,0.73496,0.01122,0.61504,0],"triangles":[18,19,17,15,16,17,19,15,17,11,12,20,20,12,19,12,13,19,13,14,19,19,14,15,22,23,24,25,22,24,25,27,22,6,11,20,6,9,11,27,0,22,22,5,20,5,6,20,22,20,21,26,27,25,4,5,22,0,1,22,3,4,22,1,2,22,2,3,22,6,7,9,7,8,9,9,10,11],"weights":[1,1,1,1,1,1,1,1,1,1,1,1,1,1,1,1,1,1,1,1,1,1,1,1,1,1,1,1,1,1,1,1,1,1,1,1,1,1,1,1,1,1,1,1,1,1,1,1,1,1,1,1,1,1,1,1,1,1,1,1,1,1,1,1,1,1,1,1,1,1,1,1,1,1,1,1,1,1,1,1,1,1,1,1],"slotPose":[1,0,0,1,0,0],"bonePose":[1,-0.706253,-0.707959,0.707959,-0.706253,-229.6,-256.85],"edges":[0,1,1,2,2,3,3,4,4,5,5,6,6,7,7,8,8,9,9,10,10,11,11,12,12,13,13,14,14,15,15,16,16,17,17,18,18,19,19,20,20,21,21,22,22,23,23,24,24,25,25,26,26,27,27,0],"userEdges":[]}]},{"name":"Layer_10_copy","display":[{"type":"mesh","name":"Layer_10_copy","width":121,"height":138,"vertices":[-108.04,-143.67,-105.49,-132.32,-101.14,-122.57,-96.29,-113.92,-89.79,-106.27,-80.54,-101.17,-72.89,-99.02,-73.59,-90.62,-72.14,-82.22,-68.14,-78.22,-72.14,-70.57,-78.69,-63.97,-84.19,-57.42,-88.54,-49.02,-88.54,-42.82,-86.74,-34.77,-82.34,-33.32,-73.94,-35.52,-64.84,-39.52,-58.29,-43.17,-47.34,-48.27,-36.04,-53.02,-31.69,-57.42,-18.89,-63.97,-8.29,-67.97,0.46,-72.72,9.91,-77.82,12.96,-85.87,11.76,-95.72,8.46,-107.37,2.96,-120.87,-2.09,-128.17,-10.49,-134.72,-18.54,-138.72,-29.44,-141.67,-36.74,-142.02,-44.44,-144.92,-49.89,-150.42,-52.44,-156.62,-57.19,-162.47,-64.09,-168.67,-72.49,-171.32,-81.24,-171.32,-93.64,-171.32,-100.94,-171.32,-108.09,-166.82,-108.09,-160.27,-108.09,-152.62,-97.38,-160.19,-93.28,-145.14,-86.88,-129.14,-80.53,-119.14,-68.23,-111.39,-56.38,-104.09,-52.23,-95.44,-49.53,-84.49,-50.88,-76.29,-57.28,-68.54,-62.73,-60.29,-63.63,-52.54,-73.68,-158.34,-67.28,-140.54,-60.93,-132.79,-48.58,-125.49,-31.73,-117.29,-27.63,-104.54,-28.53,-88.59,-32.18,-78.99,-39.48,-68.54,-44.48,-58.49],"uvs":[0,0.20036,0.02107,0.28261,0.05702,0.35326,0.09711,0.41594,0.15083,0.47138,0.22727,0.50833,0.2905,0.52391,0.28471,0.58478,0.29669,0.64565,0.32975,0.67464,0.29669,0.73007,0.24256,0.7779,0.19711,0.82536,0.16116,0.88623,0.16116,0.93116,0.17603,0.98949,0.2124,1,0.28182,0.98406,0.35702,0.95507,0.41116,0.92862,0.50165,0.89167,0.59504,0.85725,0.63099,0.82536,0.73678,0.7779,0.82438,0.74891,0.89669,0.71449,0.97479,0.67754,1,0.6192,0.99008,0.54783,0.96281,0.46341,0.91736,0.36558,0.87562,0.31268,0.8062,0.26522,0.73967,0.23623,0.64959,0.21486,0.58926,0.21232,0.52562,0.1913,0.48058,0.15145,0.4595,0.10652,0.42025,0.06413,0.36322,0.0192,0.2938,0,0.22149,0,0.11901,0,0.05868,0,-0.00041,0.03261,-0.00041,0.08007,-0.00041,0.13551,0.08814,0.08063,0.12202,0.18968,0.17492,0.30563,0.22739,0.37809,0.32905,0.43425,0.42698,0.48715,0.46128,0.54983,0.48359,0.62918,0.47244,0.6886,0.41954,0.74476,0.3745,0.80454,0.36706,0.8607,0.28401,0.09403,0.3369,0.22302,0.38938,0.27918,0.49144,0.33207,0.6307,0.39149,0.66458,0.48389,0.65715,0.59947,0.62698,0.66903,0.56665,0.74476,0.52533,0.81758],"triangles":[28,25,27,25,26,27,66,25,28,29,65,28,65,66,28,30,65,29,64,65,31,66,24,25,31,65,30,32,64,31,33,64,32,67,23,24,66,67,24,34,64,33,67,68,23,68,22,23,35,63,64,35,64,34,64,53,65,53,54,65,54,66,65,55,67,66,54,55,66,69,21,22,68,69,22,63,53,64,56,68,67,55,56,67,69,20,21,36,63,35,57,69,68,56,57,68,58,59,20,58,20,69,57,58,69,62,63,36,37,62,36,61,62,37,52,53,63,59,19,20,62,52,63,9,56,55,54,9,55,38,61,37,9,57,56,7,8,9,7,9,54,53,6,54,6,7,54,39,60,38,60,61,38,52,6,53,10,58,57,9,10,57,51,52,62,40,60,39,59,18,19,61,51,62,50,51,61,17,18,59,11,59,58,10,11,58,12,13,17,12,17,59,11,12,59,41,60,40,13,14,17,5,6,52,60,49,61,49,50,61,51,5,52,14,16,17,42,60,41,51,4,5,42,48,60,48,49,60,14,15,16,43,48,42,50,3,51,3,4,51,2,3,50,49,1,50,1,2,50,0,1,49,48,47,49,47,0,49,44,48,43,46,47,48,44,45,48,45,46,48],"weights":[2,11,0.6,3,0.4,2,11,0.8,3,0.2,2,11,0.87,3,0.13,2,11,0.91,3,0.09,1,11,1,1,11,1,1,11,1,1,11,1,1,11,1,1,11,1,1,11,1,1,11,1,1,11,1,1,11,1,1,11,1,1,11,1,1,11,1,1,11,1,1,11,1,1,11,1,1,11,1,1,11,1,1,11,1,1,11,1,1,11,1,1,11,1,1,11,1,1,11,1,1,11,1,1,11,1,1,11,1,1,11,1,1,11,1,1,11,1,1,11,1,1,11,1,2,11,0.85,3,0.15,2,11,0.73,3,0.27,2,11,0.73,3,0.27,2,11,0.6,3,0.4,2,11,0.23,3,0.77,1,3,1,1,3,1,1,3,1,1,3,1,1,3,1,1,3,1,2,11,0.23,3,0.77,2,11,0.23,3,0.77,2,11,0.6,3,0.4,2,11,0.8,3,0.2,2,11,0.88,3,0.12,1,11,1,1,11,1,1,11,1,1,11,1,1,11,1,1,11,1,1,11,1,1,11,1,2,11,0.23,3,0.77,2,11,0.6,3,0.4,2,11,0.74,3,0.26,1,11,1,1,11,1,1,11,1,1,11,1,1,11,1,1,11,1,1,11,1],"slotPose":[1,0,0,1,0,0],"bonePose":[11,0,-1,1,0,-120.8,44.7,3,-0.970118,-0.242635,0.242635,-0.970118,1.9,-168.7],"edges":[0,1,1,2,2,3,3,4,4,5,5,6,6,7,7,8,8,9,9,10,10,11,11,12,12,13,13,14,14,15,15,16,16,17,17,18,18,19,19,20,20,21,21,22,22,23,23,24,24,25,25,26,26,27,27,28,28,29,29,30,30,31,31,32,32,33,33,34,34,35,35,36,36,37,37,38,38,39,39,40,40,41,41,42,42,43,43,44,44,45,45,46,46,47,47,0],"userEdges":[]}]},{"name":"Layer_6_copy","display":[{"type":"mesh","name":"Layer_6_copy","width":82,"height":87,"vertices":[-217.22,-250.63,-225.12,-247.08,-231.87,-239.58,-236.22,-230.48,-238.57,-221.38,-239.77,-211.08,-238.57,-201.98,-235.82,-193.28,-230.67,-185.38,-223.97,-181.43,-216.42,-180.23,-208.92,-180.63,-198.22,-185.38,-189.52,-192.48,-182.02,-199.23,-176.47,-205.93,-170.52,-213.48,-165.42,-224.13,-166.97,-232.83,-171.72,-241.53,-178.47,-248.28,-186.77,-253.43,-197.07,-255.78,-208.92,-254.23],"uvs":[0.33963,0.09655,0.24329,0.13736,0.16098,0.22356,0.10793,0.32816,0.07927,0.43276,0.06463,0.55115,0.07927,0.65575,0.1128,0.75575,0.17561,0.84655,0.25732,0.89195,0.34939,0.90575,0.44085,0.90115,0.57134,0.84655,0.67744,0.76494,0.7689,0.68736,0.83659,0.61034,0.90915,0.52356,0.97134,0.40115,0.95244,0.30115,0.89451,0.20115,0.8122,0.12356,0.71098,0.06437,0.58537,0.03736,0.44085,0.05517],"triangles":[18,16,17,19,16,18,23,0,15,21,22,15,22,23,15,20,21,15,19,20,16,20,15,16,3,4,13,3,13,14,0,3,14,0,14,15,2,3,0,4,5,13,5,6,12,5,12,13,1,2,0,7,10,11,6,7,11,6,11,12,7,9,10,7,8,9],"weights":[1,12,1,1,12,1,1,12,1,1,12,1,1,12,1,1,12,1,1,12,1,1,12,1,1,12,1,2,1,0.03,12,0.97,2,1,0.03,12,0.97,2,1,0.03,12,0.97,2,1,0.03,12,0.97,2,1,0.03,12,0.97,2,1,0.03,12,0.97,2,1,0.03,12,0.97,2,1,0.03,12,0.97,2,1,0.03,12,0.97,2,1,0.03,12,0.97,2,1,0.03,12,0.97,2,1,0.03,12,0.97,1,12,1,1,12,1,1,12,1],"slotPose":[1,0,0,1,0,0],"bonePose":[1,-0.706253,-0.707959,0.707959,-0.706253,-229.6,-256.85,12,-0.666391,-0.745603,0.745603,-0.666391,-252.591824,-297.278984],"edges":[0,1,1,2,2,3,3,4,4,5,5,6,6,7,7,8,8,9,9,10,10,11,11,12,12,13,13,14,14,15,15,16,16,17,17,18,18,19,19,20,20,21,21,22,22,23,23,0],"userEdges":[]}]},{"name":"Layer_40","display":[{"name":"Layer_40","transform":{"x":-1.73,"y":-258.82}}]},{"name":"Layer_14","display":[{"type":"mesh","name":"Layer_14","width":118,"height":124,"path":"Layer_33","vertices":[-244.38,-298.2,-250.17,-304.76,-262.06,-303.84,-272.63,-295.8,-277.39,-289.22,-280.04,-277.53,-282.24,-267.88,-284.15,-259.43,-288.02,-242.43,-290.8,-230.22,-294.01,-216.1,-295.38,-205.54,-283.27,-200.16,-274.18,-193.25,-265,-191.05,-254.17,-191.11,-248.19,-192.54,-247.69,-201.06,-248.15,-206.97,-247.46,-213.98,-246.59,-221.88,-243.96,-230.11,-240.46,-236.41,-234.42,-242.17,-227.99,-246.21,-222.16,-248.84,-215.18,-251.3,-208.11,-251.65,-199.48,-251.38,-191.58,-251.76,-183.86,-247.68,-176.84,-242.27,-171.29,-236.6,-167.62,-232.32,-165.64,-225.14,-164.11,-219.15,-160.25,-222.32,-158.31,-230.85,-155.85,-242.91,-148.87,-252.73,-148.8,-259.78,-150.96,-268.69,-157.1,-280.88,-159.64,-292.49,-168.91,-295.69,-176.85,-297.57,-188.42,-300.23,-196.83,-299.73,-205.28,-293.87,-219.77,-281.34,-238.51,-283.75],"uvs":[0.22593,0.11653,0.17284,0.07549,0.08755,0.1042,0.02378,0.18634,0,0.24705,0,0.3434,0,0.4232,0,0.49797,0,0.63912,0,0.72702,0,0.85144,0.00745,0.9368,0.10496,0.95744,0.1822,0.99529,0.24491,0.99603,0.33234,0.97615,0.3736,0.95407,0.36309,0.89073,0.35037,0.83428,0.34328,0.78181,0.33655,0.71676,0.3421,0.64611,0.3587,0.5894,0.39972,0.53127,0.44439,0.49164,0.47624,0.46466,0.52274,0.43129,0.58457,0.40896,0.62796,0.40389,0.68856,0.38669,0.75169,0.40484,0.81187,0.43468,0.86186,0.46936,0.89577,0.49637,0.92204,0.54919,0.94322,0.59355,0.9661,0.56169,0.9661,0.49113,0.96399,0.39193,0.99999,0.29839,0.98836,0.24653,0.95695,0.18054,0.8904,0.09596,0.85358,0.00897,0.78238,0,0.71929,0,0.63113,0,0.57056,0.01903,0.51858,0.08024,0.43455,0.20048,0.29439,0.22003],"triangles":[40,38,39,37,34,36,33,37,38,41,30,40,31,38,40,30,31,40,42,30,41,33,34,37,34,35,36,31,32,38,32,33,38,29,30,42,44,45,42,45,29,42,43,44,42,48,29,45,46,48,45,49,28,29,48,49,29,47,48,46,49,27,28,49,26,27,49,50,25,49,25,26,50,23,24,50,24,25,50,6,23,6,7,22,6,22,23,5,6,50,17,15,16,18,14,17,14,15,17,7,21,22,7,8,21,13,14,18,19,12,18,12,13,18,10,12,19,9,10,19,21,8,20,8,9,20,9,19,20,0,3,50,3,4,50,4,5,50,2,3,0,1,2,0,10,11,12],"weights":[1,12,1,1,12,1,1,12,1,1,12,1,1,12,1,1,12,1,1,12,1,1,12,1,1,12,1,1,12,1,1,12,1,1,12,1,1,12,1,1,12,1,1,12,1,1,12,1,1,12,1,1,12,1,1,12,1,1,12,1,1,12,1,1,12,1,1,12,1,1,12,1,1,12,1,1,12,1,1,12,1,1,12,1,1,12,1,1,12,1,1,12,1,1,12,1,1,12,1,1,12,1,1,12,1,1,12,1,1,12,1,1,12,1,1,12,1,1,12,1,1,12,1,1,12,1,1,12,1,1,12,1,1,12,1,1,12,1,1,12,1,1,12,1,1,12,1,1,12,1,1,12,1],"slotPose":[1,0,0,1,0,0],"bonePose":[12,-0.661748,-0.749726,0.749726,-0.661748,-260.563191,-293.439485,1,-0.706253,-0.707959,0.707959,-0.706253,-229.6,-256.85],"edges":[0,1,1,2,2,3,3,4,4,5,5,6,6,7,7,8,8,9,9,10,10,11,11,12,12,13,13,14,14,15,15,16,16,17,17,18,18,19,19,20,20,21,21,22,22,23,23,24,24,25,25,26,26,27,27,28,28,29,29,30,30,31,31,32,32,33,33,34,34,35,35,36,36,37,37,38,38,39,39,40,40,41,41,42,42,43,43,44,44,45,45,46,46,47,47,48,48,49,49,50,50,0],"userEdges":[]}]},{"name":"Layer_23","display":[{"type":"mesh","name":"Layer_23","width":130,"height":84,"path":"Layer_29","vertices":[-138.77,-360.95,-152.85,-365.16,-167.51,-367.44,-185.98,-370.32,-198.41,-372.25,-220.19,-370.77,-239.74,-366.28,-258.71,-358.35,-268.71,-341.44,-274.21,-329.54,-262.67,-326.99,-252,-318.45,-241.33,-306.37,-229.74,-299.86,-220.41,-293.14,-200.68,-288.55,-185.37,-286.17,-169.14,-286.73,-166.73,-298.35,-166.46,-314.04,-162.93,-326.61,-153.43,-333.37,-143.32,-344.4],"uvs":[0.99231,0.02381,0.87769,0.0119,0.76692,0.0119,0.62346,0.0119,0.52561,0,0.36846,0.05727,0.21852,0.146,0.08375,0.27387,0.02769,0.49107,0,0.63155,0.09077,0.65,0.18192,0.73096,0.27731,0.85358,0.37308,0.90893,0.45192,0.97084,0.60731,0.98869,0.72654,0.98869,0.84923,0.95238,0.85385,0.81131,0.83731,0.62619,0.84923,0.47202,0.91346,0.375,0.97731,0.22678],"triangles":[1,22,0,1,21,22,1,2,21,2,20,21,2,3,20,16,17,18,19,16,18,4,19,20,3,4,20,4,13,19,14,15,19,13,14,19,15,16,19,5,13,4,11,12,5,6,11,5,12,13,5,7,10,11,7,11,6,7,8,10,8,9,10],"weights":[1,12,1,1,12,1,1,12,1,1,12,1,1,12,1,1,12,1,1,12,1,1,12,1,1,12,1,1,12,1,1,12,1,1,12,1,1,12,1,1,12,1,1,12,1,1,12,1,1,12,1,1,12,1,1,12,1,1,12,1,1,12,1,1,12,1,1,12,1],"slotPose":[1,0,0,1,0,0],"bonePose":[1,-0.706253,-0.707959,0.707959,-0.706253,-229.6,-256.85,12,-0.668404,-0.743798,0.743798,-0.668404,-258.816889,-292.387506],"edges":[0,1,1,2,2,3,3,4,4,5,5,6,6,7,7,8,8,9,9,10,10,11,11,12,12,13,13,14,14,15,15,16,16,17,17,18,18,19,19,20,20,21,21,22,22,0],"userEdges":[]}]},{"name":"Layer_37_copy","display":[{"type":"mesh","name":"Layer_37_copy","width":296,"height":114,"vertices":[-141.91,-281.64,-130.91,-287.69,-113.76,-292.14,-99.41,-292.14,-81.71,-288.79,-66.76,-287.14,-57.41,-290.94,-58.51,-303.19,-71.21,-311.94,-86.16,-318.14,-98.31,-323.64,-107.71,-336.34,-112.11,-347.39,-110.46,-358.99,-101.06,-368.94,-86.71,-375.24,-62.41,-375.24,-45.21,-375.24,-25.36,-370.64,-12.11,-367.29,2.84,-361.74,18.34,-353.44,31.54,-348.49,47.59,-343.49,60.29,-340.74,72.99,-340.74,87.94,-341.84,97.29,-347.39,105.59,-353.99,116.64,-357.89,132.69,-356.24,145.39,-352.89,152.04,-343.99,150.89,-336.34,147.59,-329.14,138.19,-326.94,127.69,-329.14,117.74,-332.99,110.59,-331.89,105.59,-326.39,97.29,-321.39,83.49,-318.14,68.04,-316.94,56.99,-321.39,40.94,-325.29,28.79,-328.09,13.29,-332.99,3.94,-337.94,-5.46,-342.39,-18.76,-347.39,-28.66,-351.79,-39.76,-356.24,-61.86,-358.44,-72.91,-357.89,-82.31,-357.89,-88.91,-351.24,-86.71,-343.99,-78.96,-336.34,-64.06,-329.14,-49.66,-321.39,-35.31,-311.94,-27.01,-303.19,-24.81,-289.89,-31.46,-278.29,-40.31,-272.24,-53.01,-267.24,-70.66,-266.14,-85.61,-270.59,-100.51,-273.34,-109.31,-271.69,-123.16,-265.59,-132.01,-262.29,-141.91,-263.39,-141.91,-275.04,-128.2,-276,-107.75,-280.45,-80.1,-279.3,-53.05,-276.55,-43.1,-290.35,-49.15,-311.9,-65.2,-319.1,-85.65,-327.95,-100,-342.85,-92.8,-361.1,-71.85,-366.65,-54.15,-365.55,-30.4,-361.65,-13.25,-355.6,2.2,-349.5,22.1,-340.1,43.1,-335.15,63,-330.15,78.5,-328.5,94.5,-333.45,108.85,-341.75,121.05,-345.1,136.5,-342.85],"uvs":[0,0.82105,0.03716,0.76798,0.0951,0.72895,0.14358,0.72895,0.20338,0.75833,0.25389,0.77281,0.28547,0.73947,0.28176,0.63202,0.23885,0.55526,0.18834,0.50088,0.1473,0.45263,0.11554,0.34123,0.10068,0.2443,0.10625,0.14254,0.13801,0.05526,0.18649,0,0.26858,0,0.32669,0,0.39375,0.04035,0.43851,0.06974,0.48902,0.11842,0.54139,0.19123,0.58598,0.23465,0.6402,0.27851,0.68311,0.30263,0.72601,0.30263,0.77652,0.29298,0.80811,0.2443,0.83615,0.1864,0.87348,0.15219,0.9277,0.16667,0.97061,0.19605,0.99307,0.27412,0.98919,0.34123,0.97804,0.40439,0.94628,0.42368,0.91081,0.40439,0.8772,0.37061,0.85304,0.38026,0.83615,0.42851,0.80811,0.47237,0.76149,0.50088,0.70929,0.5114,0.67196,0.47237,0.61774,0.43816,0.57669,0.4136,0.52432,0.37061,0.49274,0.32719,0.46098,0.28816,0.41605,0.2443,0.3826,0.2057,0.3451,0.16667,0.27044,0.14737,0.23311,0.15219,0.20135,0.15219,0.17905,0.21053,0.18649,0.27412,0.21267,0.34123,0.26301,0.40439,0.31166,0.47237,0.36014,0.55526,0.38818,0.63202,0.39561,0.74868,0.37314,0.85044,0.34324,0.90351,0.30034,0.94737,0.24071,0.95702,0.1902,0.91798,0.13986,0.89386,0.11014,0.90833,0.06334,0.96184,0.03345,0.99079,0,0.98114,0,0.87895,0.04631,0.87052,0.1154,0.83149,0.20881,0.84157,0.30019,0.8657,0.33381,0.74464,0.31337,0.55561,0.25915,0.49245,0.19006,0.41482,0.14158,0.28412,0.1659,0.12403,0.23668,0.07535,0.29648,0.08499,0.37671,0.1192,0.43465,0.17228,0.48685,0.22578,0.55408,0.30824,0.62502,0.35166,0.69225,0.39552,0.74462,0.40999,0.79867,0.36657,0.84715,0.29377,0.88837,0.26438,0.94057,0.28412],"triangles":[96,33,32,31,96,32,96,34,33,96,35,34,30,96,31,30,95,96,96,36,35,95,36,96,95,37,36,29,95,30,29,28,95,28,94,95,94,37,95,94,38,37,28,27,94,94,93,38,93,39,38,27,93,94,93,40,39,92,41,93,26,93,27,93,41,40,26,92,93,25,92,26,92,42,41,25,91,92,91,42,92,24,91,25,91,43,42,24,90,91,90,43,91,23,90,24,90,44,43,22,90,23,45,44,90,22,45,90,89,45,22,21,89,22,89,46,45,88,47,21,21,47,89,47,46,89,20,88,21,20,87,88,88,48,47,19,87,20,87,48,88,87,49,48,18,86,87,18,87,19,50,49,87,86,50,87,61,78,62,78,63,62,17,86,18,60,78,61,86,51,50,79,78,60,17,51,86,78,64,63,78,77,64,17,85,51,59,79,60,79,7,78,85,52,51,7,6,78,77,65,64,6,77,78,16,85,17,80,7,79,80,79,59,58,80,59,6,5,77,77,66,65,5,66,77,80,8,7,16,52,85,84,52,16,76,66,5,84,53,52,15,84,16,81,80,58,57,81,58,9,8,80,81,9,80,4,76,5,76,67,66,54,53,84,15,54,84,15,83,54,56,81,57,3,68,4,4,68,76,68,67,76,83,55,54,56,82,81,82,10,81,14,83,15,81,10,9,55,82,56,82,11,10,83,82,55,75,68,3,13,82,83,14,13,83,13,12,82,2,75,3,12,11,82,75,69,68,74,69,75,2,74,75,74,70,69,1,74,2,74,71,70,73,72,71,73,71,74,1,0,74,0,73,74],"weights":[1,3,1,1,3,1,2,13,0.65,3,0.35,2,13,0.82,3,0.18,2,13,0.91,3,0.09,1,13,1,1,13,1,1,13,1,1,13,1,1,13,1,1,13,1,1,13,1,1,13,1,1,13,1,2,13,0.92,19,0.08,2,13,0.92,19,0.08,2,13,0.87,19,0.13,2,13,0.69,19,0.31,2,13,0.35,19,0.65,2,13,0.35,19,0.65,1,19,1,1,19,1,1,19,1,1,19,1,1,19,1,1,19,1,1,19,1,1,19,1,1,19,1,1,19,1,1,19,1,1,19,1,1,19,1,1,19,1,1,19,1,1,19,1,1,19,1,1,19,1,1,19,1,1,19,1,1,19,1,1,19,1,1,19,1,1,19,1,1,19,1,1,19,1,1,19,1,1,19,1,1,19,1,2,13,0.35,19,0.65,2,13,0.35,19,0.65,2,13,0.63,19,0.37,2,13,0.69,19,0.31,2,13,0.87,19,0.13,2,13,0.92,19,0.08,1,13,1,1,13,1,1,13,1,1,13,1,1,13,1,1,13,1,1,13,1,1,13,1,1,13,1,1,13,1,1,13,1,2,13,0.91,3,0.09,2,13,0.82,3,0.18,2,13,0.65,3,0.35,2,13,0.42,3,0.58,2,13,0.42,3,0.58,1,3,1,1,3,1,1,3,1,2,13,0.42,3,0.58,2,13,0.65,3,0.35,2,13,0.91,3,0.09,1,13,1,1,13,1,1,13,1,1,13,1,1,13,1,1,13,1,2,13,0.92,19,0.08,2,13,0.87,19,0.13,2,13,0.69,19,0.31,2,13,0.35,19,0.65,1,19,1,1,19,1,1,19,1,1,19,1,1,19,1,1,19,1,1,19,1,1,19,1,1,19,1,1,19,1],"slotPose":[1,0,0,1,0,0],"bonePose":[13,0.292344,-0.956313,0.956313,0.292344,266.894054,-355.256116,19,0.990975,0.134045,-0.134045,0.990975,313.610332,-416.497448,3,-0.970118,-0.242635,0.242635,-0.970118,1.9,-168.7],"edges":[0,1,1,2,2,3,3,4,4,5,5,6,6,7,7,8,8,9,9,10,10,11,11,12,12,13,13,14,14,15,15,16,16,17,17,18,18,19,19,20,20,21,21,22,22,23,23,24,24,25,25,26,26,27,27,28,28,29,29,30,30,31,31,32,32,33,33,34,34,35,35,36,36,37,37,38,38,39,39,40,40,41,41,42,42,43,43,44,44,45,45,46,46,47,47,48,48,49,49,50,50,51,51,52,52,53,53,54,54,55,55,56,56,57,57,58,58,59,59,60,60,61,61,62,62,63,63,64,64,65,65,66,66,67,67,68,68,69,69,70,70,71,71,72,72,73,73,0],"userEdges":[]}]},{"name":"Layer_38_copy","display":[{"name":"Layer_38_copy","transform":{"x":-32.62,"y":-288.02}}]},{"name":"Layer_8","display":[{"type":"mesh","name":"Layer_8","width":304,"height":230,"vertices":[-173.52,-302.46,-188.77,-293.51,-204.72,-278.21,-211.12,-260.36,-213.02,-239.36,-209.82,-211.31,-197.07,-187.71,-181.17,-170.51,-162.72,-153.31,-137.17,-135.46,-108.52,-118.91,-85.57,-106.81,-55.02,-94.06,-26.27,-85.76,2.33,-81.31,25.98,-81.31,55.93,-83.86,68.68,-88.96,76.48,-99.16,71.83,-125.91,66.73,-152.06,56.53,-181.36,41.28,-213.21,24.03,-238.06,-9.07,-268.66,-32.72,-285.86,-58.77,-299.26,-94.47,-307.56,-113.62,-310.31,-145.47,-310.31,-193.3,-245.65,-194.55,-225.2,-179.65,-201.65,-158.6,-179.35,-134.45,-152.1,-109.05,-136,-59.45,-112.45,-38.4,-105,0.65,-100.65,32.25,-98.8,43.4,-108.1,35.95,-157.7,21.1,-190.5,-9.9,-227.7,-34.05,-248.75,-71.85,-265.5,-108.4,-274.8,-144.35,-279.1,-168.5,-278.5,-184,-265.5,-163.55,-245.65,-140,-206,-109.05,-182.45,-76.2,-157.7,-42.75,-142.8,1.85,-125.45,-140.65,-256.2,-115.25,-247.5,-81.15,-233.9,-48.3,-212.8,-17.35,-186.2,0.65,-162.65,12.4,-141.55],"uvs":[0.17747,0.03413,0.1273,0.07304,0.07484,0.13957,0.05378,0.21717,0.04753,0.30848,0.05806,0.43043,0.1,0.53304,0.1523,0.60783,0.21299,0.68261,0.29704,0.76022,0.39128,0.83217,0.46678,0.88478,0.56727,0.94022,0.66184,0.9763,0.75592,0.99565,0.83372,0.99565,0.93224,0.98457,0.97418,0.96239,0.99984,0.91804,0.98454,0.80174,0.96776,0.68804,0.93421,0.56065,0.88405,0.42217,0.8273,0.31413,0.71842,0.18109,0.64063,0.1063,0.55493,0.04804,0.4375,0.01196,0.37451,0,0.26974,0,0.1124,0.28114,0.10829,0.37005,0.1573,0.47244,0.22654,0.5694,0.30598,0.68787,0.38954,0.75787,0.55269,0.86027,0.62194,0.89266,0.75039,0.91157,0.85434,0.91961,0.89102,0.87918,0.86651,0.66353,0.81766,0.52092,0.71569,0.35918,0.63625,0.26766,0.51191,0.19483,0.39168,0.1544,0.27342,0.1357,0.19398,0.13831,0.14299,0.19483,0.21026,0.28114,0.28773,0.45353,0.38954,0.55592,0.4976,0.66353,0.60763,0.72831,0.75434,0.80374,0.28559,0.23527,0.36914,0.27309,0.48131,0.33222,0.58937,0.42396,0.69118,0.53961,0.75039,0.642,0.78904,0.73374],"triangles":[19,40,18,40,17,18,40,16,17,20,41,19,41,40,19,21,41,20,41,62,40,40,39,16,22,42,21,42,41,21,39,15,16,55,39,40,62,55,40,23,42,22,43,42,23,55,38,39,42,61,41,61,62,41,38,15,39,24,43,23,38,14,15,43,60,42,60,61,42,61,55,62,24,44,43,38,13,14,61,54,55,37,38,55,54,37,55,60,54,61,37,13,38,25,44,24,59,60,43,44,59,43,53,54,60,59,53,60,54,36,37,45,44,25,37,12,13,58,59,44,26,45,25,45,58,44,36,12,37,52,53,59,53,36,54,58,52,59,53,11,36,36,11,12,35,11,53,27,45,26,35,10,11,57,58,45,46,57,45,27,46,45,57,51,52,57,52,58,52,35,53,34,35,52,28,46,27,29,47,28,9,10,35,34,9,35,56,57,46,47,56,46,28,47,46,33,34,52,51,33,52,56,51,57,56,50,51,8,9,34,33,8,34,29,0,47,50,32,51,0,48,47,47,48,56,48,50,56,32,33,51,31,32,50,48,49,50,7,8,33,32,7,33,49,30,50,30,31,50,6,7,32,0,1,48,1,49,48,1,2,49,31,5,32,5,6,32,3,30,49,2,3,49,4,31,30,3,4,30,4,5,31],"weights":[1,3,1,1,3,1,1,3,1,1,3,1,1,3,1,1,3,1,1,3,1,1,3,1,1,3,1,1,3,1,1,3,1,1,3,1,1,3,1,1,3,1,1,3,1,1,3,1,1,3,1,1,3,1,1,3,1,1,3,1,1,3,1,1,3,1,1,3,1,1,3,1,1,3,1,1,3,1,1,3,1,1,3,1,1,3,1,1,3,1,1,3,1,1,3,1,1,3,1,1,3,1,1,3,1,1,3,1,1,3,1,1,3,1,1,3,1,1,3,1,1,3,1,1,3,1,1,3,1,1,3,1,1,3,1,1,3,1,1,3,1,1,3,1,1,3,1,1,3,1,1,3,1,1,3,1,1,3,1,1,3,1,1,3,1,1,3,1,1,3,1,1,3,1,1,3,1,1,3,1,1,3,1,1,3,1,1,3,1],"slotPose":[1,0,0,1,0,0],"bonePose":[3,-0.970118,-0.242635,0.242635,-0.970118,1.9,-168.7],"edges":[0,1,1,2,2,3,3,4,4,5,5,6,6,7,7,8,8,9,9,10,10,11,11,12,12,13,13,14,14,15,15,16,16,17,17,18,18,19,19,20,20,21,21,22,22,23,23,24,24,25,25,26,26,27,27,28,28,29,29,0],"userEdges":[]}]},{"name":"Layer_37","display":[{"type":"mesh","name":"Layer_37","width":295,"height":115,"vertices":[-107.67,-300.38,-96.62,-307.03,-80.12,-310.38,-61.92,-310.38,-42.92,-307.88,-28.82,-307.03,-24.77,-317.03,-37.17,-326.88,-57.82,-334.38,-73.52,-344.18,-80.92,-359.13,-78.47,-373.93,-70.22,-385.53,-54.52,-391.28,-33.82,-392.68,-0.77,-392.68,23.98,-387.23,41.38,-376.53,57.88,-371.53,81.03,-364.13,93.48,-360.78,114.08,-360.78,128.13,-362.48,142.98,-373.18,158.68,-377.23,176.88,-375.58,186.03,-361.53,186.78,-351.73,176.88,-344.18,163.63,-344.18,147.13,-345.83,137.23,-338.43,128.13,-331.08,109.18,-330.13,84.33,-333.43,59.53,-341.78,36.38,-351.73,14.93,-362.48,-7.42,-371.53,-33.82,-373.93,-47.87,-370.68,-50.37,-359.13,-36.32,-350.83,-16.47,-341.78,-1.62,-332.73,6.63,-319.38,10.78,-307.88,4.98,-293.83,-10.72,-280.63,-30.52,-278.93,-50.37,-286.33,-70.22,-288.93,-82.62,-283.93,-95.82,-278.13,-107.67,-282.28,-106.17,-281.83,-95,-292.9,-72.7,-297.9,-48.75,-298.7,-27.25,-296.25,-11.55,-300.35,-8.25,-319.35,-26.45,-331.75,-42.95,-339.2,-62.8,-350.75,-66.95,-365.65,-52.9,-382.15,-24.8,-383,9.9,-378.05,34.7,-368.1,55.35,-358.2,85.1,-350.75,109.1,-347.45,131.4,-350.75,151.25,-359.05,168.6,-360.7],"uvs":[0,0.80217,0.03746,0.74435,0.09339,0.71522,0.15508,0.71522,0.21949,0.73696,0.26729,0.74435,0.28102,0.65739,0.23898,0.57174,0.16898,0.50652,0.11576,0.4213,0.09068,0.2913,0.09898,0.16261,0.12695,0.06174,0.18017,0.01174,0.25034,-0.00043,0.36237,-0.00043,0.44627,0.04696,0.50525,0.14,0.56119,0.18348,0.63966,0.24783,0.68186,0.27696,0.75169,0.27696,0.79932,0.26217,0.84966,0.16913,0.90288,0.13391,0.96458,0.14826,0.99559,0.27043,0.99814,0.35565,0.96458,0.4213,0.91966,0.4213,0.86373,0.40696,0.83017,0.4713,0.79932,0.53522,0.73508,0.54348,0.65085,0.51478,0.56678,0.44217,0.48831,0.35565,0.41559,0.26217,0.33983,0.18348,0.25034,0.16261,0.20271,0.19087,0.19424,0.2913,0.24186,0.36348,0.30915,0.44217,0.35949,0.52087,0.38746,0.63696,0.40153,0.73696,0.38186,0.85913,0.32864,0.97391,0.26153,0.9887,0.19424,0.92435,0.12695,0.90174,0.08492,0.94522,0.04017,0.99565,0,0.95957,0.00508,0.96348,0.04294,0.86722,0.11854,0.82374,0.19972,0.81679,0.2726,0.83809,0.32583,0.80244,0.33701,0.63722,0.27532,0.5294,0.21938,0.46461,0.1521,0.36418,0.13803,0.23461,0.18566,0.09114,0.28091,0.08374,0.39854,0.12679,0.4826,0.21331,0.5526,0.2994,0.65345,0.36418,0.73481,0.39287,0.8104,0.36418,0.87769,0.292,0.9365,0.27766],"triangles":[75,28,27,75,27,26,25,75,26,24,75,25,75,29,28,74,29,75,24,74,75,74,30,29,23,74,24,23,22,74,22,73,74,73,30,74,73,31,30,73,32,31,72,32,73,22,21,73,21,72,73,72,33,32,20,72,21,20,71,72,34,33,72,71,34,72,19,71,20,19,70,71,70,35,71,35,34,71,18,70,19,70,36,35,17,69,70,17,70,18,69,36,70,16,69,17,69,37,36,16,68,69,68,37,69,15,68,16,68,38,37,60,47,46,45,61,46,61,60,46,15,38,68,44,61,45,60,48,47,67,38,15,14,67,15,43,61,44,59,48,60,43,62,61,62,6,61,6,60,61,67,39,38,6,5,60,59,49,48,5,59,60,42,62,43,42,63,62,62,7,6,14,39,67,50,49,59,58,50,59,5,4,59,63,7,62,4,58,59,14,66,39,13,66,14,66,40,39,41,63,42,63,8,7,41,64,63,64,8,63,3,58,4,65,41,40,66,65,40,3,57,58,51,50,58,57,51,58,65,64,41,13,12,66,12,65,66,64,9,8,12,11,65,65,10,64,2,57,3,10,9,64,11,10,65,57,52,51,2,56,57,56,52,57,1,56,2,56,53,52,54,55,56,0,54,56,1,0,56,56,55,53],"weights":[1,3,1,2,13,0.52,3,0.48,2,13,0.81,3,0.19,2,13,0.81,3,0.19,2,13,0.88,3,0.12,1,13,1,1,13,1,1,13,1,2,13,0.96,19,0.04,2,13,0.95,19,0.05,2,13,0.95,19,0.05,2,13,0.87,19,0.13,2,13,0.87,19,0.13,2,13,0.67,19,0.33,2,13,0.36,19,0.64,2,13,0.36,19,0.64,2,13,0.36,19,0.64,2,19,0.87,13,0.13,1,19,1,1,19,1,1,19,1,1,19,1,1,19,1,1,19,1,1,19,1,1,19,1,1,19,1,1,19,1,1,19,1,1,19,1,1,19,1,1,19,1,1,19,1,1,19,1,1,19,1,1,19,1,2,19,0.87,13,0.13,2,13,0.36,19,0.64,2,13,0.36,19,0.64,2,13,0.36,19,0.64,2,13,0.67,19,0.33,2,13,0.87,19,0.13,2,13,0.96,19,0.04,2,13,0.96,19,0.04,1,13,1,1,13,1,1,13,1,1,13,1,2,13,0.88,3,0.12,2,13,0.88,3,0.12,2,13,0.81,3,0.19,2,13,0.52,3,0.48,1,3,1,1,3,1,1,3,1,1,3,1,1,3,1,2,13,0.52,3,0.48,2,13,0.81,3,0.19,2,13,0.88,3,0.12,1,13,1,1,13,1,1,13,1,2,13,0.96,19,0.04,2,13,0.95,19,0.05,2,13,0.87,19,0.13,2,13,0.67,19,0.33,2,13,0.36,19,0.64,2,13,0.36,19,0.64,2,19,0.87,13,0.13,1,19,1,1,19,1,1,19,1,1,19,1,1,19,1,1,19,1],"slotPose":[1,0,0,1,0,0],"bonePose":[13,0.292344,-0.956313,0.956313,0.292344,279.5,-365.15,3,-0.970118,-0.242635,0.242635,-0.970118,1.9,-168.7,19,0.990975,0.134045,-0.134045,0.990975,312.25,-391.15],"edges":[0,1,1,2,2,3,3,4,4,5,5,6,6,7,7,8,8,9,9,10,10,11,11,12,12,13,13,14,14,15,16,17,17,18,18,19,19,20,20,21,21,22,22,23,23,24,24,25,25,26,26,27,27,28,28,29,29,30,30,31,31,32,32,33,33,34,34,35,35,36,36,37,37,38,38,39,39,40,40,41,41,42,42,43,43,44,44,45,45,46,46,47,47,48,48,49,49,50,50,51,51,52,52,53,53,55,55,54,54,0,15,16],"userEdges":[]}]},{"name":"Layer_12_copy_3","display":[{"type":"mesh","name":"Layer_12_copy_3","width":227,"height":245,"path":"Layer_28","vertices":[-161.36,-379.48,-174.47,-379.98,-187.69,-380.21,-214.47,-379.98,-232.55,-374.14,-248.35,-367.48,-265.04,-358.73,-277.19,-347.2,-290.41,-333.92,-297.61,-318.14,-305.01,-297.48,-311.26,-280.66,-316.73,-257.75,-317.52,-242.59,-317.52,-213.39,-313.82,-189.79,-308.83,-172.08,-295.29,-154.7,-284.04,-145.47,-269.38,-136.22,-249.6,-134.98,-234.61,-135.43,-221.46,-135.43,-207.61,-138.83,-191.76,-144.08,-175.26,-150.03,-161.36,-157.33,-155.41,-166.53,-161.36,-174.48,-167.31,-181.68,-161.36,-186.38,-156.76,-192.98,-150.6,-199.39,-143.31,-208.63,-130.84,-208.17,-125.24,-215.92,-110.59,-236.07,-89.5,-236.98,-89.85,-244.77,-89.85,-256.57,-90.04,-262.89,-89.86,-271.25,-93.02,-290.63,-101.72,-314.42,-101.81,-324.42,-103.07,-337.82,-103.52,-342.52,-105,-348.11,-106.63,-352.84,-109.89,-357.71,-108.39,-363.2,-111.95,-370.02,-117.24,-370.64,-122.97,-372.7,-137.61,-379.13,-148.81,-379.48,-145.2,-369.11,-156.65,-369.56,-173.65,-369.11,-189.7,-366.81,-202.05,-365.01,-216.75,-359.96,-229.1,-352.61,-241.5,-342.51,-249.75,-333.81,-259.35,-321.91,-269.9,-305.36,-276.8,-288.41,-280.9,-273.76,-285.05,-256.31,-285.95,-242.11,-285.95,-215.06,-284.6,-197.16,-282.3,-185.26,-275.4,-171.51,-268.1,-161.91,-257.55,-153.16,-247,-147.21,-235.05,-144.91,-221.8,-145.41,-208,-149.51,-195.2,-151.81,-179.15,-160.96,-170.4,-168.31,-176.4,-177.96,-173.65,-191.26,-166.3,-194.46,-163.55,-207.31,-152.1,-216.01,-140.88,-216.45,-140.43,-224.25,-136.27,-234.44,-127.13,-239.85,-124.38,-246.75,-110.13,-258.05,-139.03,-258.2,-132.69,-262.53,-130.55,-294.97,-150.25,-291.66,-157.15,-300.81,-159.9,-313.21,-161.25,-328.76,-158.05,-341.16,-154.4,-351.21,-145.65,-362.26,-157.6,-362.26,-168.15,-356.76,-179.15,-346.21,-189.25,-332.91,-201.15,-313.16,-207.1,-291.61,-213.55,-273.76,-218.6,-252.66,-221.8,-226.96,-224.1,-202.66,-225,-182.96,-225.45,-163.71,-175.95,-361.31,-190.6,-354.91,-202.05,-346.21,-214.9,-331.51,-223.15,-319.16,-232.35,-306.31,-241.05,-290.26,-245.15,-270.06,-252.05,-249.91,-255.25,-231.11,-256.15,-205.41,-255.25,-188.01,-251.15,-167.36,-176.4,-312.71,-178.25,-296.66,-178.25,-273.76,-179.6,-249.91,-181,-227.46,-187.4,-204.06,-195.65,-175.61,-200.7,-163.26,-147.46,-235.53,-149.81,-226.98,-172.56,-197.13,-181.76,-190.33,-190.61,-186.48,-200.36,-184.68,-209.51,-189.43,-215.71,-197.98,-217.21,-208.93,-216.61,-220.18,-215.16,-231.38,-211.91,-239.98,-206.26,-249.13,-197.11,-256.23,-186.16,-259.78,-175.26,-261.23,-167.26,-259.78,-159.26,-254.43,-154.56,-249.73,-151.01,-243.23,-161.36,-247.93,-171.11,-241.73,-177.31,-235.23,-186.16,-218.68,-193.26,-205.38,-197.11,-194.43,-177.91,-212.78,-170.81,-222.53,-167.86,-231.98,-165.21,-237.88,-179.66,-243.23,-188.26,-236.13,-195.61,-229.03,-199.46,-220.18,-202.41,-211.28,-201.86,-203.33],"uvs":[0.68789,0.00204,0.63011,0.00346,0.5719,0,0.45393,0,0.3743,0.02357,0.30469,0.051,0.23118,0.08672,0.17765,0.13379,0.11941,0.18801,0.08769,0.25242,0.05511,0.3367,0.02754,0.4054,0.00346,0.49889,0,0.56388,0,0.67999,0.01628,0.77628,0.03825,0.84856,0.09789,0.91952,0.14747,0.95718,0.21202,0.99495,0.29915,1,0.3652,0.99816,0.42312,0.99816,0.48414,0.98429,0.55396,0.96285,0.62665,0.93857,0.68789,0.90877,0.71409,0.87123,0.68789,0.83877,0.66168,0.80939,0.68789,0.7902,0.70815,0.76326,0.73375,0.74032,0.76475,0.70499,0.81952,0.68383,0.84315,0.65751,0.91019,0.54987,1,0.58,1,0.5351,1,0.48694,1,0.4569,1,0.41994,1,0.39174,1,0.36549,1,0.30125,1,0.24192,1,0.22115,0.98607,0.19654,0.97909,0.18302,0.96099,0.16246,0.9673,0.14081,0.92807,0.07659,0.89589,0.05989,0.857,0.02973,0.79251,0.00346,0.74317,0.00204,0.75905,0.04437,0.70861,0.04253,0.63373,0.04437,0.56302,0.05376,0.50861,0.06111,0.44386,0.08171,0.38945,0.11171,0.33482,0.15294,0.29848,0.18845,0.25619,0.23702,0.20972,0.30457,0.17931,0.37376,0.16126,0.43355,0.14297,0.50478,0.13901,0.56273,0.13901,0.67314,0.14496,0.7462,0.15509,0.79478,0.18548,0.8509,0.21765,0.89008,0.26412,0.92579,0.3106,0.95009,0.36324,0.95947,0.42161,0.95744,0.4824,0.94069,0.53879,0.93131,0.60949,0.89397,0.64804,0.86396,0.62161,0.82457,0.63373,0.77029,0.6661,0.75723,0.67822,0.70478,0.72865,0.66927,0.77514,0.65069,0.77711,0.61886,0.7954,0.57947,0.8357,0.55518,0.84782,0.52702,0.91106,0.47874,0.78328,0.48029,0.88384,0.64167,0.83956,0.38111,0.7368,0.36049,0.70641,0.32314,0.69429,0.27253,0.68834,0.20906,0.70244,0.15845,0.71853,0.11743,0.75707,0.07233,0.70443,0.07233,0.65795,0.09478,0.60949,0.13783,0.565,0.19212,0.51258,0.27274,0.48637,0.36069,0.45795,0.43355,0.43571,0.51968,0.42161,0.62457,0.41147,0.72375,0.40751,0.80416,0.40553,0.88274,0.62359,0.07621,0.55905,0.10233,0.50861,0.13783,0.45201,0.19784,0.41566,0.24824,0.37513,0.3007,0.33681,0.36621,0.31874,0.44865,0.28835,0.5309,0.27425,0.60764,0.27029,0.71253,0.27425,0.78355,0.29232,0.86784,0.62161,0.27457,0.61346,0.34009,0.61346,0.43355,0.60751,0.5309,0.60134,0.62253,0.57315,0.71805,0.53681,0.83416,0.51456,0.88457,0.74914,0.5896,0.73878,0.6245,0.63856,0.74634,0.59803,0.77409,0.55904,0.7898,0.51609,0.79715,0.47578,0.77776,0.44847,0.74286,0.44187,0.69818,0.44451,0.65226,0.4509,0.60654,0.46521,0.57144,0.4901,0.53409,0.53041,0.50511,0.57865,0.49062,0.62667,0.4847,0.66191,0.49062,0.69715,0.51246,0.71786,0.53164,0.7335,0.55817,0.6879,0.53899,0.64495,0.5643,0.61764,0.59083,0.57865,0.65838,0.54737,0.71266,0.53041,0.75736,0.61499,0.68246,0.64627,0.64267,0.65927,0.60409,0.67094,0.58001,0.60728,0.55817,0.56939,0.58715,0.53702,0.61613,0.52006,0.65226,0.50706,0.68858,0.50949,0.72103],"triangles":[97,94,42,44,97,43,97,42,43,42,94,41,94,36,38,94,38,39,46,47,45,97,44,45,47,97,45,94,39,40,41,94,40,38,36,37,100,97,49,48,49,47,49,97,47,101,100,49,102,101,49,51,49,50,52,104,49,104,103,49,103,102,49,51,52,49,100,99,97,94,93,36,92,35,36,99,98,97,95,93,94,97,95,94,93,92,36,92,91,35,53,104,52,91,90,35,54,56,53,56,104,53,90,89,35,98,95,97,95,92,93,89,34,35,95,91,92,95,157,91,89,33,34,98,154,95,156,157,95,138,90,91,157,138,91,55,56,54,88,33,89,139,89,90,154,155,95,155,156,95,138,139,90,139,88,89,132,154,98,88,32,33,88,87,32,55,57,56,105,103,104,56,57,104,57,